file,0,1,2,3,4,5,6,7,8,9,10,11,12,13,14,15,16,17,18,19,20,21,22,23,24,25,26,27,28,29,30,31,32,33,34,35,36,37,38,39,40,41,42,43,44,45,46,47,48,49,50,51,52,53,54,55,56,57,58,59,60,61,62,63,64,65,66,67,68,69,70,71,72,73,74,75,76,77,78,79,80,81,82,83,84,85,86,87,88,89,90,91,92,93,94,95,96,97,98,99,100,101,102,103,104,105,106,107,108,109,110,111,112,113,114,115,116,117,118,119,120,121,122,123,124,125,126,127,128,129,130,131,132,133,134,135,136,137,138,139,140,141,142,143,144,145,146,147,148,149,150,151,152,153,154,155,156,157,158,159
AA01-nc-1,0.4979265,1.6293559,0.9092009,1.0079231,0.6238676,0.9421562,0.9791162,0.537871,1.7851915,0.30368218,1.1694912,2.163279,1.1539203,0.16142857,1.170729,0.48049656,1.1616642,0.77152455,0.1505321,1.6680094,1.6607044,0.94605654,1.4394454,1.0626926,1.4456627,1.2862436,0.47660038,1.3569119,0.80513954,0.91083646,1.3133585,0.45669925,-0.455581,0.8233507,-0.061688814,1.0016168,-0.46054977,-0.54518926,-0.47588003,-0.07120346,0.7286918,-0.15138729,-0.7477451,1.0728921,0.85072625,0.10751042,0.2611218,0.45590886,-0.03439783,0.20659325,0.10797242,0.9872253,0.62573093,0.47698003,0.6507868,0.9999497,1.1022105,0.73985344,-0.05009673,0.6040933,-0.5628199,-0.68498176,0.6131408,-0.269171,1.1535295,0.5768595,0.9390098,0.28097087,0.8036884,1.7294892,1.2545785,1.7983634,1.3788469,1.0058459,1.0518967,0.7593114,0.15841442,0.34805495,1.1856062,0.60521984,1.0154035,1.0137105,0.67748785,0.7797738,1.3356814,1.0235536,0.116795056,0.24604958,0.5151659,0.5211497,0.41856542,0.9524701,0.6472472,0.0909176,0.7440767,1.2756115,1.1529295,-0.57660407,0.9385207,-0.28082117,0.803266,1.7292019,1.2539524,1.7978792,1.3782921,-1.0056028,1.0515858,-0.7587558,-0.1582359,-0.3479478,1.1849703,-0.6050987,-1.0153395,-1.0134116,-0.6774222,-0.77959263,1.3351191,1.023108,0.116352715,-0.24562187,-0.51487684,-0.5209034,-0.41832215,-0.9521912,0.6469664,-0.09069144,-0.743774,1.2750086,0.22602385,0.27637455,0.11670662,0.170606,0.32268593,0.2089603,0.00034409203,0.20258202,0.21126817,0.23522502,0.07732601,0.003823502,0.32710195,0.012628215,0.1929653,0.009272512,0.13337843,0.063088864,0.24585131,0.011036169,0.026913159,0.04093715,0.092411585,0.10213342,0.03015982,0.10087458,0.07915073,-0.028470736,0.14176676,0.03179936,0.27961904,0.1857439
AA10-co-400,0.595261,0.98585075,0.39151347,0.5503103,0.5350142,0.72293913,0.5656206,0.52356005,0.8141391,0.57149875,0.668659,1.2193359,0.9599941,0.3835396,0.57330066,0.6148583,0.75172144,0.8044117,0.19439194,0.98825914,0.64688164,0.5247066,0.9590405,0.6224072,1.3654697,0.702031,0.33337253,0.8824376,0.6619812,0.60854936,0.8174713,0.4317196,-0.48056796,0.8298123,-0.0028568695,0.53506577,-0.38996154,-0.6149343,-0.4632756,-0.3764567,0.5950603,0.39215365,-0.5202499,0.9995401,0.5877956,0.26067504,-0.1557834,0.44615975,0.43554568,0.66622645,-0.014208312,0.54944414,0.12366715,-0.05177961,0.18947788,0.5671491,1.2717545,0.30359298,0.059670568,0.6008419,-0.5482756,-0.02536611,0.6597509,-0.17040353,1.2142444,0.5584249,0.8892825,0.50400066,0.97906804,1.2022183,1.435986,1.5939735,1.4862713,0.9292865,1.0136636,0.699342,0.5515789,0.3458379,1.3147534,0.5068887,0.78481704,1.0581422,0.68781143,0.66863066,1.4076596,0.8773638,0.27405253,0.6422215,0.3096747,0.45814982,0.27701974,0.99797684,0.8064354,0.15709072,0.9299771,0.992196,1.2133346,-0.5581048,0.88854545,-0.503728,0.97851807,1.2020084,1.43526,1.5933782,1.4854823,-0.9289554,1.0134478,-0.6987587,-0.4703187,-0.34565365,1.3137683,-0.50675166,-0.7846991,-1.0578712,-0.68776053,-0.66782933,1.4068248,0.87678367,0.21320014,-0.64159334,-0.28265813,-0.4579258,-0.2763992,-0.9977513,0.80624664,-0.15626378,-0.92970383,0.9912813,0.11078706,0.1137354,0.021834448,0.114140645,0.19929865,0.07580767,0.140544,0.10916659,0.08961992,0.18028343,0.17019661,0.14807342,0.22498164,0.011899185,0.075283214,0.021114143,0.05818068,0.06292473,0.09668315,0.15888374,0.12070114,0.011111665,0.08355318,0.23014523,0.15418248,0.00044307762,0.09409502,0.094056495,0.032452233,0.19147162,0.14673068,0.11204019
AA03-co-1,0.5153153,0.9978888,0.2012969,1.1283313,0.53979707,0.5781314,0.4211852,0.06979361,0.8884965,0.15236415,0.74054503,1.112938,0.9421708,0.10862574,0.25289539,0.4629197,0.14891702,0.14878482,0.2331874,1.1286453,0.5888412,0.511998,0.70053303,1.1284231,1.1116842,0.7963234,0.06662768,0.5505219,0.6330715,0.58050203,0.713315,0.37940452,-0.48907638,0.9450859,-0.18523388,1.1193147,-0.51338047,-0.55614895,-0.38319963,-0.049135845,0.8223583,-0.11126827,-0.6776945,1.0412303,0.88726974,0.0923874,0.22696531,0.43235415,-0.09351033,0.14363346,0.22066721,1.0524079,0.5518714,0.49541947,0.6629542,1.117593,1.0661272,0.7638466,-0.047206663,0.46488613,-0.5806407,-0.56952,0.6399118,-0.3595049,1.1260486,0.6220358,0.9696344,0.23598641,0.79718775,1.6950574,1.1335368,1.8042325,1.3719456,0.9111858,0.90022457,0.7276446,0.03832704,0.47500965,1.1569569,0.7047315,0.9980001,0.90500516,0.87009454,0.7257457,1.3173542,1.0281044,0.19342878,0.20206863,0.5827956,0.5636666,0.37993354,1.0921605,0.7231212,0.018676959,0.7484952,1.2757648,1.1255763,-0.62188417,0.96924174,-0.23579264,0.7969225,1.694957,1.1331986,1.8038857,1.3715379,-0.9109131,0.9000559,-0.7273294,0.038185265,-0.47494265,1.156434,-0.70464057,-0.9979364,-0.90481216,-0.87007314,-0.7251299,1.3169262,1.0278076,-0.19299376,-0.2016934,-0.5826564,-0.56357676,-0.37955958,-1.0920563,0.72300607,0.01850346,-0.74837416,1.2752863,0.21743701,0.26434478,0.10605229,0.16741122,0.31357062,0.19795637,0.0104191415,0.19519679,0.20128825,0.23360866,0.084464885,0.01417733,0.3204055,0.012646142,0.18319285,0.010011962,0.12713496,0.06258171,0.23257445,0.02189735,0.034023806,0.03796325,0.092160374,0.11233093,0.039131865,0.090673916,0.079387836,-0.01982295,0.1323393,0.04349751,0.26922888,0.18052834
AA10-co-1,0.55107987,1.3539019,0.26947466,1.0570743,0.54147696,0.7098228,0.6949715,0.13023266,1.3574667,0.24081312,1.0807128,1.6047655,0.9477458,0.15159398,0.44010237,0.586266,0.5430082,0.46317783,0.19847673,1.135079,0.94419986,0.6479377,0.9672259,1.0717918,1.2352116,0.9680816,0.0718354,1.0547451,0.88236934,0.6363037,1.0657669,0.39996237,-0.5322642,1.0865881,-0.122108266,1.0509422,-0.4650604,-0.6146643,-0.5284379,-0.029790025,1.019153,0.061822467,-0.8765652,1.2517383,0.8251966,0.12083988,0.24252515,0.53235596,0.1810739,0.27980408,0.1526798,0.99104977,0.6684457,0.51705146,0.7490692,1.001311,1.0561495,0.8112864,-0.006129722,0.7466446,-0.7363834,-0.5830246,0.819483,-0.34684944,1.1295108,0.6112379,0.96745026,0.2508691,0.8093499,1.6564548,1.139103,1.7790256,1.3782218,0.9511006,0.87306243,0.7787833,0.051567435,0.44292128,1.1713064,0.6622647,0.9926332,0.9429999,0.8086649,0.7163392,1.322407,1.0090438,0.20615725,0.2230519,0.5778872,0.5537571,0.3467383,1.0745876,0.71786547,0.022246316,0.7657817,1.2546773,1.128642,-0.61094886,0.966747,-0.25067607,0.8088425,1.6562191,1.138423,1.7783953,1.3774732,-0.9507775,0.872736,-0.77833974,-0.05133834,-0.44276562,1.170369,-0.66209626,-0.99251175,-0.9427382,-0.8086344,-0.715738,1.3216275,1.00848,-0.20574842,-0.22237585,-0.57762283,-0.553661,-0.34636566,-1.0744609,0.7177066,0.021922054,-0.7656036,1.2538104,0.21083358,0.25436214,0.100147545,0.1634376,0.30682355,0.18977311,0.018018939,0.18987472,0.19401649,0.22925794,0.08945075,0.02206109,0.31487185,0.012567962,0.17607303,0.0106467465,0.12274471,0.06276014,0.22358175,0.029923316,0.03904661,0.03614367,0.091304675,0.119127885,0.04588268,0.084205896,0.08085838,-0.013261955,0.12530386,0.0522575,0.26184797,0.17653516
AA07-co-10,0.5114634,1.0618608,0.62738246,0.51430404,0.5118256,0.6571842,0.58631283,0.47975102,1.2041104,0.6268074,0.5797274,1.0397272,1.563089,0.72272485,0.7284291,0.6688317,0.74560106,0.7558331,0.43230605,1.2081436,0.97497284,0.858634,1.4150484,0.8744221,1.188067,0.7150654,0.40407005,1.021131,0.6591149,0.70776546,1.1491463,0.5922439,-0.35859993,0.8620416,0.21329466,0.4879802,-0.26015288,-0.38503954,-0.50335157,-0.23527595,0.89074737,0.45767927,-0.41860873,0.7768228,1.2575629,0.5819546,0.19919476,0.45695084,0.38895753,0.556977,0.29776877,0.8173744,0.23668027,0.24396531,0.77731603,0.76911277,0.93312323,0.44693738,0.19566125,0.79785794,-0.5275378,0.067969844,0.9486109,0.061510403,1.2488177,0.59018534,0.81947213,0.73299253,0.83703244,1.2258135,1.3499982,1.8457842,1.411833,0.98648703,1.082016,0.77243733,0.74852717,0.27201623,1.1929111,0.59376484,0.68718684,1.0645237,0.5610877,0.7133494,1.3628865,0.96858203,0.31102377,0.6013762,0.27831787,0.46622938,0.3562459,0.9046098,0.7659331,0.1843633,0.918728,0.9348568,1.2478526,-0.5898241,0.81868994,-0.7327405,0.83645916,1.2255603,1.3492508,1.845176,1.4109951,-0.9858761,1.0817629,-0.77154225,0.13109858,-0.27180892,1.1918718,-0.593514,-0.6870831,-1.0642755,-0.4932495,-0.712649,1.3620023,0.9679529,0.22160861,-0.60064733,-0.189886,-0.46594054,-0.35573596,-0.9042922,0.76554286,-0.1841842,-0.91825485,0.93390715,0.119404115,0.12552245,0.027157884,0.12797451,0.20334172,0.08716212,0.1419797,0.11721647,0.09952098,0.20065562,0.17167088,0.14841034,0.22679953,0.012202867,0.08582481,0.021648655,0.064089134,0.061726797,0.10828974,0.15880905,0.12173617,0.012565491,0.08732579,0.23240605,0.15450421,0.00656154,0.08736646,0.09434315,0.040177446,0.19069144,0.15676436,0.11462889
AA01-nc-400,0.56649137,1.0203512,0.8880459,0.44701213,0.75033396,0.65079933,0.5626688,0.71975935,1.1173404,0.60412395,0.5816378,1.2129511,1.5094813,0.6357766,0.92347366,0.66171074,0.89950144,0.7607946,0.3262042,1.2097205,1.0900826,0.7436044,1.3921599,0.7073168,1.2636219,0.82428706,0.5099552,0.87935203,0.60517603,0.67235124,0.8879802,0.5914449,-0.4388386,0.80168855,0.2872265,0.42395547,-0.30470794,-0.50440633,-0.43530914,-0.41653404,0.67573684,0.4394436,-0.38815117,0.89733404,0.9553807,0.49306583,-0.01146287,0.5005401,0.4389155,0.58205754,0.1435075,0.65879333,0.068037175,-0.22145464,0.28942856,0.65202856,1.0389024,0.28605416,0.17501205,0.56272227,-0.4880604,0.27160132,0.7093623,-0.14343737,1.2813568,0.61916244,0.8244318,0.70211256,0.95991564,1.1579127,1.3968598,1.7857748,1.4741073,0.879033,1.1629386,0.68268555,0.65085775,0.33950013,1.270621,0.5788226,0.62130064,1.0857334,0.6731583,0.6429675,1.4255911,0.9139905,0.28552735,0.731344,0.2609661,0.37439942,0.28406608,0.90816426,0.8290387,0.18246295,0.96366745,0.80080384,1.28057,-0.6188551,0.8237993,-0.7018821,0.95939654,1.1577121,1.3961338,1.7852471,1.4734017,-0.87860495,1.1627486,-0.6820381,-0.087627165,-0.33906907,1.2697788,-0.5786831,-0.6212269,-1.0854188,-0.6684323,-0.6423494,1.424858,0.91344917,0.07853538,-0.7307319,-0.17786196,-0.374211,-0.28345758,-0.9079336,0.82878584,-0.18191217,-0.96335924,0.8000401,0.069407865,0.06064946,-0.009065003,0.099874765,0.14686139,0.03193971,0.20672439,0.07586472,0.048132163,0.17252569,0.21467946,0.2152573,0.17975923,0.011851075,0.036327854,0.027073717,0.03157425,0.061801106,0.04689584,0.22718798,0.16506992,0.0009851314,0.08272662,0.29171002,0.21206276,-0.031691954,0.095104754,0.15068737,-0.0026072063,0.26495144,0.09706171,0.081039816
AA07-nc-1000,0.5443791,0.90699184,0.4848618,0.47527152,0.50475305,0.6118849,0.5137453,0.5810664,0.9037087,0.5832526,0.5558223,1.0552573,1.3623391,0.60497576,0.6442117,0.6566899,0.6715763,0.67201847,0.34142995,1.0631602,0.78924996,0.7091104,1.3596103,0.7409713,1.1526729,0.7424493,0.35947618,0.8127285,0.6137806,0.66165,0.84457475,0.4326208,-0.42926723,0.8007817,0.2052224,0.46077216,-0.32459694,-0.47034633,-0.42272052,-0.41370586,0.6714158,0.42714986,-0.38298842,0.8658986,0.9316927,0.49637717,-0.02986599,0.49997562,0.39462522,0.5772433,0.13972715,0.61730546,0.06891165,-0.12362555,0.3299271,0.6878628,1.054875,0.31037113,0.16220511,0.57459056,-0.49393302,0.25478378,0.72271585,-0.16093816,1.2723036,0.5985126,0.8302313,0.68475956,0.9389742,1.1616688,1.3879622,1.7600278,1.4670789,0.8824743,1.1559452,0.68184173,0.6867641,0.34383062,1.2683895,0.5858176,0.6470403,1.0751412,0.6834609,0.66990817,1.4128011,0.9138363,0.28978488,0.6958997,0.24506354,0.39948282,0.295032,0.92426676,0.83321357,0.17937969,0.95738536,0.83200103,1.2714431,-0.598166,0.82953525,-0.684505,0.9384057,1.1614367,1.38717,1.7594545,1.4663044,-0.8820503,1.1557254,-0.6811048,-0.060163688,-0.34328324,1.2674649,-0.58565944,-0.64695734,-1.0748067,-0.67545605,-0.66928494,1.4119978,0.9132409,0.1282259,-0.6945367,-0.15745118,-0.39902744,-0.2945047,-0.9240275,0.8329129,-0.17440948,-0.95704305,0.8311524,0.077389725,0.07144096,-0.002514055,0.1058856,0.15867043,0.041279197,0.1917267,0.082299426,0.056526016,0.17792898,0.2045949,0.1998706,0.19037703,0.011921558,0.044550586,0.025743982,0.036945716,0.06181747,0.057121437,0.21154895,0.15499161,0.0030860405,0.083642565,0.2778255,0.19879857,-0.024501838,0.09359618,0.13782653,0.0051590484,0.247935,0.10656929,0.08805396
AA07-nc-100,0.5657421,0.9288783,0.4238776,0.49868137,0.5205099,0.6587113,0.54886615,0.5761977,0.9225367,0.5959968,0.6202259,1.0587721,1.3387151,0.54592806,0.60058004,0.6755627,0.6817467,0.7135888,0.31777012,1.0898589,0.820729,0.67892456,1.4669844,0.70825523,1.2221278,0.79792476,0.34357035,0.8607966,0.63625854,0.6378382,0.84503615,0.4364249,-0.41851836,0.8370969,0.13385798,0.48710987,-0.32163897,-0.5238089,-0.45956334,-0.37494346,0.6967536,0.43070942,-0.43981388,0.88183045,0.8580031,0.4137962,-0.062424757,0.47008362,0.41204825,0.62633765,0.10949118,0.5908922,0.12821391,-0.06396127,0.41165942,0.645931,1.131548,0.32647246,0.12996775,0.612515,-0.5200237,0.19866242,0.74101263,-0.11738196,1.2452828,0.5869423,0.84928894,0.63961864,0.95193887,1.1734525,1.4185857,1.7005663,1.4721125,0.9150503,1.098977,0.70271796,0.63307446,0.33370373,1.2778559,0.55807763,0.6891422,1.066998,0.65405554,0.6844337,1.4072237,0.90613157,0.29985815,0.6821739,0.27025127,0.43731728,0.30902615,0.9657087,0.82489586,0.17472051,0.9532634,0.91047376,1.2444375,-0.58661324,0.8486017,-0.6393469,0.95137763,1.173213,1.4178021,1.699992,1.4713517,-0.9146607,1.0987641,-0.7019993,-0.21428762,-0.33351812,1.276949,-0.5579314,-0.68905807,-1.0666782,-0.65241414,-0.6838101,1.4064294,0.9055472,0.19650076,-0.6815574,-0.21487086,-0.4371238,-0.3085762,-0.9654709,0.8246108,-0.1742622,-0.9529331,0.90964323,0.08947864,0.086135074,0.005588476,0.109919995,0.17458437,0.05346255,0.17179993,0.0920757,0.06836938,0.18003203,0.19122677,0.17965236,0.2038546,0.011927166,0.055482116,0.023954766,0.044611584,0.062170193,0.07106143,0.19104074,0.14168158,0.0058521735,0.08382309,0.25934023,0.18137123,-0.016452754,0.09341383,0.12079146,0.014296894,0.22585623,0.12134698,0.09741221
AA05-nc-10,0.5873296,1.2215594,0.31518763,0.64016306,0.51956,0.73661095,0.74179673,0.47052106,1.2167037,0.6011283,0.83642465,1.4263427,1.138636,0.32014093,0.5291375,0.59603935,0.7675103,0.9209894,0.17473614,1.0677452,0.7219638,0.5617611,1.0920291,0.7874745,1.3444874,0.7389736,0.28602535,1.1427063,0.76585615,0.6566074,1.0783286,0.4409469,-0.4758812,0.95595294,-0.014815649,0.6289994,-0.39540884,-0.5453894,-0.5685516,-0.29766846,0.84994614,0.3253207,-0.60148466,1.0381148,0.77572495,0.22715142,-0.1033894,0.43697524,0.411807,0.61493343,0.0704602,0.59405655,0.29765004,0.13910213,0.4006443,0.7266991,1.1944726,0.417265,0.01713443,0.73383534,-0.62101686,-0.23299932,0.788957,-0.039962698,1.1868448,0.5629929,0.90605485,0.47886205,0.9137527,1.3143657,1.3555486,1.622167,1.4408985,0.97244775,0.9609208,0.8029976,0.5596005,0.3231517,1.2624657,0.54470396,0.85780984,1.0565954,0.62731314,0.71853036,1.3653345,0.9239432,0.258805,0.5085641,0.39024264,0.49009553,0.34645677,0.9948366,0.75494516,0.13650142,0.88572586,1.1058147,1.185728,-0.56261545,0.9051485,-0.47857198,0.9130748,1.3140869,1.3546429,1.621417,1.4399214,-0.9720421,0.9605891,-0.80226946,-0.3487437,-0.32293195,1.2612628,-0.54449296,-0.85767794,-1.0563256,-0.6272431,-0.71777415,1.3643129,0.92321646,0.18979083,-0.50774896,-0.38979703,-0.48988947,-0.34586638,-0.9945815,0.7546744,-0.13627146,-0.88534945,1.1046894,0.14642163,0.15858391,0.046065368,0.13522553,0.24151513,0.112914704,0.09240399,0.13882592,0.124467745,0.20140243,0.13835326,0.09851489,0.2599982,0.012172261,0.108457066,0.017006911,0.08063119,0.062884465,0.13811749,0.108268954,0.08859788,0.019040128,0.08690821,0.18637896,0.11160781,0.025966484,0.088382944,0.052071024,0.061475098,0.13660832,0.18970041,0.13718818
AA10-nc-1,0.5001962,1.0732367,0.23463315,0.9888656,0.59468424,0.5552786,0.6635275,0.20405307,1.0546093,0.27368927,0.8702349,1.450042,0.89842325,0.1422641,0.3211115,0.537685,0.28642008,0.24041227,0.10873386,0.9861251,0.7076043,0.5294827,0.74288756,1.0350024,1.1314085,0.7898288,0.15078098,1.0210526,0.8033943,0.7297798,0.9304053,0.40069216,-0.46345612,0.80959034,-0.20580143,0.980595,-0.53812987,-0.5047255,-0.48257548,-0.12818709,0.69665486,-0.115987174,-0.7623639,1.0998503,0.8134885,0.11150499,0.16520679,0.44386113,-0.016741585,0.12412431,0.07645287,0.90448475,0.5708877,0.46823862,0.6189476,0.9962965,1.0845494,0.7067627,-0.11453787,0.66903245,-0.65408534,-0.6921641,0.6323178,-0.34092003,1.1547079,0.56323135,0.93431467,0.28216124,0.8121344,1.7316005,1.2760379,1.8072436,1.3870656,1.023102,1.0594819,0.7561535,0.21608672,0.33947995,1.1998204,0.5896177,1.0211947,1.0224931,0.6618535,0.7860147,1.3362505,1.0148737,0.18327129,0.2591254,0.5023526,0.5236392,0.422264,0.9374263,0.6536093,0.11343403,0.7484175,1.2741528,1.1538804,-0.56294507,0.933647,-0.28191063,0.8116522,1.7313149,1.275385,1.8066397,1.3863516,-1.0227793,1.0591767,-0.75567603,-0.21586266,-0.33926877,1.1989316,-0.58942866,-1.0210781,-1.0222359,-0.661822,-0.78580344,1.335508,1.0143356,0.18280163,-0.25852227,-0.50205135,-0.52344865,-0.42175397,-0.9372694,0.65344536,-0.11323297,-0.74822044,1.2733246,0.22517982,0.2748346,0.11624907,0.16966689,0.32170272,0.20778191,0.0009962693,0.2019276,0.2103891,0.2337712,0.07765051,0.0045602173,0.32625487,0.01260464,0.19192731,0.009300362,0.13291474,0.06316651,0.24476974,0.011871122,0.027332418,0.040808823,0.092208266,0.10252652,0.030797198,0.10014259,0.0795386,-0.027743075,0.14085194,0.032640763,0.27864075,0.18505858
AA03-co-400,0.59008193,0.9286374,0.31768367,0.50102407,0.4539171,0.6889465,0.54309046,0.5010446,0.79542196,0.5642246,0.61839247,1.1181458,1.0494858,0.4484463,0.5138934,0.6387098,0.6596652,0.7583536,0.19673662,0.9668606,0.6374828,0.55021495,1.0811222,0.6329876,1.2796174,0.6819399,0.28500944,0.8278486,0.629924,0.5957268,0.7742064,0.41367355,-0.46583453,0.8277931,0.06808432,0.48984775,-0.3529502,-0.5823153,-0.45149067,-0.38262165,0.61074144,0.41814283,-0.46446714,0.95225316,0.6410148,0.3333375,-0.18792078,0.4595378,0.43166927,0.67362946,0.032610033,0.5147244,0.0912126,-0.11223337,0.19555242,0.5781399,1.2267451,0.2574619,0.07623353,0.5839767,-0.52500445,0.08663461,0.6575399,-0.15316764,1.2388659,0.5761629,0.8730842,0.55832034,0.98472863,1.1496198,1.4417957,1.5968177,1.4891083,0.90508753,1.0556887,0.6932661,0.5400991,0.35485047,1.312046,0.5264301,0.7324494,1.0596871,0.69175357,0.65445936,1.415681,0.8784333,0.29164144,0.68689394,0.28096452,0.43579006,0.27231812,0.98026145,0.8172616,0.16201386,0.9511024,0.93116206,1.2380567,-0.5758394,0.8724223,-0.5580745,0.98418844,1.1493936,1.4410495,1.5962678,1.4883777,-0.90471375,1.0554639,-0.69261736,-0.38727668,-0.35468075,1.3111708,-0.5262935,-0.73236597,-1.0593853,-0.6908427,-0.6538154,1.4149201,0.87787896,0.19847757,-0.686325,-0.23937382,-0.43559265,-0.27167055,-0.9800297,0.8170142,-0.15695983,-0.9507959,0.93034476,0.09396653,0.0911567,0.008946972,0.108273484,0.18049175,0.0573378,0.16331126,0.095564954,0.07233967,0.1761839,0.18541111,0.17127052,0.20914175,0.011856767,0.058891445,0.023134114,0.04733094,0.06263693,0.07574112,0.18251826,0.13593549,0.0069193267,0.0830122,0.25117087,0.17415263,-0.012922674,0.09493083,0.11362509,0.017770732,0.2169116,0.12684932,0.1008563
AA01-co-10,0.4602906,0.7835951,1.2636528,0.4348312,0.85932076,0.41056338,0.43526626,0.61031836,1.182863,0.8457901,0.27018073,1.0705574,1.8815178,0.8522231,0.90234643,0.69202584,1.1294422,0.5751892,0.45093694,1.1415244,1.3272593,0.843531,2.0721955,0.77201927,0.9275484,1.1646218,0.57468843,1.0432206,0.503683,0.7390834,0.80972433,0.5236713,-0.37874976,0.6291477,0.6219684,0.40891385,-0.22008395,-0.3729555,-0.33902246,-0.43477932,0.501723,0.5175878,-0.12695614,0.8399147,1.0339277,0.7898177,0.062444568,0.600239,0.48112354,0.44360632,0.24977234,0.65128416,-0.10527825,-0.4345807,0.12853399,0.75789434,0.75401515,0.21047044,0.30946937,0.5504037,-0.40916514,0.5561819,0.65972424,-0.1113989,1.392881,0.674075,0.73836344,0.80116576,1.0040996,1.1812458,1.472076,2.1650312,1.5268457,0.7834228,1.4887736,0.5764079,0.5956568,0.33155137,1.2683185,0.59837925,0.38218108,1.1341623,0.66240656,0.6309123,1.4890267,0.9241274,0.2249231,0.9568044,0.14085981,0.26778963,0.24023087,0.763487,0.8545414,0.17764345,1.0121143,0.49529237,1.3922763,-0.67385846,0.7378906,-0.8008887,1.003722,1.1811349,1.471565,2.1646495,1.5263062,-0.7831365,1.4886713,-0.57571894,0.13055053,-0.33140108,1.2676566,-0.59827054,-0.38213998,-1.1337495,-0.6623475,-0.63041264,1.4884715,0.9237261,0.069706365,-0.95638037,0.022329843,-0.26764292,-0.23991866,-0.7632984,0.8542844,-0.17751339,-1.0118527,0.4947123,0.00987441,-0.008809388,-0.048343115,0.0666993,0.05283313,-0.026142646,0.3215361,0.025989264,-0.0086031435,0.14602447,0.29134506,0.33246142,0.099268265,0.011562317,-0.016240895,0.037228525,-0.0057673254,0.060702693,-0.019362729,0.34652838,0.24187474,-0.012244673,0.07898966,0.39743102,0.31290165,-0.07247841,0.10109379,0.24959645,-0.048038773,0.39370248,0.021860946,0.025425445
AA10-nc-400,0.6196808,0.95760614,0.34477547,0.50117093,0.49875966,0.71733195,0.54356647,0.55418825,0.77621764,0.5605309,0.64586884,1.1448953,0.95552194,0.4342357,0.58771735,0.63049656,0.7049264,0.79623395,0.19296607,0.9265094,0.60111594,0.5362074,0.9440733,0.5827665,1.3655066,0.6654952,0.31835136,0.80441386,0.63257843,0.5912429,0.7902707,0.43629208,-0.50238246,0.8386839,0.03147817,0.48797718,-0.37967628,-0.61535,-0.45673463,-0.4154009,0.6064918,0.4223627,-0.49891257,0.96984667,0.5750631,0.3054215,-0.20644394,0.46589527,0.4521822,0.6981319,-0.0025355564,0.48149326,0.057500143,-0.15896073,0.11533517,0.5316454,1.2961187,0.25957057,0.08156721,0.5675793,-0.52602756,0.0862976,0.67089164,-0.19885549,1.2222452,0.57011634,0.88235,0.5441265,0.99505347,1.1275434,1.4349803,1.5563017,1.489142,0.9038358,1.0167583,0.6828486,0.55818355,0.3539046,1.3148683,0.51268077,0.7408506,1.0583012,0.708473,0.6591944,1.4117384,0.8675528,0.255303,0.6849524,0.2889464,0.43840772,0.2608847,1.0109893,0.8274372,0.15574528,0.94923,0.94710886,1.2213778,-0.5698094,0.88164717,-0.54385984,0.9945287,1.1273549,1.434287,1.5557382,1.4883912,-0.90351015,1.0165619,-0.6822665,-0.45963016,-0.35372907,1.3139282,-0.5125502,-0.7407406,-1.0580118,-0.70842344,-0.6583946,1.4109415,0.86700255,0.16598427,-0.68435115,-0.2693275,-0.43818897,-0.26032293,-1.0107579,0.82724607,-0.15553524,-0.94896394,0.9462378,0.0940682,0.090287514,0.007583772,0.10682335,0.18132375,0.05647654,0.16137299,0.09557629,0.071971476,0.17390852,0.18414162,0.1694173,0.21016829,0.011825135,0.058214232,0.022891916,0.047227263,0.06275157,0.074811965,0.18074995,0.13471094,0.006643216,0.08254,0.24943787,0.17257422,-0.014344232,0.09572285,0.11211751,0.016549848,0.21505259,0.12723507,0.101356246
AA07-co-100,0.5342926,0.9371965,0.47975403,0.54775417,0.5036912,0.6610938,0.5658587,0.5193076,0.94676745,0.6009721,0.6191603,1.0941303,1.3428448,0.5241294,0.6618593,0.6299057,0.710771,0.7564506,0.32306567,1.1757597,0.86353093,0.69879395,1.51547,0.74229974,1.2761087,0.81723094,0.37318793,0.9149083,0.6649864,0.64194524,0.88915205,0.4206179,-0.40059635,0.8101711,0.11733458,0.5260171,-0.32425746,-0.4920327,-0.44625893,-0.3324881,0.6563607,0.41892064,-0.41918617,0.88524145,0.8513568,0.3943867,0.0026932932,0.44820005,0.3864182,0.62237066,0.10887475,0.63959074,0.1599858,0.030869713,0.45813727,0.6763966,1.1448237,0.37005314,0.12837768,0.6247627,-0.52184683,0.09949947,0.7270006,-0.101058766,1.2348393,0.57666475,0.84960115,0.6077763,0.9285546,1.2141479,1.4229321,1.6926613,1.4655498,0.9220835,1.1080424,0.7057154,0.670323,0.32994217,1.2710134,0.5541485,0.71936095,1.0554386,0.6438359,0.68581533,1.3952981,0.91329837,0.31982747,0.6477986,0.25716558,0.4585814,0.30755168,0.96493775,0.80740625,0.16658571,0.9356881,0.9531665,1.2339197,-0.5763002,0.8488551,-0.6075221,0.9279501,1.2138902,1.422093,1.6920418,1.4647256,-0.92165023,1.1077955,-0.7049685,-0.21489874,-0.32730067,1.2700268,-0.553987,-0.7192676,-1.0551327,-0.6329527,-0.6851999,1.3944398,0.91266763,0.23975602,-0.64579445,-0.19679396,-0.45837107,-0.30711824,-0.96470594,0.8071173,-0.1656062,-0.93534577,0.95225394,0.10461023,0.10632693,0.017665334,0.11646966,0.19024752,0.07032928,0.15384622,0.10440105,0.08419969,0.18584168,0.17915612,0.16124615,0.21671015,0.0119975805,0.070561096,0.022422815,0.05460257,0.062300574,0.090098545,0.17211267,0.12955329,0.0096176,0.08475837,0.24263486,0.16548952,-0.0035801441,0.09189475,0.10527314,0.02801247,0.20541593,0.13874559,0.10669923
AA07-co-1,0.454297,0.88487947,0.07780135,1.2458253,0.35400486,0.16489935,0.35769045,0.10097465,1.1340117,0.34557015,0.48244196,0.5965709,1.7869668,0.23425001,0.28513,0.16956675,0.40817523,0.083020926,0.5756264,1.0198021,0.74481076,0.6022183,0.89315367,1.627068,1.0541062,0.50909996,0.28101724,0.15250176,0.31868303,0.4298388,0.51313466,0.51518124,-0.41565984,0.7858889,-0.031560093,1.2245327,-0.29652077,-0.15881406,-0.24496803,0.08765411,0.9093244,-0.31762016,-0.35407406,0.52199024,1.6204599,0.21448204,0.21470563,0.15389141,-0.37019023,-0.013253868,0.5548568,0.97698617,0.644552,0.56561613,0.81280065,1.5784149,0.99284077,0.4820064,-0.27269316,-0.13102506,-0.2407823,-0.40458867,0.36547834,-0.50894046,1.1754026,0.45233,0.9684042,0.21371973,0.58719,1.7777219,0.8727946,1.7413421,1.2994235,0.6872714,0.9804377,0.7146386,0.62154555,0.5597215,1.0651426,0.91377616,0.99752176,0.7905512,0.8059979,0.62448704,1.3166678,1.1254407,0.37802634,0.042577803,0.50657606,0.49728176,0.39345062,1.1999024,0.6955368,0.032793656,0.7452715,1.2362225,1.1749732,-0.45212588,0.96807843,-0.2135974,0.58700705,1.7775286,0.8725204,1.7411015,1.2991066,-0.68663293,0.9802869,-0.71403766,0.6214075,-0.55963296,1.0646933,-0.91369337,-0.99743414,-0.7901533,-0.8058567,-0.62403816,1.3163179,1.1252241,-0.37760487,-0.04223007,-0.5064485,-0.49720976,-0.393195,-1.1997995,0.69536746,-0.03246359,-0.7450965,1.2358145,0.24972638,0.31539252,0.13776065,0.18716916,0.34892365,0.24069929,-0.02319836,0.22199836,0.23771393,0.25814983,0.06263838,-0.021447212,0.348454,0.01299529,0.22065249,0.0077422564,0.14840904,0.061780587,0.27968723,-0.015964214,0.011183738,0.046740323,0.09655474,0.08153176,0.008279879,0.12491629,0.071943045,-0.051020652,0.16794187,0.0032445043,0.3075088,0.20218219
AA10-nc-10,0.63819116,0.8501462,0.22715703,0.48403826,0.4557299,0.5709638,0.48600236,0.5845421,0.6926742,0.38380843,0.53392756,0.9605072,0.80747473,0.52503186,0.59753287,0.62167925,0.3499119,0.57793707,0.12791024,0.6225728,0.4637495,0.6435003,0.72022283,0.62840414,1.2518381,0.45571265,0.19543241,0.50959206,0.5196105,0.62617177,0.67499393,0.4529887,-0.57065713,0.7867034,0.048473097,0.47603887,-0.41205007,-0.5190352,-0.4212746,-0.5084754,0.60416317,0.26834267,-0.4443318,0.87434787,0.6247343,0.4549827,-0.36865416,0.54110444,0.20494583,0.5163365,0.05451142,0.35346723,-0.027264535,-0.33438063,-0.051187366,0.6074046,1.215212,0.1817737,0.04896629,0.3941936,-0.45721644,0.21362987,0.5982184,-0.42812166,1.2576413,0.60319555,0.8735067,0.6091113,0.9837116,1.0872298,1.3813161,1.5190704,1.4664859,0.8742754,1.0843334,0.64674366,0.47050858,0.39370495,1.2957448,0.5729907,0.69459146,1.0557587,0.77381337,0.62516963,1.4095714,0.88268673,0.20019281,0.6900645,0.27714932,0.3855137,0.2504798,1.0182803,0.84872055,0.16402675,0.962335,0.8665053,1.2565621,-0.60278624,0.87264377,-0.6086559,0.98305225,1.087044,1.38043,1.5184302,1.4655528,-0.8736984,1.0841445,-0.6457409,-0.3075226,-0.39348277,1.2945864,-0.5728194,-0.6944877,-1.055183,-0.7736704,-0.623829,1.4085939,0.8819971,0.020110201,-0.6893044,-0.2767447,-0.38520408,-0.2496965,-1.017926,0.8484022,-0.1637821,-0.9619179,0.86541814,0.07440524,0.06970663,-0.0031640478,0.10397895,0.16794704,0.039610106,0.17832096,0.0806797,0.054287273,0.17356944,0.19571832,0.18648663,0.19898143,0.011852839,0.042651426,0.024427751,0.03524413,0.062268488,0.055047642,0.19815299,0.14615658,0.0029844488,0.08264713,0.26549858,0.1873837,-0.024873221,0.09533224,0.12640166,0.004729935,0.23371418,0.10767684,0.09347937
AA10-nc-all,0.61991924,0.94426596,0.32956108,0.5032657,0.4949153,0.70127916,0.5459881,0.54854006,0.76778764,0.54567003,0.6379362,1.1240252,0.9545311,0.43879083,0.58165133,0.63000154,0.66720074,0.75938743,0.19162197,0.91694343,0.5764149,0.540079,0.9223412,0.5948254,1.3356911,0.6536376,0.30046657,0.791335,0.6284003,0.59160274,0.7763443,0.42749703,-0.5071998,0.8360896,0.028943488,0.48957276,-0.38673016,-0.6007576,-0.4575251,-0.42072973,0.61418235,0.40817958,-0.49528852,0.96695197,0.589246,0.31896114,-0.21864355,0.4732241,0.43402228,0.6719909,0.0066777505,0.47627532,0.05636217,-0.1594261,0.10811109,0.5476842,1.2757313,0.25555867,0.07346057,0.5617112,-0.52210045,0.07998522,0.6671319,-0.21670495,1.225335,0.57402164,0.88163346,0.54946184,0.9904115,1.1328334,1.4258835,1.5626287,1.4853425,0.90752286,1.0235223,0.6813461,0.53931695,0.3575998,1.3110913,0.5195387,0.7398355,1.0583766,0.71407443,0.6578448,1.4101642,0.87154406,0.2520888,0.67871886,0.2927664,0.43501726,0.26342663,1.0081371,0.82720155,0.15493762,0.94825125,0.94250757,1.2244477,-0.5737106,0.8809076,-0.5492024,0.98987204,1.1326479,1.4251691,1.5620589,1.4845649,-0.9071892,1.0233306,-0.6807707,-0.43432233,-0.35741735,1.3101232,-0.5194054,-0.73972535,-1.0580952,-0.71402705,-0.657067,1.4093478,0.870984,0.15053302,-0.67808324,-0.2713428,-0.43480128,-0.2628666,-1.0079118,0.827016,-0.15454482,-0.947976,0.9416051,0.09415601,0.09070204,0.007909612,0.10748345,0.18176694,0.05680784,0.16108751,0.0956677,0.0721165,0.17484114,0.1839839,0.16908169,0.21050921,0.011840329,0.058473304,0.022879824,0.047284897,0.06270253,0.07513009,0.18039553,0.13452905,0.0067215506,0.0827088,0.24923478,0.17229703,-0.013934937,0.09541774,0.111808725,0.016971285,0.21464664,0.12739725,0.10163063
AA01-nc-1000,0.55726177,1.0415262,0.9959148,0.46045607,0.8304989,0.6438745,0.56472784,0.735748,1.1968548,0.6167901,0.5795297,1.2585098,1.552523,0.6333085,0.96562564,0.653142,0.9837639,0.7600949,0.35919535,1.2091346,1.2045034,0.7840986,1.4794217,0.72976196,1.2816441,0.8542775,0.55320925,0.93694216,0.6012368,0.6815806,0.90684783,0.6396725,-0.43539417,0.79321855,0.29485077,0.43400818,-0.2997474,-0.4889938,-0.4278047,-0.406949,0.6715583,0.42689273,-0.3763872,0.90215385,0.97230715,0.50426584,-0.004151954,0.50507003,0.4339092,0.55987406,0.15698765,0.66584176,0.07442526,-0.20463783,0.2936317,0.67512643,1.0106721,0.28638285,0.1763744,0.5742768,-0.48242846,0.24804857,0.70557255,-0.13632789,1.2865558,0.6222784,0.8215768,0.69862974,0.9542795,1.1787497,1.3945524,1.8120997,1.4734969,0.88046736,1.1823677,0.68213135,0.6328547,0.3393182,1.2667994,0.5821028,0.6219884,1.0849974,0.67350924,0.6479857,1.4261682,0.91986394,0.28909376,0.72701573,0.25603065,0.37274116,0.2902661,0.8954376,0.823824,0.18402983,0.9600719,0.7963758,1.2857729,-0.62081397,0.8209475,-0.69839114,0.953768,1.1785512,1.3938395,1.8115746,1.472796,-0.88003206,1.1821789,-0.6814707,-0.057656128,-0.33753315,1.2659597,-0.5819603,-0.621913,-1.0846814,-0.6652509,-0.64736176,1.4254411,0.91932786,0.07757327,-0.7262684,-0.16745238,-0.37254825,-0.2887845,-0.8952024,0.8235623,-0.18241277,-0.95976853,0.7956144,0.070736766,0.06382811,-0.006978432,0.100883156,0.14782956,0.034529235,0.20582062,0.07681506,0.05018005,0.17375761,0.21406302,0.21428108,0.18059507,0.011868581,0.03851322,0.027019162,0.03267728,0.06177104,0.049755637,0.22612973,0.16443397,0.0016023114,0.0829493,0.29084384,0.21121937,-0.029436314,0.09472154,0.1498436,-0.0002884323,0.2638017,0.09826846,0.081677884
AA05-nc-all,0.6080365,1.0006436,0.2628609,0.5445037,0.48085338,0.7102106,0.59766686,0.47866198,0.8904254,0.52869415,0.7017672,1.1582496,0.98842156,0.3984424,0.5127255,0.629509,0.6504197,0.78126043,0.17730257,0.92094404,0.60336304,0.5122926,0.97382605,0.6611418,1.3015305,0.64402056,0.23993762,0.8435893,0.6743736,0.56571394,0.84485143,0.42258504,-0.48763317,0.88696134,0.01868265,0.5316183,-0.3834259,-0.5913198,-0.4966237,-0.35649717,0.7133571,0.38106164,-0.53436863,0.98530096,0.6556676,0.2890182,-0.18937254,0.45734203,0.42327052,0.68082976,0.04053028,0.523539,0.15239541,-0.050918683,0.2574491,0.6028421,1.2470702,0.29394788,0.041461725,0.6240815,-0.55226207,-0.046746932,0.7118823,-0.11268033,1.2148261,0.5731699,0.8919673,0.53229517,0.96112084,1.2043053,1.406094,1.5745282,1.4700048,0.93812,0.98853546,0.7336516,0.49344766,0.34306157,1.2915722,0.5304552,0.7848446,1.0530598,0.6745618,0.67944866,1.396196,0.89705694,0.2597955,0.6168208,0.33654803,0.4647841,0.29261032,1.0061002,0.79471,0.14741378,0.9236391,1.0114493,1.2139858,-0.572842,0.8912903,-0.5320526,0.9605762,1.2040548,1.4053427,1.5739515,1.4692681,-0.937723,0.9882886,-0.7329844,-0.39073315,-0.3428905,1.2906761,-0.5303159,-0.7847542,-1.0527635,-0.67448133,-0.67876893,1.3954178,0.8964928,0.17680825,-0.61620826,-0.32336646,-0.4645809,-0.29207638,-1.005869,0.7944618,-0.1469919,-0.92333436,1.0106176,0.114782274,0.11766504,0.023210566,0.11866312,0.2059753,0.07905637,0.13345143,0.11276498,0.09301493,0.18567082,0.16562217,0.1406646,0.23050646,0.011973281,0.078363605,0.020540945,0.06049118,0.0627796,0.10023849,0.1512835,0.11602045,0.011638227,0.08441627,0.22390532,0.14785084,0.0019961717,0.09256478,0.087712355,0.0346151,0.18319443,0.1521487,0.11604207
AA05-nc-400,0.6116352,0.9319506,0.28957132,0.4719186,0.45125762,0.6958055,0.54389983,0.52689385,0.7840039,0.5413215,0.62469167,1.0864699,0.98594075,0.46062496,0.5316281,0.636276,0.6297731,0.76294166,0.1901927,0.89184916,0.58634096,0.53591734,0.9621729,0.6037608,1.2774272,0.6098305,0.26356095,0.7553005,0.6246054,0.5724161,0.77454233,0.41306305,-0.4922871,0.85054785,0.07430134,0.46070167,-0.35917312,-0.5925291,-0.46314725,-0.40961307,0.64500237,0.42908084,-0.47512236,0.95495117,0.62949157,0.3500107,-0.22186993,0.47359782,0.45021358,0.6897156,0.03114615,0.48392212,0.06538037,-0.16127132,0.14642203,0.5474003,1.2353756,0.23414502,0.08692065,0.57097447,-0.5227865,0.10982812,0.6795151,-0.16101313,1.2391789,0.58137506,0.87555486,0.5793908,0.98827803,1.1216047,1.4268903,1.5758587,1.4866034,0.9013103,1.0297813,0.69452685,0.54744226,0.35572016,1.3084645,0.53037906,0.7231911,1.0598507,0.70114034,0.6529612,1.4148782,0.8779969,0.27280742,0.6928025,0.27794343,0.42878237,0.26304603,0.9920711,0.8223452,0.16280359,0.95475936,0.9223331,1.2383395,-0.5810493,0.8748708,-0.5791346,0.9877284,1.1213882,1.4261329,1.5752928,1.4858537,-0.90091425,1.0295726,-0.69385344,-0.37954646,-0.35554317,1.3075601,-0.5302354,-0.7231051,-1.0595366,-0.70107424,-0.65228254,1.4140935,0.8774288,0.15083554,-0.69218695,-0.2553491,-0.42859164,-0.26245633,-0.9918496,0.82209647,-0.16258001,-0.9544455,0.9214905,0.08908961,0.084366255,0.0044044433,0.10673314,0.17681164,0.05166072,0.16751046,0.09166909,0.06718023,0.17492561,0.18828812,0.17556648,0.20622817,0.011843263,0.05389367,0.023484068,0.04409289,0.06258593,0.06931122,0.18692671,0.13879406,0.0055576246,0.08277348,0.25515595,0.17787525,-0.01767623,0.09528541,0.11722361,0.012860772,0.22170307,0.12161615,0.09870624
AA03-nc-all,0.6075688,0.9567862,0.2857546,0.5003851,0.4607021,0.67913026,0.5595985,0.5072583,0.83327127,0.5365537,0.64553535,1.110384,1.0231965,0.45147377,0.51227784,0.6378242,0.62861544,0.75112635,0.19674045,0.90499616,0.5838113,0.528748,0.9759398,0.6448354,1.2738273,0.6283881,0.2586436,0.79250467,0.6384379,0.5684018,0.80491394,0.4202229,-0.4917276,0.8595139,0.06392364,0.48978612,-0.37399545,-0.57374537,-0.4658334,-0.3944859,0.67235804,0.40549913,-0.48725873,0.95976657,0.6687711,0.3458676,-0.20831566,0.47626844,0.42389497,0.6690131,0.052495126,0.4973526,0.08934111,-0.13004442,0.18296425,0.5921306,1.2244247,0.25611666,0.06832334,0.5841346,-0.5269217,0.06549322,0.69154537,-0.16265759,1.2340019,0.584503,0.8769934,0.5715112,0.97434086,1.1560234,1.4109501,1.5913966,1.4775801,0.90999,1.0286419,0.7037728,0.5079566,0.35634282,1.2981619,0.53963196,0.73569983,1.0577717,0.7000853,0.6619971,1.4070443,0.8885015,0.26431686,0.6646402,0.3031677,0.43680504,0.27713633,0.9925857,0.81579506,0.1512837,0.94350356,0.9402892,1.2331904,-0.5841799,0.876322,-0.5712695,0.9737926,1.1557934,1.4101969,1.5908345,1.4768447,-0.90960675,1.028418,-0.703118,-0.34073725,-0.3561682,1.297287,-0.53949136,-0.7356106,-1.0574553,-0.7000203,-0.66130215,1.4062681,0.88794386,0.14251941,-0.66403645,-0.2710201,-0.43660167,-0.2764538,-0.99236184,0.8155482,-0.14964367,-0.94320136,0.9394678,0.09669325,0.094229825,0.009773349,0.11053944,0.18452238,0.059728015,0.15874173,0.09792248,0.07480187,0.17877945,0.18249397,0.16653478,0.21261075,0.011896335,0.061121505,0.022732625,0.048938032,0.06255672,0.07836545,0.17772855,0.1329608,0.0073099616,0.08340513,0.24722762,0.17012624,-0.011962637,0.09420282,0.1095924,0.019261042,0.21168853,0.13042776,0.10329452
AA03-co-100,0.59465873,0.92627776,0.334877,0.48032826,0.4497073,0.67697966,0.5412258,0.51787674,0.7858044,0.5681919,0.58384997,1.1257149,1.028739,0.4628167,0.5251204,0.64502585,0.6827607,0.76805055,0.19421127,0.9516991,0.6388741,0.55220675,1.0888671,0.6051894,1.2988429,0.6884284,0.29257223,0.8412602,0.6177501,0.59186006,0.7696408,0.4192035,-0.46665138,0.81762284,0.07639082,0.4695157,-0.34566513,-0.58205277,-0.4401748,-0.3976551,0.5796484,0.4374345,-0.4401974,0.9477299,0.6038996,0.3467872,-0.2073375,0.4655408,0.45175508,0.68985265,0.018431555,0.49060264,0.06347635,-0.14796151,0.14864725,0.55326605,1.2394347,0.2413926,0.09097708,0.5777864,-0.51666045,0.13937788,0.6480779,-0.16958445,1.245386,0.5747018,0.8700239,0.56191176,0.9976201,1.1213576,1.4546355,1.5936248,1.4983618,0.8892168,1.0644169,0.68001467,0.552303,0.3597529,1.322289,0.5221056,0.7140964,1.0602554,0.70082915,0.6463332,1.4231845,0.8694893,0.28538048,0.7158817,0.2594362,0.42803288,0.2599498,0.98151374,0.8265587,0.15902674,0.9623631,0.90510386,1.2445567,-0.5743677,0.86934626,-0.56165713,0.9970657,1.121137,1.4538721,1.5930661,1.4976146,-0.888851,1.0641972,-0.67936784,-0.40285054,-0.35958573,1.3213917,-0.5219741,-0.7140149,-1.0599412,-0.7007642,-0.6456685,1.4224051,0.868922,0.19846447,-0.71530426,-0.21458584,-0.4278458,-0.258884,-0.98129594,0.8263209,-0.15565287,-0.9620569,0.9042679,0.085658826,0.08027289,0.0025670258,0.10393383,0.1707582,0.048367802,0.17446104,0.08874723,0.0639678,0.17199335,0.19280843,0.18273267,0.20107676,0.01180421,0.05091098,0.024081195,0.042022757,0.062608674,0.065656744,0.19424981,0.14338726,0.004903648,0.082353584,0.2613698,0.18400797,-0.01966339,0.0960393,0.12334075,0.010439395,0.22959475,0.11708594,0.09506315
AA07-nc-10,0.56335723,0.8992292,0.64448977,0.41889858,0.5856837,0.7125274,0.5852113,0.5640561,0.8929343,0.6698013,0.56452835,0.9945688,1.445688,0.5385859,0.78506315,0.6436366,0.76932293,0.8630637,0.34588158,1.2562351,0.9698108,0.6287478,1.5962873,0.5946647,1.3345822,0.8321392,0.41262498,0.68988,0.68536395,0.55914295,0.7698372,0.3033409,-0.37350625,0.81236535,0.20508775,0.39482623,-0.26054636,-0.572317,-0.4396101,-0.32754672,0.60636634,0.5746343,-0.3985339,0.826857,0.8398832,0.3456076,0.0388775,0.39082003,0.53956527,0.7932687,0.06357853,0.6959485,0.15217444,-0.040833056,0.5067689,0.50928825,1.2334406,0.33383527,0.20563121,0.5358006,-0.53990614,0.30071107,0.6913165,-0.07809631,1.2390815,0.59283465,0.8479966,0.6451182,0.9594592,1.0974021,1.4738718,1.5805612,1.493461,0.883309,1.0668226,0.70008034,0.686604,0.3435095,1.2864077,0.5378308,0.6672214,1.0483834,0.66318274,0.6573004,1.4198341,0.8911028,0.34893116,0.74250185,0.21196613,0.46997818,0.26940906,1.0144365,0.83275425,0.122668624,0.9805673,0.91331387,1.2381045,-0.59242,0.84721583,-0.6447957,0.9588005,1.0971258,1.4729354,1.5798929,1.4925869,-0.88283557,1.0666201,-0.6992325,-0.29341462,-0.34328237,1.2853817,-0.53768575,-0.66713285,-1.0480632,-0.663097,-0.6566983,1.4189255,0.89040506,0.27065998,-0.7418751,-0.12857483,-0.46983123,-0.26896596,-1.0142329,0.8323962,-0.120905474,-0.9801539,0.9123577,0.08794592,0.08256094,0.0032542727,0.1044745,0.17013827,0.050796546,0.17712471,0.09081613,0.066448376,0.17377801,0.19461486,0.18516794,0.19999313,0.011822936,0.05342587,0.02450549,0.043434035,0.062442023,0.06857381,0.19628233,0.1450362,0.00496762,0.08270397,0.26362616,0.18594651,-0.019726709,0.09544723,0.1253245,0.010651415,0.23194902,0.119645454,0.09480369
AA07-nc-all,0.5511114,0.9508118,0.47395507,0.5085548,0.51287484,0.63566685,0.54574925,0.56347466,0.9560366,0.5741353,0.5946331,1.0996647,1.3282512,0.5602119,0.656157,0.64367527,0.68965244,0.7051394,0.32701725,1.0740907,0.81082386,0.6994224,1.3591619,0.74717325,1.2121782,0.7621174,0.35441083,0.8550199,0.6372575,0.65468264,0.8819867,0.44794255,-0.431383,0.82485354,0.16122627,0.49169326,-0.32748023,-0.48445058,-0.44265118,-0.3810565,0.6941239,0.4164877,-0.4193864,0.88854414,0.8926155,0.4425143,-0.0392082,0.47868302,0.39691696,0.597633,0.13201608,0.609168,0.11077562,-0.06682785,0.3651538,0.68862784,1.1071652,0.33006346,0.13801078,0.598468,-0.5125421,0.18209492,0.7374727,-0.14446834,1.2536075,0.59125274,0.84502345,0.64616656,0.93344104,1.1831744,1.3895715,1.7144514,1.4633064,0.90080804,1.1241721,0.6992943,0.6544983,0.34077594,1.2675613,0.575391,0.6843031,1.0663958,0.67311263,0.6779824,1.4035516,0.91413987,0.28930774,0.66582286,0.26336905,0.42048278,0.30356833,0.94694453,0.8251855,0.16977318,0.9472539,0.89090353,1.2527305,-0.5908887,0.8443095,-0.64591306,0.932867,1.1829259,1.3887615,1.7138482,1.4625177,-0.90037197,1.123935,-0.698565,-0.12735748,-0.34001663,1.26662,-0.57522583,-0.6842172,-1.0660695,-0.6664552,-0.67735726,1.4027324,0.9135305,0.15151651,-0.664189,-0.19327834,-0.42028275,-0.30296037,-0.94670147,0.8248929,-0.16594642,-0.94690466,0.89003116,0.09016758,0.08762805,0.006693704,0.111180104,0.17445897,0.05469497,0.17273666,0.092738025,0.06926893,0.1819947,0.19191135,0.18050033,0.20363183,0.011962883,0.056543093,0.024071587,0.04509579,0.062036112,0.07225863,0.19180429,0.142284,0.0060874694,0.08419156,0.2602986,0.18211292,-0.0148459785,0.09273417,0.12146814,0.015795704,0.22665672,0.12203936,0.097405374
AA05-co-400,0.57712656,0.9527605,0.30920878,0.53786,0.46649873,0.68604225,0.56371534,0.47994086,0.84154886,0.55765396,0.6270932,1.1544242,1.0275902,0.417144,0.5067529,0.6172874,0.65846276,0.77226907,0.18858495,0.9817189,0.6762812,0.5461434,1.0927943,0.64125514,1.2831073,0.68276906,0.2832866,0.87173736,0.64374244,0.6164057,0.81865394,0.40719596,-0.4517292,0.8241422,0.04411375,0.52518344,-0.3534193,-0.583843,-0.45896077,-0.35509163,0.6080134,0.39089748,-0.4769906,0.95329446,0.6382018,0.3001765,-0.15537907,0.4418484,0.4070379,0.65012306,0.022286423,0.55049217,0.12928478,-0.06366298,0.24704272,0.5881577,1.220843,0.28770223,0.0628899,0.5981632,-0.5296885,0.027795266,0.6594578,-0.13759778,1.2326326,0.5714668,0.8791537,0.5298244,0.9773925,1.1836401,1.4483086,1.5979248,1.4875149,0.91955125,1.0566837,0.6989658,0.52375627,0.34819594,1.3089128,0.52235335,0.7565278,1.0556718,0.6760768,0.66518885,1.4135382,0.8858929,0.29470494,0.66658884,0.28900555,0.44870195,0.28575715,0.98100424,0.80285925,0.1658505,0.9405376,0.9679065,1.2317673,-0.5711252,0.8784476,-0.529569,0.9768209,1.1833917,1.447518,1.597332,1.4867383,-0.9191609,1.0564375,-0.69825256,-0.41684073,-0.3480117,1.3079801,-0.5222126,-0.75643694,-1.0553637,-0.6760091,-0.66451555,1.4127269,0.88530153,0.23151106,-0.6659893,-0.2529619,-0.44848892,-0.28506595,-0.98076355,0.80259377,-0.16343558,-0.94020355,0.9670348,0.1053551,0.106861025,0.01796282,0.11288547,0.19189154,0.07032312,0.15011746,0.104813576,0.08428021,0.1802146,0.1765835,0.15774943,0.21854672,0.0119028175,0.070421636,0.022019446,0.054732803,0.06274722,0.090445034,0.16861424,0.12705441,0.009767412,0.083649226,0.23890984,0.1624845,-0.0036808706,0.09390989,0.10215926,0.02786809,0.20197578,0.14018016,0.10764218
AA03-nc-10,0.5932678,1.05618,0.31366593,0.63261336,0.5384141,0.63354146,0.59507215,0.4618067,1.0055807,0.3987544,0.7422007,1.2822268,0.9491974,0.38514072,0.54284275,0.6388873,0.6095792,0.6056674,0.19098452,0.85356504,0.7016072,0.635988,0.8163332,0.78948975,1.2435727,0.71285385,0.22450373,0.878434,0.63916296,0.68114346,0.85854995,0.5400168,-0.53883713,0.8533335,-0.032633275,0.61561024,-0.4437967,-0.5114258,-0.4750076,-0.36350992,0.7264358,0.19686902,-0.5455823,0.97812927,0.69370234,0.33954006,-0.21942559,0.5230094,0.22751829,0.44234926,0.100507,0.52405393,0.2102261,-0.007540283,0.18778372,0.7369564,1.129944,0.34098512,-0.018014688,0.53415006,-0.50840217,-0.15232798,0.64164597,-0.28583524,1.2260755,0.59472835,0.90534973,0.51463515,0.9166769,1.283351,1.3274086,1.5955966,1.4368153,0.9464224,1.0384681,0.7224537,0.3766921,0.37049636,1.2654392,0.5798397,0.8229726,1.0455544,0.72310597,0.667706,1.3813651,0.93301785,0.20711808,0.5239054,0.37329158,0.44393763,0.30325034,0.99219143,0.7809671,0.12978442,0.8921757,1.0262201,1.2252381,-0.5944157,0.90467614,-0.5143715,0.9161526,1.2830873,1.3266782,1.594987,1.4360831,-0.9459192,1.0381896,-0.72175896,-0.2565897,-0.37030676,1.2645452,-0.57966834,-0.822872,-1.0451825,-0.7230508,-0.6670581,1.3806044,0.9324621,0.06098224,-0.5232623,-0.37294155,-0.4436931,-0.30276155,-0.9919177,0.78070706,-0.12952492,-0.8918935,1.0253794,0.1315591,0.1383638,0.03651961,0.12993129,0.22676401,0.096172854,0.11040543,0.12701719,0.10921909,0.19762355,0.15054278,0.11678462,0.24773331,0.012152542,0.09383403,0.018606696,0.0707385,0.06257904,0.11924549,0.12687817,0.100679025,0.015613979,0.08642925,0.2032326,0.12742409,0.017234277,0.08905107,0.06739121,0.05013741,0.15671799,0.17301182,0.12852792
AA07-co-400,0.5378841,0.97433233,0.48664898,0.55071604,0.5224752,0.66922945,0.58495206,0.5284938,0.99992204,0.6027157,0.63172936,1.1353867,1.3419104,0.51729405,0.67614615,0.63879526,0.71967393,0.75405914,0.3335697,1.1784027,0.8828706,0.707696,1.4894406,0.74433815,1.2856691,0.82932985,0.37807012,0.9262752,0.6792106,0.64914733,0.9201936,0.43672687,-0.40349984,0.8220496,0.12522055,0.52915126,-0.31843245,-0.50510997,-0.45887116,-0.32817128,0.6780223,0.40918922,-0.4431174,0.88949704,0.858075,0.38689026,0.023912929,0.44951722,0.40023872,0.6171994,0.10999634,0.65795153,0.18268795,0.04461516,0.47423103,0.6749176,1.1474464,0.38585457,0.13285631,0.634168,-0.5355642,0.085005894,0.74075925,-0.08500434,1.2321614,0.5777244,0.8530728,0.61181474,0.92387027,1.2192008,1.4127463,1.6972988,1.4624771,0.9263954,1.1008373,0.71573997,0.6490328,0.3237107,1.2664014,0.5545009,0.72679025,1.0570515,0.6371735,0.6866358,1.3941253,0.91508085,0.31595147,0.63320684,0.27692357,0.455364,0.31154835,0.9582497,0.802768,0.16516183,0.9310316,0.96111864,1.2312514,-0.5773637,0.85233307,-0.61156416,0.9232691,1.2189301,1.4119105,1.6966764,1.4616591,-0.9259774,1.1005716,-0.71501005,-0.19763522,-0.32245845,1.2654239,-0.5543363,-0.72669715,-1.0567592,-0.62456286,-0.68602103,1.3932735,0.9144507,0.23093301,-0.6317443,-0.20087086,-0.45515862,-0.31110948,-0.95801216,0.8024758,-0.15862642,-0.930688,0.96020585,0.106933385,0.109410584,0.019518029,0.117967255,0.19372863,0.07287501,0.14993319,0.10641079,0.086345695,0.18724932,0.17656447,0.15721694,0.21960321,0.01201486,0.072748244,0.022092735,0.05595566,0.062317986,0.09284104,0.16796684,0.12692335,0.010188029,0.08496033,0.23903696,0.16201912,-0.001590436,0.09154964,0.10185879,0.030169358,0.20096542,0.14198929,0.10881527
AA03-nc-1000,0.5939607,0.92971635,0.30297726,0.47778633,0.45113185,0.65580046,0.5343651,0.51038545,0.80134004,0.5394882,0.60816103,1.1021489,1.0338012,0.4807324,0.48430547,0.6347736,0.6225745,0.71579015,0.21060866,0.885421,0.55451953,0.53309953,0.92315054,0.6584667,1.2125938,0.587661,0.2554809,0.7742645,0.6196948,0.57858574,0.798384,0.4246755,-0.48955464,0.84063524,0.095196515,0.4675518,-0.3735886,-0.5559501,-0.4482233,-0.40986776,0.65501434,0.41572592,-0.46064764,0.9626954,0.7127414,0.38342983,-0.19518855,0.48684344,0.42958963,0.64165086,0.066185266,0.520428,0.05837031,-0.1610239,0.15910305,0.60553426,1.1688815,0.23440595,0.08176885,0.5821538,-0.5154297,0.09800244,0.6940759,-0.17673239,1.250043,0.59514356,0.8656433,0.59900486,0.97546095,1.1603756,1.4081575,1.6477538,1.4804038,0.9034202,1.0634911,0.6914022,0.51364946,0.3592176,1.2977957,0.5478803,0.70937324,1.0633227,0.707379,0.6593223,1.4149352,0.89199215,0.27162656,0.68606037,0.2871516,0.41897196,0.27826777,0.9655596,0.8212936,0.15847379,0.94913507,0.8950013,1.2492312,-0.5948182,0.86498076,-0.5987702,0.97492045,1.1601498,1.4074062,1.6472001,1.4796745,-0.90301514,1.0632739,-0.6907579,-0.2792431,-0.35904476,1.2969209,-0.5477371,-0.7092893,-1.063007,-0.70731634,-0.6587063,1.4141729,0.89143467,0.11842654,-0.68545604,-0.24126239,-0.41877574,-0.27753785,-0.965337,0.8210474,-0.15503001,-0.94883686,0.89418423,0.08898998,0.08520824,0.0048706583,0.107205525,0.17351197,0.052222125,0.17210592,0.09148416,0.06749374,0.17643826,0.19143699,0.180144,0.20333235,0.011875538,0.054350916,0.023919787,0.04414999,0.06238402,0.06983681,0.19159277,0.14190586,0.0056653414,0.083116286,0.25958934,0.18185198,-0.0170563,0.094637044,0.121074975,0.0135670295,0.22661617,0.12057558,0.09677036
AA01-co-1,0.56601393,1.4151381,0.43361425,1.0670884,0.43765837,0.49537152,0.86726564,0.12026796,1.6387933,0.19462033,1.0608169,1.5620501,1.397483,0.1657187,0.51904935,0.46328884,0.48798618,0.43375498,0.24129578,0.99948,1.1642213,0.5559561,0.9976789,1.1641041,1.1946518,0.90339947,0.15170327,0.9051191,0.9124291,0.54451716,1.1820724,0.39798948,-0.52906877,1.0656314,0.035805874,1.0648627,-0.32440358,-0.48952127,-0.59735084,-0.032886487,1.1147971,-0.0812324,-0.84347236,1.1409235,1.1022916,0.14315236,0.33460742,0.37459525,0.09637262,0.17288654,0.24017213,0.9543246,0.7775376,0.4872106,0.7695233,1.1339893,1.0450296,0.7694222,-0.013534099,0.5632272,-0.7014756,-0.5398682,0.8185825,-0.28403813,1.1417916,0.6333292,0.9747023,0.24946678,0.79390913,1.6755157,1.1217017,1.7940128,1.378328,0.915764,0.89562166,0.7955031,0.05116862,0.4500316,1.1477431,0.69379526,0.99311894,0.9317516,0.8144907,0.7187825,1.3324069,1.0403553,0.20445438,0.20831239,0.5636569,0.5508649,0.3671126,1.0750488,0.69702286,0.0039545447,0.7583127,1.2713436,1.1416543,-0.6332194,0.97461396,-0.24937053,0.7937278,1.6752948,1.121372,1.7938658,1.3781823,-0.9156395,0.8954384,-0.79530954,0.05105877,-0.44998333,1.147603,-0.6937628,-0.9930584,-0.9316394,-0.81447184,-0.7185653,1.3322799,1.0402024,-0.20434503,-0.20819636,-0.5635089,-0.55080396,-0.36699033,-1.0749755,0.69693863,0.0038491697,-0.7582173,1.2712203,0.21713911,0.26493397,0.10668567,0.16810459,0.31369007,0.19843897,0.011450337,0.19506499,0.20129861,0.23477624,0.08525939,0.015048597,0.3203851,0.012646357,0.18354648,0.010249457,0.12679514,0.06264417,0.2331739,0.022308692,0.034603525,0.037823074,0.09220312,0.11300807,0.039790705,0.09124108,0.07929594,-0.019401051,0.13257736,0.04436881,0.2694928,0.18074714
AA03-co-10,0.5117258,1.1494797,0.41759935,0.69987535,0.5533054,0.6040316,0.6773527,0.39569348,1.1852827,0.52050006,0.69262576,1.4883789,1.0745518,0.34978077,0.5340249,0.5849257,0.7120608,0.78115445,0.18174787,1.0013548,0.8468417,0.61467874,1.021811,0.85058147,1.2732964,0.7517859,0.29300776,1.1813179,0.67696124,0.70762444,1.078719,0.5482732,-0.44837213,0.78066915,-0.03382751,0.68533486,-0.42458645,-0.48592582,-0.4566926,-0.2815281,0.63156396,0.17003345,-0.51902324,0.98485374,0.7867306,0.26633027,-0.04916797,0.4440096,0.15885055,0.41817132,0.07219007,0.66891706,0.26839325,0.09718753,0.40173307,0.80245,1.1114513,0.40771827,-0.04729306,0.6130373,-0.512331,-0.28630123,0.6312915,-0.23333916,1.2232177,0.5784051,0.89000577,0.45860052,0.8954442,1.4323972,1.3803053,1.7099831,1.4393133,0.9844445,1.1287059,0.7191192,0.3981845,0.33500522,1.2595217,0.5595056,0.8569703,1.0506864,0.6574329,0.7102392,1.3846127,0.9564599,0.29029945,0.50966525,0.34519684,0.464778,0.35498634,0.93003196,0.747011,0.17539242,0.86339015,1.0705976,1.2221344,-0.5779864,0.8891245,-0.4583354,0.89474404,1.4320308,1.3793378,1.7091894,1.4383417,-0.9839513,1.1282871,-0.7183218,-0.29942787,-0.33478722,1.2583532,-0.5592843,-0.8568462,-1.0504277,-0.65736437,-0.70944226,1.3836104,0.955722,0.22050516,-0.508839,-0.34384993,-0.46448737,-0.35443515,-0.9297465,0.7467115,-0.17508224,-0.86302596,1.0695113,0.15480313,0.17789945,0.06033964,0.13809045,0.2457932,0.1287159,0.08916917,0.144747,0.13751307,0.20494708,0.13616343,0.09495127,0.26291603,0.012232957,0.1219841,0.016903097,0.08749984,0.06278792,0.15605703,0.10426183,0.08625325,0.023023892,0.08772223,0.18316214,0.10852715,0.04091969,0.087031886,0.048912104,0.076168105,0.13235278,0.19674015,0.13975713
AA01-nc-all,0.5611575,1.0625353,0.9751541,0.47657174,0.81777066,0.6570649,0.58299637,0.7214091,1.208542,0.6246866,0.60215926,1.2660425,1.5560472,0.6237967,0.98403436,0.656781,0.97562116,0.7908726,0.35468888,1.2373055,1.1820848,0.7534153,1.4769892,0.72761875,1.3047945,0.8764625,0.55942714,0.95370126,0.6220649,0.6756998,0.92895263,0.6312596,-0.4312974,0.81178766,0.293279,0.45208097,-0.29621977,-0.5005764,-0.44519085,-0.3860216,0.694307,0.43220556,-0.39395213,0.9058137,0.96648204,0.4842887,0.021808712,0.49808222,0.44597536,0.5881152,0.15363011,0.67722166,0.10318314,-0.17640474,0.32980758,0.66905576,1.0398716,0.31424943,0.18319121,0.59072983,-0.49504504,0.22413982,0.7191436,-0.099748865,1.2756106,0.6159488,0.8265505,0.6828414,0.95034355,1.1827402,1.3946499,1.7909102,1.4711438,0.88494647,1.1600218,0.6942561,0.64290375,0.33311185,1.2651098,0.5760082,0.6360336,1.0824028,0.6591126,0.64377624,1.4204278,0.91976976,0.2798696,0.7116906,0.27509806,0.38435107,0.2869216,0.90873307,0.81616485,0.17546494,0.9543034,0.82949835,1.2748113,-0.61489266,0.8259092,-0.6826049,0.94982505,1.1825312,1.3939354,1.790379,1.4704349,-0.88451874,1.1598233,-0.69361675,-0.07881122,-0.33079824,1.2642571,-0.57586455,-0.635952,-1.0820976,-0.6471086,-0.642847,1.4196901,0.9192253,0.09417839,-0.7110409,-0.17972364,-0.38395748,-0.28530914,-0.90850407,0.81591153,-0.1729606,-0.9539969,0.82872355,0.07671701,0.07046723,-0.0035002956,0.10316296,0.15479714,0.040023718,0.19791593,0.0818314,0.05563081,0.17554593,0.20879692,0.2062187,0.18611781,0.011886691,0.043505125,0.026324991,0.036295023,0.061856773,0.055984568,0.21790963,0.15915468,0.0027558494,0.083187476,0.2835764,0.20427358,-0.025813788,0.094343185,0.14304279,0.0038094022,0.25494656,0.105823494,0.085811995
AA10-co-100,0.59536326,0.97440064,0.47094455,0.54627615,0.57516265,0.723124,0.55639726,0.5243639,0.76882225,0.5543778,0.63288397,1.2131003,0.9210886,0.39193797,0.64140093,0.60893446,0.789723,0.7922218,0.19139844,0.9569602,0.6860668,0.55608636,0.9634911,0.6148846,1.3791249,0.6849599,0.34921104,0.8559322,0.6594806,0.61918575,0.77877074,0.44596446,-0.48401532,0.8141458,0.004261815,0.52420145,-0.3754555,-0.6109707,-0.45963898,-0.3800718,0.563665,0.3916764,-0.49460933,0.98847175,0.53992575,0.2733814,-0.19369993,0.44852093,0.424365,0.67097545,-0.017375648,0.5002386,0.10070136,-0.08554548,0.13499342,0.5534359,1.2821398,0.28970486,0.06297378,0.5856221,-0.5287505,0.0070744837,0.6372745,-0.18542406,1.2197452,0.55691206,0.88961273,0.4966128,0.9922007,1.170029,1.4511504,1.561263,1.4930879,0.920559,1.022971,0.6831549,0.56023717,0.3496839,1.3236275,0.49922267,0.77284706,1.0566285,0.6944356,0.6588411,1.4128277,0.8685777,0.26396215,0.6664887,0.29124424,0.45261642,0.26524743,1.0087221,0.81363577,0.16224214,0.94077843,0.9804875,1.2188702,-0.55659026,0.8889043,-0.49635997,0.991657,1.1698368,1.450427,1.5606868,1.4923214,-0.9202481,1.022772,-0.6825937,-0.52468866,-0.3495035,1.3226799,-0.49909097,-0.7727389,-1.0563488,-0.69438696,-0.6580881,1.4120204,0.86801064,0.22370075,-0.6659172,-0.2780796,-0.4524002,-0.26473218,-1.008498,0.8134529,-0.16200359,-0.94051003,0.9796068,0.10520047,0.10650076,0.017614085,0.11084466,0.19276994,0.06993421,0.1478994,0.104380034,0.08416575,0.1769267,0.17505482,0.15565775,0.21959005,0.011854366,0.07007524,0.021735217,0.05474457,0.06294891,0.09005884,0.16664329,0.12561117,0.009758093,0.08300242,0.2368123,0.16069658,-0.0040046456,0.09503272,0.10048118,0.027566833,0.19987524,0.13985725,0.10812811
AA01-co-400,0.5589188,1.1464592,1.1198013,0.52453876,0.91707397,0.72033,0.6211836,0.7484629,1.3303126,0.6566859,0.64908576,1.3936304,1.5851586,0.5467054,1.0802141,0.63762534,1.1024624,0.88838476,0.35231668,1.3512424,1.4156525,0.7771463,1.6526132,0.7052027,1.4749138,0.99230707,0.62987673,1.0620903,0.6524124,0.711035,0.9716389,0.68414336,-0.41655585,0.81469864,0.24216238,0.497427,-0.2694278,-0.5400885,-0.456495,-0.33909583,0.6614326,0.41554737,-0.42345238,0.9170429,0.85053444,0.3889292,0.015358231,0.45941517,0.4477144,0.6170189,0.10888025,0.65164393,0.17049818,-0.10401158,0.36666557,0.63818926,1.1326824,0.3347962,0.15664618,0.611806,-0.5123874,0.15174836,0.6896446,-0.08018649,1.2542961,0.593879,0.8486583,0.60389024,0.96009356,1.1911993,1.4332335,1.7099128,1.48026,0.9023916,1.1373794,0.70204157,0.6218273,0.32823986,1.2823833,0.54175544,0.68707377,1.0687903,0.64587384,0.6554054,1.419493,0.9059099,0.29839715,0.6923641,0.27466634,0.40782082,0.29263118,0.9331393,0.80895776,0.17295015,0.9496732,0.901201,1.2534969,-0.59287065,0.84801453,-0.60364485,0.959574,1.1909835,1.4325119,1.7093713,1.4795482,-0.90199167,1.1371696,-0.7013824,-0.2698962,-0.3252303,1.2815269,-0.5416168,-0.68699074,-1.0684943,-0.63462466,-0.6543075,1.4187512,0.9053667,0.18751898,-0.6917929,-0.2014295,-0.40761712,-0.29000187,-0.93290174,0.8086935,-0.17084628,-0.9493653,0.90040827,0.09095106,0.08955246,0.008297543,0.1075672,0.1724918,0.055954542,0.1754196,0.09316012,0.07034381,0.17758505,0.19360554,0.18337734,0.20147406,0.011888249,0.05753059,0.024333194,0.045607947,0.062302437,0.07398664,0.19457462,0.14399265,0.006466164,0.08335782,0.26245305,0.18453848,-0.013624665,0.09422789,0.12376365,0.016810423,0.22993381,0.12268422,0.09624447
AA03-nc-400,0.59422976,0.9245979,0.3086775,0.48783615,0.44953233,0.6567127,0.5380981,0.5132433,0.78048825,0.54190326,0.5935144,1.0995678,1.0025291,0.47618377,0.5011257,0.63866323,0.6165978,0.7300782,0.1970651,0.8771679,0.57138216,0.5370249,0.93647975,0.63335496,1.2439786,0.58970064,0.26666528,0.768531,0.61153984,0.58018386,0.7883793,0.41809013,-0.48844287,0.8268786,0.08562071,0.47805333,-0.3650274,-0.56246614,-0.44527233,-0.40568298,0.6200562,0.41279113,-0.45220202,0.9511555,0.6560189,0.37852913,-0.21016666,0.4849877,0.42005807,0.64864916,0.046359416,0.48839736,0.048504084,-0.16755942,0.13223556,0.583397,1.1960224,0.2273795,0.082933664,0.5656291,-0.510468,0.11408148,0.67546636,-0.18834516,1.2474263,0.5889485,0.86643565,0.5807404,0.98414046,1.1422135,1.4253713,1.6173352,1.4857675,0.8922319,1.0716286,0.68030334,0.5145266,0.3597535,1.3051364,0.5380007,0.70847136,1.0612962,0.7070408,0.6583617,1.4162844,0.88336074,0.27065614,0.6974525,0.27641633,0.42080975,0.27121508,0.97866803,0.8232328,0.16010648,0.95389915,0.89945984,1.2465794,-0.58861345,0.86574674,-0.5804775,0.98358136,1.1419883,1.4245952,1.6167595,1.485007,-0.8918259,1.0714115,-0.6796095,-0.32928666,-0.35956982,1.3042247,-0.53785616,-0.7083853,-1.0609655,-0.7069752,-0.6577162,1.4154924,0.8827823,0.14545248,-0.6968389,-0.22993198,-0.42061353,-0.27038634,-0.97843826,0.8229725,-0.15735665,-0.95358366,0.898609,0.087695464,0.083597854,0.004056472,0.105811365,0.17199992,0.050969686,0.17350847,0.090401195,0.06624644,0.17462152,0.19230813,0.18164858,0.2021081,0.011848446,0.0531887,0.024019573,0.043348774,0.062459268,0.06841011,0.1931507,0.14282183,0.005392281,0.08280577,0.2607548,0.1831289,-0.017977115,0.09519319,0.12237793,0.012544598,0.2283265,0.119261324,0.09584774
AA03-nc-1,0.5204009,1.1821634,0.22942594,1.0635287,0.6119421,0.7078159,0.60582864,0.16034687,1.1735255,0.19130401,0.951131,1.456398,0.93228185,0.1593085,0.47065416,0.5303514,0.34398505,0.21312703,0.21741077,1.222805,0.8826086,0.6287011,0.9372589,1.1069019,1.145901,0.93137187,0.12255496,0.85729015,0.8653543,0.6817251,0.89308953,0.42758563,-0.49982613,0.9110899,-0.16394518,1.0507518,-0.5074216,-0.56996787,-0.4280287,-0.060643703,0.8101015,-0.09207016,-0.73435163,1.0704008,0.82068324,0.121319935,0.18484397,0.4911406,-0.06307448,0.15888384,0.15787211,0.9942064,0.5601959,0.46946985,0.6455497,1.0351695,1.0390577,0.7364336,-0.05324343,0.5590961,-0.60891104,-0.60315406,0.6479666,-0.35767797,1.1383148,0.60279953,0.95787114,0.26513135,0.80432343,1.6869234,1.1759437,1.7847912,1.3751328,0.9433863,0.9401021,0.7347429,0.0264166,0.436108,1.171532,0.66964483,0.99938405,0.94360614,0.80554575,0.74632984,1.3246157,1.0191259,0.100988686,0.22646481,0.5575291,0.5822329,0.3808607,1.0463424,0.6982527,0.014261499,0.7526746,1.2662967,1.1370937,-0.6023469,0.95687383,-0.26488516,0.8035469,1.6864941,1.1748608,1.7838601,1.3740457,-0.9431457,0.9395675,-0.7345235,-0.02624457,-0.4359406,1.170215,-0.66940016,-0.99923277,-0.9434697,-0.8055278,-0.7457064,1.3234955,1.018287,-0.10059166,-0.22554044,-0.55707425,-0.58209467,-0.38048634,-1.0462302,0.6981463,-0.013928759,-0.7525696,1.2650706,0.21708927,0.26344985,0.10666426,0.16724196,0.31336942,0.19764933,0.01079981,0.1951009,0.20108265,0.23300481,0.084540784,0.014592813,0.31995142,0.012621242,0.18301201,0.010076727,0.12710783,0.06275617,0.2325847,0.022235833,0.034132995,0.038068697,0.09207145,0.11231622,0.039457817,0.09088978,0.07961953,-0.019486781,0.1320593,0.04386502,0.2690822,0.18034548
AA05-co-10,0.53490084,1.0082358,0.33742982,0.53964096,0.4773739,0.70236516,0.635939,0.42915988,0.97182655,0.54610336,0.73144764,1.1527592,1.159298,0.3841141,0.51308054,0.5385625,0.65857667,0.77008665,0.19944124,1.0562528,0.64965165,0.5536856,1.1583586,0.7475035,1.182829,0.6096702,0.250022,0.92685807,0.6927148,0.56510127,0.94787645,0.4706564,-0.39976948,0.8787338,0.045039903,0.51527274,-0.34715074,-0.5708732,-0.51346767,-0.26560563,0.75660115,0.39492887,-0.5406898,0.9668142,0.8842738,0.2584784,0.0065455674,0.38779888,0.39043468,0.6239677,0.09192145,0.74565643,0.21110246,0.047818422,0.5518609,0.66566336,1.0865141,0.3521263,0.035278693,0.7066999,-0.56821233,-0.07665528,0.76830155,-0.034316752,1.233128,0.5964281,0.8797957,0.57386714,0.9302827,1.319126,1.4188795,1.6825516,1.4626487,0.99292755,1.0264544,0.7715488,0.5112105,0.32196915,1.2658585,0.55261695,0.79037553,1.0564665,0.60842055,0.7013467,1.4063232,0.94225615,0.34137407,0.6001343,0.33254772,0.49839005,0.35266957,0.97034514,0.7634269,0.17869723,0.923113,1.0268104,1.2322332,-0.5960716,0.8790641,-0.5736569,0.9296829,1.3188329,1.4180485,1.6819013,1.4618384,-0.99254334,1.0261606,-0.77102983,-0.28357235,-0.32177952,1.2648951,-0.5524616,-0.7902781,-1.0562288,-0.60837364,-0.7007251,1.4054792,0.9416386,0.2392219,-0.59943664,-0.3156824,-0.49824962,-0.352215,-0.97016084,0.763217,-0.17847267,-0.92287445,1.0259192,0.1327274,0.14502467,0.04029891,0.12743616,0.22029802,0.1018317,0.119022265,0.12722671,0.11342683,0.1955978,0.1560007,0.1255737,0.24167113,0.01209669,0.098526716,0.019515764,0.07272037,0.062643975,0.12607989,0.13538712,0.106203295,0.016726982,0.086201444,0.21043007,0.13477077,0.019341638,0.089608006,0.07477011,0.053014994,0.1661154,0.17156577,0.124618754
AA10-nc-100,0.61565864,0.9187805,0.34159338,0.48337173,0.4732877,0.70282346,0.5376228,0.5672904,0.720632,0.5677683,0.60771513,1.0914212,0.9515715,0.44869846,0.5871763,0.61882424,0.6752403,0.7646572,0.18769068,0.93514043,0.56865364,0.54689103,0.9787927,0.56429094,1.3429191,0.6739561,0.31896204,0.7933499,0.62539965,0.6008027,0.74277407,0.4190153,-0.49878326,0.81507266,0.036341134,0.46851712,-0.37110463,-0.6079425,-0.4457395,-0.43424085,0.57065755,0.42702428,-0.47219673,0.94815695,0.55547035,0.32391757,-0.2346195,0.46380845,0.43981636,0.68421835,-0.0015086724,0.44884092,0.024364624,-0.1947597,0.077327535,0.51942843,1.2911855,0.24105963,0.0843803,0.5456268,-0.51422316,0.14634512,0.64089906,-0.230678,1.2308137,0.5714804,0.8772533,0.5548043,1.00569,1.0952946,1.4477528,1.5382634,1.4944632,0.8902572,1.039893,0.66425616,0.57098055,0.36197975,1.3224863,0.51298356,0.72017497,1.0590545,0.71997213,0.6445163,1.4171188,0.85892385,0.26293182,0.70954967,0.26485103,0.42618924,0.25457805,1.008275,0.83945006,0.16512108,0.9624661,0.91858095,1.2299395,-0.57117254,0.8765445,-0.5545596,1.0051589,1.0951083,1.4470618,1.5377163,1.493703,-0.8899542,1.0397133,-0.6637028,-0.4706959,-0.36180457,1.321538,-0.51285654,-0.7200728,-1.0587873,-0.7199152,-0.64372796,1.4163127,0.85837203,0.17184657,-0.7089566,-0.24492583,-0.42597073,-0.25403178,-1.0080372,0.8392648,-0.16489294,-0.9621873,0.9176992,0.08444605,0.07853702,0.0016623357,0.102906436,0.17166919,0.046906546,0.17262465,0.08779103,0.06251875,0.1703361,0.19159816,0.1809552,0.20209876,0.0117810955,0.04949146,0.023863008,0.041190606,0.06269581,0.06386525,0.19253874,0.1422238,0.004620858,0.082007416,0.25971198,0.18248549,-0.020436693,0.09661797,0.12189099,0.009606439,0.22777098,0.11639936,0.09559581
AA01-nc-10,0.46508473,0.8149287,0.6352447,0.41484705,0.41702652,0.44788566,0.45950365,0.58637655,0.89466536,0.5417825,0.40212208,1.0208207,1.7150002,0.7814503,0.7474459,0.62033355,0.5653088,0.49697748,0.34034944,1.259444,0.52761483,0.5993465,1.1433661,0.86820567,0.8835205,0.7314163,0.45983696,0.77213275,0.5462106,0.736934,0.8037898,0.40246955,-0.42620707,0.7465009,0.43375534,0.4047958,-0.360857,-0.34145397,-0.37936413,-0.5361578,0.7161375,0.43154114,-0.26378563,0.8954633,1.3405917,0.7065178,0.17264085,0.57162917,0.3907248,0.4447704,0.22775586,0.81992495,-0.01213341,-0.24766259,0.31881794,0.8547877,0.74591726,0.35574323,0.26643774,0.5864037,-0.4515872,0.36090922,0.7059131,-0.099415615,1.3386298,0.60834473,0.7613574,0.85105085,0.8973559,1.2455856,1.2851982,2.0641706,1.4426038,0.8211357,1.2921246,0.6790085,0.9650564,0.33957714,1.2243748,0.6792321,0.54963696,1.1060758,0.6735485,0.70006526,1.4267912,0.95702773,0.32314298,0.6768993,0.253399,0.31502157,0.3098549,0.7813757,0.8062005,0.23748715,0.94897604,0.6109172,1.3379174,-0.6080203,0.7608027,-0.85082215,0.89688957,1.2453992,1.2845267,2.0636692,1.4419633,-0.8204603,1.2919437,-0.6782157,0.44295087,-0.33939388,1.223625,-0.67907107,-0.54957885,-1.105644,-0.67348707,-0.6995398,1.4261336,0.95651406,-0.013764614,-0.67625076,-0.026636243,-0.31486085,-0.3094966,-0.78119594,0.8058745,-0.23729739,-0.94867307,0.61027193,0.04955903,0.04181659,-0.018407967,0.099489026,0.12132378,0.015915927,0.23927312,0.059312917,0.03148346,0.17755549,0.23676756,0.24791571,0.15856326,0.011971352,0.021639187,0.030127332,0.020064874,0.06077235,0.028634941,0.26034293,0.18692404,-0.0022773743,0.084088385,0.32244787,0.24032302,-0.041129015,0.092518404,0.17807451,-0.0134205725,0.3003506,0.069474384,0.066067375
AA10-nc-1000,0.612684,0.92517966,0.3493765,0.48647887,0.487517,0.6904213,0.5274807,0.5561941,0.7387419,0.54615945,0.6063572,1.1081284,0.953326,0.45557106,0.57858276,0.62247556,0.6682108,0.7480923,0.19758236,0.89994943,0.5727882,0.5484669,0.9130062,0.587148,1.3250761,0.63247347,0.30905783,0.7680656,0.6113306,0.6042869,0.75729567,0.4323069,-0.50616056,0.8221961,0.047175176,0.4722581,-0.3780468,-0.5943132,-0.44517416,-0.43424255,0.5915706,0.41961637,-0.4724414,0.95734227,0.5903343,0.3398271,-0.22614911,0.47619078,0.4372498,0.6694511,0.0069340128,0.46593404,0.029014906,-0.19099228,0.07649482,0.5416651,1.2640715,0.23618056,0.083845064,0.54927623,-0.5104577,0.12581095,0.65698224,-0.23225228,1.2344785,0.5779293,0.8757045,0.56176686,0.9975629,1.1097772,1.4321356,1.5664493,1.4901905,0.8963598,1.0441871,0.6683134,0.5498947,0.36323732,1.315962,0.5212693,0.72056687,1.0599678,0.7230939,0.64839894,1.4162933,0.8665144,0.25981805,0.7009786,0.27588573,0.422691,0.25727376,0.9998499,0.8354903,0.15968193,0.9579462,0.91356504,1.2335763,-0.57760966,0.874973,-0.5615022,0.9970134,1.109601,1.4314107,1.5658704,1.4894055,-0.8960106,1.0440016,-0.667716,-0.42291114,-0.36305454,1.3149835,-0.52113485,-0.7204592,-1.0596646,-0.7230421,-0.6476049,1.4154626,0.8659393,0.14451824,-0.7003366,-0.24603613,-0.42246833,-0.25672123,-0.99961185,0.83529705,-0.15943034,-0.9576558,0.91265976,0.08674245,0.08119983,0.0024948097,0.103975475,0.17277712,0.0490051,0.17167158,0.08952457,0.06478037,0.17177244,0.19102694,0.17991634,0.20299533,0.011804072,0.05153605,0.023801211,0.04259464,0.062630475,0.06633106,0.19145057,0.14160243,0.0049609486,0.0822545,0.25894526,0.18161573,-0.019570673,0.09616794,0.12096656,0.01070291,0.22658321,0.118338935,0.09628526
AA07-nc-1,0.55939734,1.1992128,0.22068799,1.2509278,0.5740496,0.4469076,0.5930172,0.15154517,1.3971267,0.25410217,0.7679803,1.130648,1.5678568,0.18276599,0.5914051,0.42509717,0.40785664,0.13386714,0.39671797,1.2072036,0.996431,0.55047977,0.93220425,1.3833144,1.1351392,0.8553335,0.13634771,0.31408668,0.7055537,0.49286646,0.909389,0.40738553,-0.4691403,0.9920447,0.016537473,1.21585,-0.34630328,-0.44096488,-0.39808744,-0.039551184,1.0303771,-0.21031547,-0.5831016,0.8790995,1.2689754,0.11981535,0.26548156,0.31586352,-0.1687975,0.08687891,0.36347693,1.1104609,0.6490562,0.48742113,0.7033265,1.3142833,1.0380125,0.7171271,-0.10883421,0.16986704,-0.49949405,-0.46416867,0.66794974,-0.40456507,1.1342312,0.5447977,0.9933758,0.18641883,0.74757993,1.6984572,1.0113951,1.8039962,1.3632603,0.81964105,0.8487392,0.72865903,0.2561074,0.5472362,1.1294901,0.8009602,0.9993278,0.8369349,0.8633015,0.62243694,1.3264315,1.0587986,0.38082466,0.14755654,0.5896567,0.5055337,0.34909913,1.1907717,0.7523628,0.047310837,0.75915325,1.2713132,1.1336161,-0.54445696,0.99284476,-0.18601264,0.7469863,1.6980499,1.0105165,1.8034233,1.3626255,-0.81895125,0.8482895,-0.7278237,0.25588176,-0.54713506,1.1288048,-0.80082667,-0.99923706,-0.8364173,-0.8629239,-0.6211497,1.325806,1.0582751,-0.38005733,-0.1470683,-0.58923584,-0.50536126,-0.3483753,-1.1905966,0.7521059,0.046965975,-0.75885093,1.2706784,0.22283775,0.27381223,0.11072992,0.17162032,0.3196692,0.20546004,0.0055432506,0.1995066,0.20725496,0.2398515,0.081546105,0.00882954,0.32549882,0.012744663,0.18970314,0.009755569,0.13031477,0.062208746,0.24038102,0.015916698,0.030715171,0.039138097,0.09319751,0.108093455,0.034412824,0.09621097,0.07754852,-0.024847854,0.13840666,0.037470773,0.27579045,0.18451312
AA05-co-100,0.56481814,0.93167764,0.32959157,0.5207113,0.4539982,0.68018687,0.5388042,0.48474246,0.8224037,0.56541336,0.600135,1.1407781,1.0463566,0.4208292,0.4849814,0.60075355,0.6837265,0.77362555,0.19289227,0.9940458,0.6704654,0.53985184,1.123965,0.6356831,1.2820418,0.6986465,0.30803868,0.86726296,0.6178475,0.61777765,0.79796517,0.4243689,-0.44606316,0.8179915,0.054572955,0.5098322,-0.34792152,-0.5799293,-0.44914037,-0.36145547,0.59512097,0.40883055,-0.45860222,0.95783526,0.63302785,0.31279132,-0.15283795,0.4416234,0.4175188,0.6633173,0.02198529,0.53921753,0.105619386,-0.08402345,0.23274252,0.58690256,1.2145445,0.27091235,0.067168795,0.6057308,-0.52123475,0.058118902,0.66187453,-0.13442893,1.2380673,0.5724984,0.8732489,0.5377322,0.98302764,1.1793629,1.4566051,1.6039444,1.49208,0.9176491,1.0691844,0.6919657,0.5487606,0.3501983,1.3135223,0.52000403,0.7435358,1.0552335,0.6770643,0.66282904,1.4173558,0.88244635,0.30577493,0.6855935,0.2782965,0.44647095,0.28432727,0.9766705,0.809001,0.1676695,0.9480242,0.9498351,1.2371604,-0.572142,0.87251127,-0.53746814,0.9824341,1.1790893,1.4557854,1.6033221,1.4912714,-0.9172405,1.0689361,-0.6912393,-0.4280277,-0.3500091,1.3125472,-0.51985246,-0.74343973,-1.0549244,-0.67699206,-0.6621813,1.4165092,0.8818292,0.23992532,-0.684946,-0.2400799,-0.4462596,-0.28293845,-0.97642064,0.80872977,-0.16606046,-0.9476939,0.94892365,0.10013846,0.1005749,0.014696429,0.11047888,0.1856718,0.06518953,0.15735973,0.10053338,0.07935598,0.17805977,0.18138176,0.16517572,0.21333641,0.011876572,0.0657998,0.02264143,0.051559493,0.062704615,0.08458884,0.17622173,0.13189778,0.008679836,0.083334506,0.24554504,0.16887271,-0.006995697,0.09443798,0.10846891,0.024057234,0.21015349,0.13393714,0.10392183
AA05-nc-1000,0.6025542,0.93769944,0.27521998,0.49598202,0.45047712,0.6764192,0.5482385,0.50396645,0.804973,0.5301005,0.6229024,1.1043699,0.97837114,0.452479,0.5181615,0.62597054,0.62310576,0.7453754,0.19125225,0.8770869,0.583882,0.53833145,0.9689989,0.63077843,1.2736948,0.6125081,0.2497049,0.7820061,0.6200424,0.57940775,0.78371763,0.42807618,-0.49553642,0.84558946,0.06259751,0.48526463,-0.36605102,-0.5773775,-0.46231243,-0.401681,0.6475876,0.40128723,-0.47480723,0.9572379,0.6327626,0.3534124,-0.23226345,0.47588965,0.42219374,0.6644561,0.03916414,0.47310072,0.06855933,-0.15207551,0.1433546,0.5809541,1.2307245,0.238906,0.06737137,0.5743282,-0.5186235,0.07586343,0.6738439,-0.17286521,1.2385869,0.5828718,0.87820417,0.5654796,0.9821476,1.139713,1.4213464,1.5740118,1.4823655,0.9054452,1.0399612,0.6941479,0.5106881,0.35739887,1.3041307,0.5337527,0.7326268,1.0576981,0.7023124,0.65636414,1.4110757,0.88276064,0.2629383,0.6787201,0.2879948,0.43134275,0.26964453,0.9910917,0.81820244,0.16021505,0.9483451,0.93499774,1.2377691,-0.5825465,0.8775358,-0.56523585,0.9816063,1.1394912,1.4205987,1.5734581,1.4816324,-0.905052,1.0397418,-0.69347864,-0.37026396,-0.35722876,1.3032484,-0.5336146,-0.73254377,-1.0573869,-0.7022491,-0.65572107,1.4103078,0.8822032,0.152967,-0.6781342,-0.263342,-0.4311497,-0.2691955,-0.9908701,0.81795025,-0.15997565,-0.94803846,0.9341716,0.093176655,0.09026591,0.008118679,0.10892375,0.18155453,0.056531478,0.16207343,0.094954975,0.07148232,0.177053,0.18468317,0.1699719,0.21015799,0.0118717905,0.058144417,0.023020413,0.046752464,0.062590934,0.07468381,0.18121213,0.13516398,0.0066784145,0.08311843,0.2501857,0.17307071,-0.013584466,0.09470035,0.11248555,0.017173812,0.21550892,0.126219,0.101519324
AA01-nc-100,0.53822255,0.98690987,0.78360116,0.4438995,0.6696957,0.60572785,0.54042935,0.63305086,1.0541272,0.5880027,0.55690366,1.2102152,1.3919345,0.64426446,0.7707369,0.67016786,0.8317705,0.71330696,0.32926863,1.0880175,0.9289052,0.7057637,1.1918603,0.76061654,1.1552427,0.68616277,0.45744324,0.8686736,0.6103518,0.6565961,0.91055715,0.5571795,-0.43304652,0.7857834,0.29658064,0.42793277,-0.3297431,-0.47572187,-0.4266167,-0.40420994,0.66425604,0.44412833,-0.3678019,0.9158001,1.0059232,0.5348379,0.02945309,0.51550955,0.43402347,0.5514927,0.15761642,0.6954303,0.032902732,-0.20227545,0.28719142,0.69633067,0.95605254,0.2876379,0.18891186,0.5922254,-0.4938324,0.25298604,0.731421,-0.12210229,1.2980642,0.6286218,0.81238824,0.71320426,0.94789714,1.2073865,1.3864391,1.8731543,1.4745494,0.8762656,1.193574,0.676363,0.6643086,0.33604634,1.2648238,0.5937767,0.6076145,1.0902181,0.6683972,0.6512415,1.4310913,0.9300708,0.27877834,0.7321376,0.26064667,0.37316078,0.29038554,0.88164175,0.8169148,0.17964691,0.955783,0.7745137,1.297261,-0.628317,0.8117461,-0.71296555,0.9473795,1.2071886,1.3857167,1.8726033,1.4738356,-0.87581515,1.1933732,-0.6756933,0.015744476,-0.33514422,1.2639661,-0.59362197,-0.6075345,-1.0898964,-0.6616024,-0.6506219,1.4303503,0.92952347,0.071277626,-0.7315211,-0.14894533,-0.37296364,-0.2894698,-0.88140047,0.81665194,-0.17943145,-0.9554741,0.77374566,0.07081382,0.06440132,-0.0067764395,0.10031822,0.14402841,0.03481705,0.2123007,0.07690865,0.05039954,0.17401564,0.21847363,0.22084004,0.1761847,0.011881339,0.038731366,0.027613565,0.03271941,0.061610326,0.05007613,0.23282039,0.1688137,0.0016398535,0.08308594,0.29697773,0.21688135,-0.029330272,0.09444863,0.15539251,-4.179731e-05,0.27095816,0.09805479,0.0794779
AA01-co-100,0.5687098,1.2672662,1.3773211,0.5591103,1.0911216,0.7681434,0.667873,0.8120884,1.5202142,0.6546505,0.69202596,1.5637354,1.6403055,0.5389646,1.213428,0.6461691,1.3200614,0.97371995,0.38464165,1.3788643,1.622897,0.8170639,1.7329302,0.72852564,1.6447464,1.0573128,0.7320234,1.1746664,0.66842085,0.71634847,1.0396912,0.8364647,-0.4179386,0.8262763,0.24453871,0.5255213,-0.25286487,-0.5422947,-0.46306664,-0.33367026,0.6783825,0.39148274,-0.43569297,0.9516659,0.83775693,0.38572937,-0.0009049388,0.4617091,0.46698996,0.61836666,0.11426269,0.6333988,0.20425996,-0.0749811,0.36489257,0.6559272,1.1654595,0.33567944,0.14845012,0.64131963,-0.52326715,0.08189065,0.69323516,-0.042094402,1.2464191,0.5852595,0.8553305,0.57147217,0.95679474,1.2121547,1.432007,1.7083341,1.4790355,0.91353935,1.1204123,0.7179769,0.6091374,0.3279274,1.288455,0.527061,0.71361244,1.0650475,0.6503835,0.6660808,1.4151175,0.9031611,0.30463284,0.6732216,0.27901897,0.40826502,0.30403876,0.93370956,0.8036654,0.18293652,0.9432509,0.9442231,1.2456594,-0.5794176,0.854715,-0.571228,0.9562951,1.2119423,1.4313111,1.7078178,1.4783547,-0.9131574,1.1202081,-0.7173096,-0.29625952,-0.31842238,1.2876389,-0.5269293,-0.7135282,-1.0647715,-0.6185293,-0.6654958,1.4144084,0.90264183,0.20742846,-0.67269987,-0.2181583,-0.40805575,-0.29461747,-0.93345916,0.8033976,-0.17827836,-0.9429482,0.94345975,0.0970006,0.09775103,0.013367045,0.11065789,0.18088013,0.0628879,0.16462764,0.098066986,0.076667316,0.17990862,0.18631913,0.17237058,0.20908272,0.011909093,0.063672006,0.02337431,0.04956278,0.06246116,0.08177215,0.18330349,0.1366825,0.00808069,0.08364374,0.25236672,0.17504853,-0.008198316,0.093779914,0.114491224,0.022632182,0.21778674,0.12992208,0.101197995
AA07-nc-400,0.539658,0.900259,0.48403206,0.47792798,0.49217832,0.6045787,0.50266546,0.5837657,0.8813523,0.57960707,0.52670056,1.0673482,1.2986844,0.60769296,0.63524526,0.6503069,0.68117964,0.6846534,0.33688706,1.0130252,0.7757528,0.70687395,1.3047849,0.7318568,1.1736736,0.7179506,0.36750185,0.80008197,0.59334254,0.6592492,0.84007484,0.45754278,-0.4353466,0.79446656,0.2095194,0.46449903,-0.3194145,-0.4724744,-0.4141779,-0.41853428,0.64466214,0.43888324,-0.37158835,0.8790632,0.8847294,0.5059868,-0.05202626,0.5057927,0.40683797,0.5871885,0.13313502,0.582888,0.040534925,-0.14929289,0.26571047,0.6800861,1.0827105,0.29034832,0.1677561,0.57090735,-0.48472637,0.27122647,0.7174813,-0.17764366,1.2737005,0.60028315,0.8296083,0.6760924,0.94950503,1.1499707,1.3977575,1.7524642,1.4739656,0.87254655,1.1729075,0.66649175,0.6719156,0.3501489,1.2758573,0.5777715,0.6376598,1.0742652,0.6926037,0.6628058,1.416558,0.9050345,0.28316915,0.71437484,0.22903648,0.3913351,0.28453884,0.9284382,0.8423029,0.17988484,0.96359414,0.8256171,1.2728418,-0.599934,0.8289155,-0.67584395,0.9489332,1.1497463,1.3969603,1.7518953,1.4731945,-0.8721183,1.172702,-0.66576517,-0.08888193,-0.34844518,1.2749362,-0.57761645,-0.63757956,-1.0739349,-0.6804635,-0.66219103,1.4157579,0.90443933,0.12676975,-0.71235657,-0.13830273,-0.3911423,-0.28358254,-0.92820054,0.84200937,-0.17586426,-0.9632437,0.82477087,0.073288634,0.06629458,-0.0054482375,0.1029484,0.15248594,0.037008245,0.19856444,0.078678586,0.052542754,0.17488854,0.20914888,0.20692682,0.185285,0.011882939,0.040701576,0.026307754,0.034421004,0.06183221,0.05223288,0.21884269,0.1595941,0.0021290267,0.08314488,0.28410527,0.2048781,-0.027422052,0.094436206,0.14381358,0.0018807835,0.25581145,0.101218045,0.084367335
AA05-nc-1,0.51221496,1.0192993,0.22897813,1.0531368,0.57169193,0.6106799,0.50365436,0.13230234,0.95772636,0.15170373,0.8522843,1.2201655,0.90870357,0.14400798,0.34941655,0.5370678,0.12386146,0.17644659,0.21280167,1.1175406,0.6588501,0.50673294,0.759584,1.0929376,1.1139544,0.8273221,0.121064246,0.7155279,0.7570062,0.6306056,0.77545077,0.41397527,-0.49254256,0.92540026,-0.19448167,1.04454,-0.49536705,-0.5709086,-0.44407848,-0.075757824,0.8293015,-0.084801294,-0.7610514,1.0875361,0.8339701,0.10814306,0.24263844,0.4714679,0.0057190135,0.14377376,0.15934391,1.0040174,0.5794215,0.47272176,0.68582183,1.0363884,1.0528879,0.77773434,-0.06025277,0.5881506,-0.65571743,-0.60579705,0.6792989,-0.3484644,1.1380249,0.6054133,0.95943487,0.26976454,0.8089334,1.6815736,1.1858455,1.7856027,1.3786094,0.9535773,0.93899155,0.74991584,0.04332143,0.43195826,1.1725619,0.66217554,0.99517536,0.94992375,0.79817504,0.74923307,1.3263903,1.021299,0.09282516,0.23468554,0.560941,0.5833802,0.3883819,1.0519505,0.7022282,0.009698801,0.75563645,1.2703778,1.1371384,-0.6051079,0.9587283,-0.26953164,0.8084044,1.681288,1.1851015,1.7849554,1.3778421,-0.95307744,0.9386422,-0.74911547,-0.042946756,-0.43176132,1.1716261,-0.6620093,-0.99505234,-0.94947094,-0.7981127,-0.7484078,1.3255972,1.0207056,-0.09216428,-0.23402372,-0.56065017,-0.58327353,-0.38786513,-1.051684,0.70191115,-0.009364739,-0.7552849,1.2694974,0.21568868,0.2613494,0.10519199,0.16686574,0.31182545,0.19589715,0.012313182,0.19392814,0.19953331,0.2325533,0.08557807,0.01614128,0.31872028,0.012621347,0.18143958,0.010188073,0.12616245,0.06272612,0.23054443,0.023895562,0.035189398,0.037648827,0.091988415,0.11380857,0.04082364,0.08943577,0.079717025,-0.018045546,0.13063665,0.045615587,0.26739103,0.17940317
AA05-co-1,0.5410812,0.99312514,0.2390196,1.0627005,0.5633404,0.5768169,0.42767635,0.10343194,0.89682794,0.106787145,0.7507782,1.1140654,0.84434545,0.16073278,0.16830307,0.5272966,0.17166463,0.16423813,0.2287254,0.9695808,0.55608183,0.46359366,0.6578509,1.0872738,0.9895264,0.75113904,0.071808934,0.5674118,0.6327968,0.55657357,0.70651907,0.4204721,-0.5391257,0.93293566,-0.23274092,1.0617988,-0.5455694,-0.55276173,-0.3889556,-0.089576885,0.82100666,-0.07057811,-0.6896975,1.0311558,0.822891,0.15551978,0.12378274,0.50475264,-0.10582428,0.15484953,0.2111014,0.93737715,0.5000409,0.43520087,0.5977596,1.0644832,0.97711366,0.7045323,-0.057542823,0.4836169,-0.5675574,-0.5409524,0.646314,-0.4042272,1.1382283,0.618173,0.96915793,0.25640002,0.8056871,1.6563512,1.1325096,1.7731868,1.3782903,0.91439927,0.8741687,0.7127377,0.022311449,0.4775826,1.172102,0.7001164,0.991032,0.9077593,0.8708328,0.70922637,1.3234491,1.0166857,0.20307432,0.22133917,0.57183075,0.550855,0.3499788,1.1011975,0.73051596,0.024873301,0.7604652,1.2552981,1.1376183,-0.6179725,0.9686659,-0.25619784,0.805336,1.6561874,1.132035,1.7727463,1.3777661,-0.9140796,0.8739428,-0.7122471,0.022061182,-0.47747824,1.1714478,-0.6999938,-0.9909464,-0.9074771,-0.8707921,-0.70858437,1.3229035,1.0162905,-0.20262936,-0.22086608,-0.5716484,-0.5507619,-0.34958062,-1.1010519,0.7303361,0.024646357,-0.7602543,1.2546904,0.21086788,0.25441986,0.10005662,0.16411588,0.3069648,0.18989813,0.018123811,0.18996729,0.19409293,0.23043059,0.08954035,0.022111356,0.3149256,0.012596866,0.17619404,0.0106609855,0.12280369,0.0626097,0.22361639,0.030009989,0.03913338,0.036131077,0.09163484,0.11930724,0.0459395,0.084201925,0.08029918,-0.013209332,0.12540747,0.052255392,0.2618643,0.17660308
AA10-co-10,0.5223568,0.9707348,0.2570741,0.57948506,0.5265643,0.68861026,0.57518756,0.42134467,0.8490206,0.5405216,0.7229811,1.2733635,0.9404472,0.3032396,0.2781066,0.52494514,0.6787133,0.7536717,0.19997537,0.9495923,0.46021357,0.43521982,0.6940825,0.74412704,1.16941,0.49078465,0.16987292,0.8755328,0.68591255,0.5979354,0.88347375,0.4517553,-0.44948968,0.8551817,-0.04823206,0.56920993,-0.43405047,-0.57973063,-0.48710364,-0.33245283,0.68083817,0.38118204,-0.5744136,1.1112137,0.8035065,0.21329096,-0.03675748,0.4021752,0.44708842,0.59622085,0.0051986007,0.748108,0.18740197,0.094945565,0.3530001,0.6985239,1.1052438,0.30866605,-0.027659927,0.6964783,-0.5894853,-0.24698615,0.7298404,-0.10203459,1.2124623,0.57003474,0.89107263,0.49523744,0.92895496,1.397404,1.3886786,1.7871443,1.466383,1.0159571,1.0171845,0.7493916,0.5449681,0.33071575,1.2888978,0.5229394,0.85031664,1.0600504,0.6634406,0.7020935,1.3986332,0.9250002,0.35074165,0.5566672,0.3583724,0.48706818,0.35388634,0.9321364,0.7744871,0.18022689,0.890697,1.0413458,1.2115444,-0.5696888,0.8903219,-0.49497995,0.92836666,1.3971419,1.3878742,1.7864933,1.4655621,-1.0154979,1.0168804,-0.748854,-0.371041,-0.33052158,1.2879021,-0.5227627,-0.8502053,-1.0597893,-0.6633937,-0.701373,1.3977778,0.92437726,0.210579,-0.5559349,-0.3557847,-0.48685044,-0.3533291,-0.93193066,0.77431405,-0.17997074,-0.8904556,1.0404276,0.14215133,0.15848142,0.048398573,0.12910566,0.22958224,0.112371504,0.106661126,0.13445127,0.123306036,0.19533485,0.14769144,0.113125585,0.24979472,0.012092384,0.10772314,0.018292869,0.07893191,0.062932625,0.13815826,0.123012565,0.09799062,0.019476485,0.08603387,0.19911134,0.12411966,0.027862791,0.089930475,0.06439681,0.062311165,0.1526628,0.18169323,0.13008732
AA03-nc-100,0.6016488,0.9473641,0.29138568,0.47479045,0.45644104,0.6823965,0.55955625,0.506337,0.8176589,0.5525254,0.63329774,1.1127126,1.0122049,0.46015015,0.47257236,0.6362386,0.65499586,0.76589465,0.19806145,0.8827894,0.55470586,0.50979686,0.92938066,0.6443694,1.2507114,0.5849245,0.24691352,0.7828966,0.645231,0.56755674,0.8061708,0.41475,-0.48967746,0.86576915,0.09631849,0.463451,-0.3666449,-0.5826622,-0.471199,-0.4072339,0.67814285,0.4447044,-0.48619843,0.99263597,0.6849321,0.354704,-0.19043352,0.47562426,0.47886565,0.6998394,0.05349331,0.5200743,0.075731486,-0.14241141,0.17815946,0.5839923,1.2121223,0.23847575,0.08503478,0.614798,-0.5392608,0.08191743,0.7135733,-0.12291475,1.2397349,0.58927226,0.8699755,0.59329146,0.9802222,1.1641059,1.4146811,1.6406425,1.4834093,0.9066088,1.0366813,0.7074347,0.54622054,0.35029307,1.2995316,0.53641534,0.7204527,1.0660911,0.69501466,0.667715,1.4134362,0.8870248,0.27928245,0.68130845,0.30101526,0.42703307,0.27793455,0.97254974,0.8191166,0.1570739,0.94706863,0.9150387,1.238919,-0.5889383,0.869306,-0.59306985,0.9796804,1.1638794,1.4139354,1.6400856,1.4826754,-0.9062062,1.0364629,-0.7068127,-0.32445607,-0.3501227,1.2986487,-0.5362787,-0.7203659,-1.0657936,-0.6949579,-0.66713035,1.4126668,0.8864677,0.1327139,-0.6807031,-0.2620205,-0.42684445,-0.27749947,-0.9723303,0.8188735,-0.15474784,-0.9467787,0.91421664,0.091160946,0.08851304,0.0067784004,0.10767785,0.17668831,0.05486662,0.16796564,0.09307907,0.0698316,0.17631392,0.1886427,0.17597711,0.20608379,0.011865948,0.056618858,0.023535939,0.04561863,0.06250061,0.072830394,0.18735632,0.13913582,0.0062995018,0.08302273,0.25570372,0.17824788,-0.0151795335,0.09482697,0.11756586,0.015665857,0.22209316,0.12276853,0.098640785
AA05-nc-100,0.6054912,0.9375983,0.2512082,0.50679827,0.45037395,0.6969184,0.55705225,0.50051844,0.79018193,0.5424057,0.6460846,1.1034584,0.97166896,0.42417783,0.51095444,0.625459,0.6273519,0.7671345,0.16107342,0.88206124,0.55274343,0.52252805,0.9290649,0.61639684,1.2870075,0.5957239,0.24035636,0.7861812,0.6356694,0.6005296,0.78110313,0.4182937,-0.49179265,0.8631176,0.043277353,0.49448228,-0.3689484,-0.5897745,-0.47684863,-0.39789635,0.6633081,0.41998547,-0.49506706,0.9814545,0.6193163,0.32230407,-0.22317806,0.46201572,0.46741027,0.6970359,0.032456547,0.47962472,0.10032709,-0.11820617,0.16972801,0.56772405,1.2501012,0.23889728,0.054535877,0.60021406,-0.53938556,0.034116123,0.6897379,-0.12636986,1.2274635,0.57304883,0.88210696,0.55221987,0.98169273,1.148444,1.4240854,1.5721304,1.482756,0.91451913,1.0200309,0.71268874,0.55332434,0.34700194,1.3058583,0.52215976,0.74981934,1.0580187,0.68733984,0.6606704,1.4065833,0.8799116,0.27736557,0.6663567,0.30507982,0.43914917,0.27142373,0.99281394,0.81573516,0.16255432,0.94494987,0.95888925,1.2266308,-0.57270795,0.88142425,-0.5519876,0.9811342,1.1481956,1.4233117,1.5715599,1.4820035,-0.91413057,1.0197822,-0.7120396,-0.41684723,-0.34683067,1.3049612,-0.5220225,-0.74973345,-1.0577332,-0.6872728,-0.6599799,1.4057994,0.87934005,0.17550197,-0.66575575,-0.287293,-0.43893468,-0.2709355,-0.9925805,0.8154921,-0.16236678,-0.9446333,0.9580444,0.098340236,0.0961628,0.011146587,0.110722415,0.18736571,0.061374713,0.15493885,0.09916117,0.07643667,0.17819777,0.17989042,0.16272093,0.2150552,0.011878853,0.06262898,0.022380069,0.049950954,0.06271595,0.08036532,0.17383738,0.13038473,0.0077210013,0.083236784,0.24356326,0.16681814,-0.01061234,0.09453713,0.10638716,0.020589659,0.20756686,0.13224995,0.104958266
