file,0,1,2,3,4,5,6,7,8,9,10,11,12,13,14,15,16,17,18,19,20,21,22,23,24,25,26,27,28,29,30,31,32,33,34,35,36,37,38,39,40,41,42,43,44,45,46,47,48,49,50,51,52,53,54,55,56,57,58,59,60,61,62,63,64,65,66,67,68,69,70,71,72,73,74,75,76,77,78,79,80,81,82,83,84,85,86,87,88,89,90,91,92,93,94,95,96,97,98,99,100,101,102,103,104,105,106,107,108,109,110,111,112,113,114,115,116,117,118,119,120,121,122,123,124,125,126,127,128,129,130,131,132,133,134,135,136,137,138,139,140,141,142,143,144,145,146,147,148,149,150,151,152,153,154,155,156,157,158,159
AA01-co-1,1.7799069,6.275748,1.9103587,0.70582676,0.98301846,0.9930567,0.48748636,0.27538776,0.4747399,0.74878967,3.685633,2.7675867,0.717034,1.0609171,3.5842943,1.3221202,2.317803,1.6453457,0.86619645,1.5200641,0.31143096,1.085618,1.114662,1.4020488,2.0299015,1.8006698,0.83988464,0.9518579,0.6446503,0.6810648,1.3053062,3.2253065,1.0258629,6.0326014,1.6302497,-0.36546528,0.41703027,-0.65865576,-0.32652694,0.141779,-0.45042866,0.3868072,3.3687735,2.6386023,-0.32600713,-0.90755045,3.0292053,1.212892,2.0566604,-1.3590496,-0.68311995,-1.2366459,0.26335305,0.5186347,-0.81544685,-1.3662813,1.6852926,-1.727082,0.7745263,0.25071403,-0.31532705,-0.09287602,-1.2308677,2.9778423,0.14539236,1.3032625,0.62261236,0.19781004,0.87182736,0.8197311,0.5409628,0.27308142,0.971806,0.31839705,0.6167773,0.25752082,0.831376,0.11198941,0.58275366,0.83756,0.1219852,0.23420423,0.29707694,0.068413675,0.549599,0.9183961,0.39943147,0.12988117,1.0185504,0.6593769,0.39777818,0.9398735,0.66682565,0.44193506,0.3708386,1.2006786,-0.04152007,1.0853218,0.23633914,-0.11000555,0.6186616,-0.6053085,0.5048829,0.1935292,-0.6565004,0.28661364,0.55708504,0.23916952,-0.7625794,-0.056834437,-0.4767854,0.75373596,-0.016591728,0.094839394,0.22450955,0.025901293,0.41102415,-0.8240046,0.31120425,0.08004431,0.8375497,-0.62072474,-0.2656904,0.909877,-0.44677544,-0.29943153,-0.35111022,0.9446053,1.0131137,0.50454086,0.9164245,0.8053881,-0.75309867,1.5922152,0.64688814,-0.24717247,1.8336631,0.35531247,0.31242463,-0.57035893,-0.31379122,1.3511233,-0.25074333,-0.37877905,0.6331173,0.47898537,-0.9137724,1.9386766,0.55698013,1.3832242,-0.8617956,-0.490088,-0.05253665,-0.26376262,0.30004963,0.9560033,1.3824687,0.7959446,-0.3145629,1.1160563
AA01-co-10-avg,1.4969985,1.8475136,0.806544,1.6827037,1.5178183,1.4209334,1.077633,0.8077833,1.1333976,1.5518728,1.5550537,1.6685435,1.0408785,1.4457356,1.1087949,1.1434526,0.84368545,1.6456423,0.834339,0.63393253,0.5063092,0.9279356,1.734087,0.8518081,1.0580188,1.5937825,1.878684,0.9282836,1.5670253,1.1354506,1.1218398,0.82607573,1.0950912,1.7292637,0.6524614,-0.9812077,1.344814,0.91680586,-0.06196625,0.48590875,0.9672309,1.3223857,0.8765828,0.66122115,0.44309264,1.0643191,0.7441532,0.9449668,0.16785483,0.7104019,-0.40116733,0.12866844,0.21658802,-0.07918111,0.43344754,0.20673099,0.880733,0.8813244,1.3301198,0.6856633,-1.382658,-0.6205893,0.7943919,-0.24976186,0.3538927,1.1934932,1.0639927,0.598715,1.0283277,0.86395586,0.7236678,0.50926125,1.1721201,0.54966563,0.7003876,0.32876748,1.3868542,0.8922826,0.57060635,1.7333263,0.7732047,0.32419077,0.41553766,0.73595697,1.5111997,1.7735636,0.60457504,1.1013514,1.1001674,0.59279907,1.4351414,1.3484691,0.6005104,0.47299233,1.5053527,1.0872529,0.17292614,0.97357243,0.67847735,0.19221587,0.82663137,0.5417182,0.38951772,0.22121803,0.90836364,0.12812315,0.24684513,0.1754249,0.9714182,0.37083283,0.01934402,1.4175599,-0.18266647,0.14589861,0.12818906,0.27222222,1.1792787,1.3469226,0.08120376,0.77891856,0.92358285,0.44315052,1.0590575,0.57018864,-0.47711402,0.13653158,1.1617786,0.70446676,0.10183637,-0.20204274,0.23628835,0.27895108,0.040632058,0.40284473,-0.13107239,0.42160398,0.22293858,0.403552,-0.06756337,0.6418754,0.61257887,0.20548809,-0.07719292,-0.3508717,0.3944778,0.0025372803,0.3595508,0.33891773,0.03185781,0.25173825,0.31256917,0.033798784,0.49276042,0.38030255,-0.11096033,0.31466946,0.36916155,0.11715968,-0.37342563,0.1474297
AA01-co-100-avg,1.6666929,2.2948577,0.62676984,1.3146622,1.525314,1.1938157,0.9403009,0.743665,0.8855097,1.0496985,2.7658503,2.537856,0.6506912,1.387654,1.6130141,1.2617624,0.75697404,1.458865,0.94450575,0.96481687,1.1214453,1.3673744,1.2350476,0.84121376,1.0241864,1.0495255,1.7191801,1.0560659,1.2299564,1.216998,1.2088999,0.8809563,1.3908675,1.9439743,0.26657754,-0.66451144,1.2901425,-0.37491783,-0.13061324,0.4852998,0.7494571,0.65723795,2.0402994,1.3155944,-0.28102368,0.9931507,1.0800215,0.9703875,0.21577929,0.23914546,-0.7197257,0.4100159,0.86481696,0.66414094,-0.10452854,-0.3556502,0.76522905,-0.38734037,1.3020084,0.8144106,-0.76047736,0.02781628,0.25148046,0.082917325,0.4293432,0.8140796,0.81486285,0.53791076,0.86171794,0.42505714,0.38482654,0.7202452,0.5562232,0.49688283,0.8140627,0.558829,0.7224748,0.8071603,0.5299734,1.2742498,0.8633369,0.35804453,0.40431535,0.4674759,1.2389436,0.7937805,0.7700605,0.58645165,0.79821986,0.40727708,0.72110385,0.6145413,0.46657076,0.7677862,0.5367131,0.9717004,0.37795866,0.6574598,0.0701958,0.10309854,0.7473907,-0.09931427,0.17244153,0.43055075,0.26009357,0.13336368,0.42994952,0.42882636,0.3254901,0.28268945,-0.004809438,1.0550307,-0.27093503,0.09835622,0.119430095,0.3760394,1.0660456,0.34072563,0.4677922,0.22338103,0.7106523,0.07512258,0.53610647,0.308457,-0.24344948,0.49388325,0.34568164,0.68352544,0.057124473,-0.18414375,0.16554524,0.31507805,0.106141336,0.46205777,-0.202524,0.3892192,0.44135103,0.49710765,-0.07454943,0.38869485,0.77639246,0.24633838,-0.03105167,-0.375094,0.22995889,0.1909029,0.21290141,0.43256325,-0.074505374,0.24551672,0.06438014,-0.0123683335,0.5347692,0.33076873,-0.1564147,0.17297168,0.33445185,0.05878048,-0.24547412,0.23334771
AA01-co-400-avg,1.6887426,2.3872547,0.61976534,1.3437413,1.5357213,1.3854928,0.94026953,0.7520662,0.88329667,1.114881,2.858342,2.4368076,0.7621945,1.4125165,1.67265,1.31378,0.8309339,1.5835142,0.9552811,0.94709647,1.0209199,1.2678374,1.331149,0.93612343,1.0437073,1.2546735,1.6792825,1.0504078,1.1949936,1.1485589,1.1804391,1.0161101,1.3512638,2.0308697,0.29960206,-0.68018365,1.2858096,-0.25646174,-0.10141887,0.47647512,0.7252182,0.7307881,2.10728,1.3500535,-0.18095094,0.93669534,1.111749,0.9919804,0.29323635,0.26718906,-0.7014422,0.35669935,0.7868303,0.5581638,-0.08515813,-0.3367718,0.79357535,-0.31665477,1.2436492,0.77600026,-0.77478594,-0.076085545,0.22538185,0.22559969,0.41484955,0.90654325,0.87809527,0.5238272,0.91283303,0.48690024,0.53671044,0.69002223,0.6709834,0.5496646,0.90337926,0.5640331,0.8641321,0.8427594,0.58722496,1.3593897,0.86053336,0.35376847,0.42975944,0.4953267,1.3213515,0.9759263,0.768069,0.7203393,0.8484745,0.42405784,0.7948576,0.7923555,0.48131034,0.72343177,0.6681672,1.0704565,0.34635293,0.74058896,0.13540107,0.083385445,0.7845214,0.01637061,0.2736321,0.39610645,0.2766662,0.17034455,0.48249516,0.43194324,0.34550855,0.32417047,-0.0139202485,1.1012954,-0.23461105,0.09708735,0.11537786,0.3510194,1.0784907,0.3918386,0.4019408,0.29732192,0.75964385,0.082293175,0.54317105,0.43551064,-0.2764877,0.42288074,0.39566693,0.7290693,0.105934285,-0.17055091,0.21582872,0.34429142,0.059821047,0.4966984,-0.14194094,0.35348362,0.50591224,0.48547348,-0.041601576,0.3616861,0.69217026,0.2840543,-0.046540838,-0.37586224,0.26591754,0.18206733,0.20857517,0.4848026,-0.045965955,0.2998785,0.054951526,-0.0038880208,0.5041364,0.31000176,-0.1366442,0.25500402,0.40107837,0.11793336,-0.27420282,0.26830685
AA01-nc-1,1.2945762,6.0309296,0.9936337,0.38422164,0.46796876,1.9314703,0.43795812,0.29413497,0.19015068,0.61612165,5.581298,4.5904403,0.61880696,0.7439548,2.4558585,1.9240439,1.730806,1.3869767,0.6819923,0.2975822,0.6876786,1.6271636,1.3371143,1.4809809,1.0656004,2.06005,1.3911728,0.4265772,0.5468818,0.20461404,1.3423692,2.3373644,0.8947426,5.028677,-0.039343648,-0.023433546,0.10201041,-1.15273,-0.112365015,-0.19409536,-0.05396638,0.32228723,5.3833575,3.608884,-0.35970646,-0.56258893,1.5758932,1.408655,1.5908151,-1.1322786,-0.6154419,-0.11487689,0.50629634,1.0173162,-0.80427253,-1.328779,0.93225926,-1.7341434,1.0805424,0.10201542,0.2234947,0.08880056,-0.99134815,1.8672109,0.14414048,0.61515725,0.9945056,0.19977373,0.67889994,0.06965726,0.65302896,0.023660231,0.5809792,0.3553247,1.1166209,0.9714747,0.5850487,0.30364877,0.44422975,1.3033407,0.5399437,0.27210748,0.109293126,0.1565164,0.5637063,0.83576405,0.74176186,0.11703825,0.5503494,0.5402136,0.13963269,1.1852106,0.16675097,0.5788077,0.43123645,1.1108837,0.13617331,0.6084611,-0.94440967,0.17546178,0.66268617,0.023656566,0.6459842,0.0107352575,-0.56987196,0.34190282,1.0670856,0.9452554,-0.53198135,0.2823002,-0.43306932,1.2748479,-0.5290668,-0.23175064,0.057964444,0.12723473,0.54322594,-0.7920303,0.73752713,0.08944707,0.53627753,-0.52611005,0.09711233,1.1225045,-0.13358286,0.54662675,-0.4223989,1.0917581,0.7873355,0.18706828,0.70448124,0.7580154,-0.65819705,1.2898731,0.37397587,-0.09146429,1.6945066,0.34113666,0.1114483,-0.37974107,0.061837792,1.1703832,-0.15863977,-0.4684,0.48091984,0.62370324,-0.56203127,1.6908147,0.062221795,1.0225856,-0.80733097,-0.5372572,0.13204865,-0.2768196,-0.15779209,0.8966756,0.9154191,0.35681367,-0.3247689,1.2408288
AA01-nc-10-avg,1.2679183,1.9228802,0.7463599,1.3569245,1.1646225,0.64550614,0.5192576,0.8878927,0.71763575,1.5477281,2.0062242,1.6480125,0.600362,1.0333327,1.5891912,1.7332388,1.053035,1.5232774,1.3017156,0.803058,1.0154912,1.3032367,1.2063248,0.9256762,1.402035,1.0817399,1.614476,0.6796772,1.2795919,1.2147857,1.2305341,0.8925317,0.56048167,1.7379681,0.54448503,-0.9402127,1.0694401,-0.22777943,-0.24529,0.037177376,0.6969852,1.3020546,0.6688669,0.33297685,-0.35110378,0.39934787,1.301985,1.6080246,0.77799916,-0.42754468,-1.158426,0.1019191,0.8482353,-0.059335124,-0.6660229,-0.72246003,1.1873142,-0.6747094,1.3784826,0.41108662,-1.0158503,-0.21722284,0.7506611,0.36214888,0.62849915,1.2408881,1.4824393,0.754462,1.3225467,1.0271859,0.57503885,0.76587325,0.60118616,1.174358,0.82629836,0.45721906,1.0448697,0.87729853,0.7208694,1.1437209,1.4271498,0.6470387,0.49082065,0.70054674,1.0624244,0.88349533,0.87178314,0.79179376,1.3263086,0.3512277,0.7561779,0.5660635,0.5480565,0.6445593,0.5890246,0.79849416,0.6063029,1.0083792,0.84875524,-0.3413909,1.1045182,-0.097174026,0.29360715,0.038787223,-0.083976194,0.72743773,-0.04035128,0.17254081,-0.027793448,-0.30850038,-0.3637298,0.47166163,0.7489551,0.42648664,-0.039109837,0.6716212,0.5032995,-0.23995836,-0.113692835,-0.11361891,1.1492006,0.07164444,0.095734335,0.1810501,-0.32686546,0.20768945,0.39344642,0.15863112,0.4264833,0.35685998,0.5759915,0.5882055,-0.12924805,0.8813407,0.40438542,0.19694138,0.9828288,0.7928555,0.23157303,-0.037724234,0.33646432,0.7410283,-0.1519453,-0.38058782,0.55058205,0.16094664,-0.050749622,0.96005476,0.4536348,0.7671584,-0.30354804,-0.18685576,0.25328326,0.21661314,0.3368129,0.53151405,0.81061935,0.7173101,-0.22146273,0.61882585
AA01-nc-100-avg,1.3765548,2.3412347,0.72977483,1.4615749,1.4331076,1.1185857,0.85318786,0.72415113,0.79082894,1.4493343,2.2635605,1.9004985,0.67515546,1.1665868,1.6184227,1.7536418,0.9476204,1.3984107,1.1802201,0.77955985,0.89520746,1.2408937,1.1651009,1.0267286,1.2629004,1.15779,1.8261955,0.8518593,1.3434802,1.2434694,1.2501243,0.9880554,0.992888,2.0657992,0.46643895,-0.97198373,1.2335559,-0.5159969,-0.29872972,0.24742846,0.68768996,1.1610591,1.3677423,0.58256364,-0.35435635,0.5939182,1.2197945,1.4816852,0.5822335,-0.14267036,-1.0203395,0.054593854,0.6547615,0.19523998,-0.46044266,-0.64203906,1.0572101,-0.5366816,1.5273802,0.5977298,-1.0614389,-0.4209644,0.6211362,0.41263786,0.51218575,1.0943372,1.1251185,0.5886837,1.0618222,0.57866704,0.6384734,0.6635846,0.6901946,0.7852788,0.82111245,0.48034406,0.8260196,0.8620193,0.6555203,1.0488935,1.0476474,0.4783656,0.44162822,0.54743713,1.1662992,0.8858839,0.76925105,0.70669484,1.0482411,0.40237576,0.6128496,0.70290077,0.56032383,0.6592858,0.763913,0.974869,0.46149388,0.87381506,0.47339708,-0.16472685,0.87787133,0.025092985,0.3993396,0.11310941,0.097571924,0.46364647,0.23954171,0.31026444,-0.06806848,-0.01772343,-0.24990529,0.7035721,0.2286648,0.19321379,-0.017651968,0.47678316,0.800684,-0.045338016,0.11387692,0.044180494,0.91797155,0.13396958,0.23754926,0.28923738,-0.40538296,0.20285653,0.47131714,0.42991412,0.36623538,0.112786144,0.47707078,0.5426805,-0.18037325,0.7662052,0.2514894,0.2050004,0.8889233,0.65734464,0.10868184,0.06692593,0.3735989,0.6257523,-0.14261532,-0.42818135,0.47882783,0.19275673,-0.07769322,0.8858103,0.24764152,0.6938733,-0.28527042,-0.1952355,0.30386943,0.12894863,0.13587473,0.5745504,0.75125664,0.4877694,-0.31095958,0.52853006
AA01-nc-400-avg,1.3961279,2.4406912,0.69634295,1.429747,1.451999,1.1349304,0.83458745,0.74493,0.8528038,1.3093245,2.373445,1.9105319,0.6401514,1.1611521,1.6918062,1.7254862,0.9193265,1.3281299,1.1748178,0.74868274,0.86237466,1.0748532,1.1759005,1.0177379,1.1897388,1.1777687,1.8112848,0.86160386,1.3462049,1.1450963,1.1918784,1.1549258,1.0204428,2.1316042,0.44865045,-0.9215257,1.2869526,-0.5075322,-0.29240313,0.29051805,0.7429607,1.0623342,1.5090909,0.75041795,-0.351358,0.63855135,1.2105421,1.4100424,0.48942912,-0.15181738,-1.0249801,0.002686107,0.6189501,0.21857212,-0.4437595,-0.66186786,1.018156,-0.5482671,1.4299932,0.6227114,-1.0643429,-0.4357011,0.50007164,0.4695301,0.4581596,0.9953421,1.0894711,0.56581944,0.96455973,0.5438557,0.5841567,0.64000756,0.7329156,0.76410294,0.8347683,0.50345075,0.73572505,0.7619597,0.61886305,1.0779579,1.0090264,0.46231258,0.4346323,0.51120114,1.1850094,0.88436836,0.7334205,0.65165186,1.0465407,0.42334723,0.6143224,0.68944746,0.5560758,0.63295084,0.66336113,0.962928,0.38918725,0.79625845,0.4558755,-0.14182158,0.78215414,-0.017789673,0.36044043,0.16107763,0.12207261,0.4190594,0.27736732,0.36415645,-0.07246938,-0.036810502,-0.22653952,0.7600225,0.13377732,0.19773713,0.010456351,0.40176955,0.82612276,-0.04450938,0.14613408,0.06304756,0.90634644,0.14806971,0.24398334,0.33834517,-0.4056774,0.20892277,0.4181226,0.4866259,0.35610703,0.05925201,0.47735313,0.53062284,-0.18934332,0.7520727,0.22650458,0.18442816,0.8785917,0.5890016,0.10044741,0.066144116,0.36879933,0.5987041,-0.14515048,-0.41488656,0.46817306,0.19611543,-0.0811283,0.8645633,0.1992968,0.68563765,-0.2893039,-0.20069383,0.31588992,0.11860609,0.07049983,0.55456454,0.72255725,0.44619012,-0.33343428,0.5162538
AA01-nc-1000-avg,1.3649338,2.3346977,0.6759806,1.4237766,1.4354143,1.1766427,0.81917083,0.79310757,0.84996665,1.3274434,2.444857,2.0203106,0.68471366,1.2691475,1.6186296,1.630448,0.9063476,1.4006869,1.1126511,0.77582854,0.91032076,1.2132989,1.1673484,0.95904434,1.1844586,1.1613604,1.7737466,0.89536816,1.3372,1.1818836,1.1957457,1.000919,1.0037463,2.04423,0.42132673,-0.8928058,1.251555,-0.45186317,-0.2302709,0.3257944,0.73301417,1.0681913,1.5391378,0.801172,-0.32347056,0.70904714,1.1637661,1.3431231,0.4945999,-0.057803735,-0.9300672,0.121294424,0.670596,0.29003158,-0.34982082,-0.5495401,0.9719904,-0.42691574,1.4105737,0.63948435,-1.006419,-0.32002556,0.5071097,0.32643592,0.4806889,0.9978172,1.0597525,0.57729006,0.99098104,0.5477242,0.56691766,0.6942606,0.7278619,0.73825175,0.8968929,0.51375186,0.78533334,0.8271613,0.6426573,1.1292979,1.0210189,0.43194366,0.45814177,0.53834313,1.1776384,0.9149686,0.757314,0.6894311,0.99378425,0.4447212,0.67586946,0.71383053,0.5499439,0.66649836,0.68958884,0.99590707,0.40109196,0.79759187,0.43319374,-0.1131547,0.8179152,-0.01894528,0.32660615,0.21233739,0.19461025,0.39361855,0.31500405,0.35508832,0.008321795,0.03633001,-0.18237567,0.7807212,0.12719764,0.16536058,0.036315937,0.42467502,0.82196414,0.06603819,0.15297842,0.097910665,0.8640213,0.1626706,0.31819412,0.31488138,-0.3670081,0.2493442,0.42887908,0.5239244,0.2885246,0.033261195,0.399112,0.49104515,-0.091991685,0.68668836,0.14208502,0.24667218,0.7754075,0.589039,0.07802485,0.15347834,0.46151105,0.5205378,-0.10661244,-0.386465,0.42751172,0.18764012,-0.008579102,0.75789684,0.16818343,0.58221227,-0.19182636,-0.143131,0.3568854,0.17774752,0.055385306,0.4648483,0.6460868,0.37674594,-0.2913156,0.4474249
AA01-nc-all-avg,1.44104,2.4491787,0.6967082,1.4066429,1.4598962,1.2220368,0.8496481,0.7569484,0.84022015,1.3234876,2.4891171,2.0058193,0.68717635,1.2376865,1.7031832,1.6430548,0.93067974,1.4074359,1.110606,0.78055495,0.90493035,1.1802491,1.2127097,0.9952049,1.1673152,1.1961055,1.7760762,0.90853864,1.2965431,1.1508452,1.177453,1.1206639,1.0800619,2.1291902,0.4245527,-0.859975,1.2664939,-0.4637049,-0.23679356,0.32269666,0.71369255,1.0357283,1.6467496,0.8953611,-0.29277655,0.69636613,1.2190515,1.3263643,0.49980667,-0.05689881,-0.92776775,0.09789662,0.6595548,0.3250104,-0.35314116,-0.5769579,0.9684117,-0.4860406,1.3895944,0.6523193,-0.97693783,-0.32207173,0.44300205,0.41784602,0.46314058,0.98578846,1.0351264,0.5633131,0.95817965,0.534621,0.5866212,0.66097325,0.71395856,0.70650506,0.86492634,0.52360404,0.8062009,0.7892915,0.6255869,1.1549288,0.9701258,0.42736194,0.45010424,0.5170081,1.1986392,0.927623,0.74943507,0.6798338,0.98682374,0.43035123,0.67689437,0.7384934,0.54346204,0.65072984,0.68173265,0.9999903,0.3707176,0.79115814,0.38367698,-0.09189998,0.7871862,-0.0051745526,0.34499758,0.21724257,0.16488844,0.36767456,0.33772293,0.37042946,0.014368442,0.05505163,-0.17084557,0.83326274,0.07183538,0.15299213,0.047924172,0.3865727,0.86166906,0.055514436,0.19493523,0.11210302,0.8638838,0.12917095,0.32139996,0.36401668,-0.36462843,0.26201364,0.40650076,0.55692,0.30130905,0.017658327,0.41342652,0.49511224,-0.1193614,0.6965625,0.14867955,0.22903566,0.8054159,0.5705365,0.07869117,0.1334146,0.44497985,0.53226334,-0.11615061,-0.3971428,0.4247982,0.19690618,-0.025102554,0.78691804,0.15858452,0.5980804,-0.20638901,-0.14623272,0.35519046,0.16752222,0.03613667,0.48955008,0.6556066,0.38040954,-0.30638158,0.46249303
AA03-co-1,0.64255404,7.9893904,4.05622,0.81660634,0.3488499,0.8805538,0.38133496,1.4107499,0.5175578,2.146874,2.4832318,0.8637007,0.5205451,2.0215669,7.543681,5.219889,2.9014986,2.0985608,1.2930402,1.8920342,1.9962518,0.4814914,1.7707925,2.1549416,3.099559,2.2721655,3.3405123,0.8973171,1.0713195,1.4344893,0.41031837,6.802256,0.34939882,7.7533126,3.929797,-0.7631268,0.33075234,-0.26917365,-0.1783487,-1.2059827,-0.45963,1.9519417,2.2925174,-0.603834,0.2362611,-1.9255117,7.3113527,4.6024313,2.653554,-1.9949445,-1.1596031,-1.8150346,1.9131451,-0.23696193,-1.2292252,-2.0974143,2.675861,-2.181386,2.9869113,-0.74465173,-0.84892076,-1.2288678,-0.21139014,6.6214476,0.5929526,1.1553041,0.61608326,0.7230083,1.0030844,0.16629627,0.90966517,0.95808315,1.1119521,0.47781643,0.43032578,0.34728056,0.74219275,0.947273,1.0488203,0.28428847,1.0232823,0.25531167,0.18272781,0.79591346,0.05157852,1.2129344,0.36581796,0.81760526,1.2226362,0.7413464,0.08484478,1.0970862,0.54510725,0.63807046,0.5079676,0.41480428,0.56948113,0.8153952,-0.38686794,-0.56448954,0.5786476,0.012210408,0.88598317,-0.88438666,-1.0904777,0.46705246,0.42268306,0.319082,-0.67887205,-0.8118256,-0.9995225,-0.25585502,0.586186,0.0071849525,-0.16852841,0.7841825,0.0054337024,-1.1623358,0.26866806,-0.80380327,1.0062321,-0.7352177,0.016461989,1.0689554,-0.50858706,-0.3241317,-0.5028663,0.39682987,2.4732242,2.1754444,2.7052221,1.8634636,-1.709273,3.6849368,3.0043747,-0.94373864,4.16092,1.4517887,1.1787361,-1.9779818,-1.5616391,3.7548892,-0.65535283,-0.4762087,1.769093,0.7165728,-1.7009678,4.546648,2.0314443,3.597361,-2.385663,-1.383232,-0.72755563,-0.16424957,1.6650634,3.0783792,2.956176,2.864607,0.06854525,3.596949
AA03-co-10-avg,1.8651597,2.8506672,0.63963234,1.056507,1.9985821,1.2412406,1.2390296,0.55227166,0.8981196,0.9471747,4.8398905,4.076251,0.6880821,1.7607235,2.2289708,1.0025829,0.89014244,1.3048482,0.77391374,1.0942738,1.2396183,1.6691215,1.0828757,0.7122146,0.7407247,1.280319,1.2393134,1.3632454,1.2343501,1.4627625,1.2105167,0.8894719,1.3482177,2.3940287,-0.007868225,0.12953654,1.448914,-0.8462823,0.2728176,0.45767722,0.78159297,0.10466967,4.2736187,3.1491897,-0.29254448,1.084355,1.1599958,0.66400415,0.578521,0.39564997,-0.61361146,0.42034513,0.91471255,0.99090636,-0.05926034,-0.014362824,0.4565815,-0.73013335,0.83631575,0.782714,-0.074974254,0.5586976,-0.13583753,0.13812003,0.3087138,1.1738408,0.8303715,0.51809937,1.0858355,0.7103147,0.9699505,0.6356793,0.6441859,0.27402845,2.055673,1.0838531,0.76629525,1.2549964,0.5447048,2.1435475,0.6709262,0.19467051,0.48344666,0.6482742,1.5186138,1.0154114,0.8731068,1.2949278,0.64140254,0.6286665,0.90922433,1.6721857,0.5286483,1.0451772,1.2244906,1.5327375,0.28517133,0.9544652,-0.23978917,0.30420953,0.9383402,0.33849356,0.657861,0.4873568,0.42505866,0.066659555,1.5971966,0.982381,0.51813376,0.9748249,0.25918332,1.8544567,-0.6078569,0.033011027,0.26463816,0.5792027,1.2814237,0.6316987,0.67960984,0.852327,0.5618078,-0.11496337,0.6453347,1.3085942,-0.046946906,0.74777883,0.21119678,1.3438756,-0.16228198,-0.4438878,-0.18780944,0.12080572,0.45521775,0.1384051,-0.5980525,0.45963582,0.13731278,0.42974615,-0.19381991,0.409261,1.088733,-0.16992304,0.104707144,-0.3810096,0.06988655,0.27901092,0.38232166,-0.11358547,-0.46937642,-0.22054839,0.2658419,0.2948329,0.6514839,0.47416812,-0.40473604,-0.045354478,0.10891037,-0.26581866,-0.100734375,-0.110082485
AA03-co-100-avg,1.6247288,2.2257912,0.6429898,1.3554376,1.7262866,1.2077379,0.8739812,0.7176547,1.1076144,0.91321737,2.8471045,2.5959508,0.6556611,1.4636085,1.5817436,1.3705506,0.6654457,1.0747008,0.91426957,0.817457,1.0337517,1.2434254,1.0033661,0.8456025,0.7301863,1.0440574,1.7534201,1.1109602,1.1651689,1.0561032,1.1261772,0.91188425,1.413487,1.7288208,0.3828913,-0.64153343,1.5646588,-0.56964135,-0.21313484,0.5825688,1.0518738,0.5433567,2.2512228,1.6991866,-0.32897958,1.1743555,1.091311,0.98024184,0.111611746,0.24389613,-0.75623864,0.21622704,0.78633475,0.8076469,-0.1554382,-0.4093584,0.48796445,-0.51335895,1.2944477,0.9179526,-0.7582299,-0.029813867,0.35481218,0.22595318,0.2981504,0.7441074,0.750824,0.5068161,0.74034965,0.42232388,0.4471753,0.6747684,0.6695163,0.43929073,0.81710917,0.79295,0.6741235,0.7193835,0.45273575,1.3361044,0.76720566,0.3314669,0.44166377,0.4054251,1.2912593,0.69225746,0.70180076,0.57181853,0.7261484,0.40160382,0.75649893,0.6411479,0.48427734,0.79561204,0.62872237,1.015674,0.2156987,0.5335103,0.17594582,0.22116886,0.60197717,0.012761069,0.19048771,0.50046664,0.38003623,-0.035209134,0.48433113,0.7096359,0.31084153,0.2835856,0.092392854,1.1671497,-0.43363953,0.15100452,0.24255686,0.25167993,1.1599131,0.31957096,0.46794358,0.19878168,0.62045455,0.11958636,0.57155967,0.36795345,-0.21467824,0.5372943,0.34594676,0.7417573,-0.012234674,-0.28324097,0.13122255,0.31114343,0.20125324,0.3430978,-0.24965887,0.3685399,0.400106,0.4455776,-0.089141995,0.33364612,0.8207861,0.14186838,-0.0071446407,-0.35768092,0.20124453,0.22138643,0.164823,0.29482165,-0.22372273,0.16020554,0.065304235,-0.006818071,0.5141864,0.31970835,-0.23673305,0.20336957,0.29696456,-0.028061964,-0.27139455,0.14109541
AA03-co-400-avg,1.611824,2.3242083,0.640717,1.3076514,1.7522031,1.3162221,0.92619675,0.7424245,1.0588568,0.9676296,3.1246018,2.866474,0.6818769,1.5218757,1.6910237,1.3791598,0.7351135,1.2228998,0.93285716,0.8514447,1.0485784,1.3749772,1.0618087,0.87805635,0.80036604,1.085699,1.6906486,1.1253409,1.1651855,1.1229103,1.1348033,0.9473259,1.3567427,1.8379166,0.34105343,-0.5813687,1.5351214,-0.5932927,-0.15080875,0.5296505,0.9898194,0.5312167,2.3955982,1.8014468,-0.34071717,1.1523377,1.1885761,1.0207282,0.22937088,0.21935745,-0.7465373,0.26608047,0.83898735,0.83865076,-0.16680817,-0.39483425,0.52544326,-0.5492948,1.2550604,0.8993969,-0.68461835,0.0009904343,0.29876685,0.25006515,0.36276078,0.8241299,0.7917303,0.54959637,0.83294886,0.4710285,0.49828225,0.7162917,0.66827524,0.46303427,0.9580248,0.8310697,0.7577607,0.81373847,0.52565306,1.4188128,0.8129593,0.30867898,0.48895732,0.47414035,1.2761445,0.8020039,0.7610328,0.6397696,0.73460084,0.42377812,0.7969684,0.71996963,0.45838797,0.7911085,0.640165,1.0844438,0.25874373,0.6143396,0.16364978,0.16963027,0.68797284,0.018914724,0.23518354,0.46416327,0.35542423,-0.0010282233,0.56341195,0.72659457,0.27205694,0.33171242,0.06931826,1.209896,-0.38201737,0.13044636,0.23506916,0.31656057,1.1099677,0.28840354,0.46991456,0.21918418,0.6348903,0.08755532,0.5720079,0.43261376,-0.21101618,0.54263484,0.30633152,0.76383233,-0.00093074306,-0.24451923,0.13385008,0.31633613,0.22256441,0.38365936,-0.22750494,0.37943715,0.448785,0.48761916,-0.06300661,0.344518,0.8250915,0.16780125,0.0028038847,-0.33264068,0.19888014,0.2334684,0.17502697,0.3169694,-0.18936262,0.16946062,0.07742259,0.025315098,0.5086115,0.34065685,-0.2055529,0.21248743,0.32159606,0.0070431023,-0.22709948,0.16386162
AA03-nc-1,1.4515281,6.680591,2.6522055,0.9612525,0.3568874,1.6544249,0.4998492,0.43579215,0.2876535,1.5291399,3.1289914,1.7332367,0.48550773,1.0434228,5.679751,5.411908,2.3186884,1.7141154,1.0276212,1.2532117,1.5773401,1.5807351,1.7134669,1.7312531,2.056732,2.2111192,3.1770606,0.42672962,0.62709033,0.72335696,0.65506077,4.620242,1.0990586,6.3333716,2.4959135,-0.86082476,0.18366493,-0.90525115,-0.3449158,-0.30893725,-0.2031958,1.4363152,2.7556674,1.0321567,-0.15097642,-0.96854556,5.0593567,4.317005,1.9554483,-1.4696198,-0.8630419,-1.1436214,1.0677735,1.1065769,-1.3664794,-1.6042693,1.8191992,-1.9631515,2.791397,0.029229999,-0.34025323,-0.6738106,-0.18931556,4.5227585,0.4629836,0.80867517,0.7720867,0.41579834,0.47327694,0.2283731,0.70950335,0.25744665,0.7897939,0.40611544,0.17030516,0.8482611,1.101623,0.2324686,0.71181846,0.49473426,0.27501968,0.39907175,0.14323853,0.42613092,0.71440554,1.0026191,0.71118104,0.7701933,0.8487479,0.6401732,0.4273925,0.8746565,0.5432621,0.3059156,0.30489147,0.56158376,0.451766,0.4330878,-0.57974905,-0.17454204,0.02809056,0.028460294,0.7003736,-0.24136634,-0.7507381,0.39969197,0.1622447,0.84610444,-0.8160246,-0.17093967,-0.64745206,0.48277298,-0.162324,-0.1393991,-0.13543022,0.42143416,0.5598387,-0.9700686,0.5648618,-0.7530958,0.7200552,-0.63622844,-0.062811136,0.86469746,-0.41706702,0.21004467,-0.30167857,0.38587934,1.2742497,0.795811,1.4245502,1.5853264,-1.3716996,2.144178,1.7379394,-0.62599576,3.0377562,1.0405201,0.66882485,-1.2913337,-0.6627897,2.1424088,-0.3943891,-0.33951,0.9556658,0.80366355,-1.3622956,2.9980855,0.9960917,2.3697674,-1.3805813,-0.91092455,-0.34577304,-0.34786022,0.557179,2.158966,2.1436462,1.6361356,-0.002036959,1.96023
AA03-nc-10-avg,1.3779124,3.3790784,0.66400176,1.1281191,1.5958539,1.3605467,0.7949158,0.49359894,0.6290636,1.1512954,3.148879,2.7082458,0.83227885,1.0511459,2.0083451,2.059402,0.95965594,1.2693527,1.0504187,0.7286811,1.0922616,1.4579318,0.84249794,1.0188844,1.3050811,1.5359671,2.0013912,0.6881449,1.2037771,1.0201992,1.0291277,1.7727146,1.0664032,2.8241284,0.1975331,-0.62384844,1.1726377,-1.0716236,-0.2385766,0.036090635,0.4779659,0.8075782,2.812497,1.9145054,-0.5131903,0.28983474,1.3013632,1.6416829,0.8220072,-0.41937098,-0.94086343,-0.1605976,0.7742,0.610544,-0.5796905,-0.78432995,1.1169097,-1.3708614,1.5567346,0.39415526,-0.7552735,-0.049603984,0.11944455,0.76873904,0.3437397,0.82522154,0.8731176,0.55536425,0.81684744,0.37784585,0.43514872,0.56985915,0.53188574,0.44588834,0.7067875,0.7855219,0.5595806,0.6768466,0.4627925,1.0823672,0.84287345,0.3519203,0.37180275,0.32499206,0.74647236,0.56616217,0.64152545,0.4007632,0.8935305,0.47214708,0.23207495,0.5720021,0.38103613,0.6950017,0.3594001,0.973143,0.24152248,0.5863758,-0.11446802,-0.03270169,0.62178504,-0.073871806,0.3426965,0.015429812,-0.25749293,0.24872231,0.43934354,0.7437285,-0.39706832,0.045712117,-0.15425563,0.96695805,-0.020572027,0.0414841,0.09291655,0.2693428,0.6518068,-0.45585185,0.4680687,-0.0399813,0.73468316,-0.04843416,0.026040569,0.4607319,-0.21207158,0.4804039,0.080868125,0.7858478,0.50065583,0.044438146,0.53138053,0.5869942,-0.28881043,0.8291856,0.18395384,0.015029964,1.1250757,0.4825117,0.07213639,-0.22826438,0.25571996,0.75849664,-0.15193523,-0.5435535,0.4635771,0.41172737,-0.40023512,1.1727551,0.07045205,0.64599234,-0.5447032,-0.22571096,0.20153816,4.331991e-05,-0.029662665,0.6508927,0.76541024,0.24697039,-0.38756576,0.70052195
AA03-nc-100-avg,1.4876786,2.6082604,0.74285364,1.4859593,1.6826564,1.3706293,0.93584114,0.6648282,1.0008917,1.1242807,2.8898687,2.5048065,0.67058045,1.3211652,1.8257145,1.8363838,0.830122,1.119864,1.120541,0.7470616,0.9301611,1.323629,1.0349827,1.0874165,1.0058343,1.2430439,1.9875553,1.0050625,1.2852166,1.1196456,1.2370273,1.2113483,1.2749856,2.1402144,0.44343707,-0.850363,1.5142772,-0.88880706,-0.37212437,0.38742393,0.9251453,0.77067304,2.072558,1.245886,-0.41836163,0.91682273,1.3774339,1.4415693,0.39971542,-0.17817223,-0.97151303,0.014303524,0.69476545,0.6484831,-0.36120513,-0.7275789,0.7718479,-0.8122155,1.5916351,0.8034712,-0.93549275,-0.3370037,0.4392955,0.59170896,0.39174458,0.80745023,0.8351612,0.517731,0.7597507,0.453545,0.51955056,0.6384042,0.66949797,0.47055703,0.9373708,0.71922284,0.6596819,0.7719427,0.56567895,1.1682838,0.7970551,0.31273368,0.4589291,0.45836788,1.1681305,0.7799544,0.7127205,0.6062005,0.8214689,0.41990978,0.5926817,0.73890966,0.49318755,0.69313675,0.6456028,1.0267489,0.31567094,0.5949491,0.20502384,-0.005379236,0.5841793,0.03667108,0.31161892,0.28452265,0.24102274,0.12719993,0.48616385,0.6438978,-0.11338572,0.109329365,-0.11947578,0.950252,-0.22170474,0.08963594,0.13064444,0.34363633,0.97580045,-0.065888256,0.37442777,0.05265173,0.70222807,0.12062192,0.35125497,0.382826,-0.34669745,0.34474412,0.36032215,0.6114626,0.24079753,-0.08097608,0.3818135,0.48795485,-0.07660881,0.6455215,0.083282754,0.19580786,0.8155531,0.55492973,0.031802107,0.10978073,0.5262225,0.49004042,-0.106880724,-0.39114785,0.36451998,0.27070293,-0.12973924,0.75410783,0.010453957,0.5324814,-0.2385371,-0.16474608,0.3518481,0.15227991,-0.05989366,0.5075647,0.6015954,0.24841434,-0.29597467,0.43785274
AA03-nc-400-avg,1.4608935,2.440818,0.66999364,1.3670642,1.7378817,1.2356887,0.8478379,0.7289733,1.0528178,1.0546185,2.9545765,2.6603527,0.7135762,1.3907781,1.7075635,1.6090671,0.84886307,1.1516043,1.0553507,0.7938516,0.92545706,1.3408387,1.0552295,0.9499033,0.91408575,1.1730318,1.7670163,1.0361538,1.2537527,1.1492857,1.1961979,1.0200548,1.1861814,1.9858495,0.36685994,-0.72094554,1.5197072,-0.67407537,-0.26097986,0.44272724,0.9781699,0.7006724,2.1845517,1.5315926,-0.39523864,0.9832835,1.2627026,1.2739806,0.37208477,-0.039548833,-0.89538294,0.080824606,0.72368205,0.68122184,-0.3283622,-0.5833424,0.6715908,-0.68795013,1.383642,0.8065589,-0.8211269,-0.19843999,0.40985116,0.46070355,0.40221024,0.84416056,0.89887774,0.56927335,0.8062665,0.5149405,0.558558,0.6686818,0.74981713,0.5286983,0.9430049,0.7803347,0.71682703,0.8098959,0.5474527,1.285228,0.84316254,0.32952634,0.49689728,0.51773536,1.2186904,0.8361803,0.7499993,0.65212035,0.7933244,0.4354501,0.7345494,0.7333532,0.49666846,0.75593424,0.66315,1.1162468,0.26793253,0.6045109,0.24592319,0.059772767,0.62080145,0.031659115,0.29469264,0.33339068,0.2734103,0.101901464,0.50688136,0.67878497,0.008079308,0.17108463,-0.054777525,1.0201982,-0.22034493,0.10780903,0.17285465,0.33644226,0.9726976,0.059133697,0.35611308,0.09716426,0.6721873,0.11377746,0.42279574,0.40008366,-0.285522,0.40123954,0.3300833,0.65715146,0.14060591,-0.1439905,0.28647822,0.4230957,0.075061485,0.51204675,-0.03329772,0.27482194,0.67959493,0.52853185,0.013739946,0.1875898,0.64677274,0.3476056,-0.045991797,-0.34983513,0.30449355,0.25154465,0.0070043467,0.55829644,-0.08099859,0.37764356,-0.111252114,-0.07328908,0.40093908,0.23626623,-0.11862404,0.38069096,0.49682295,0.1593697,-0.26257595,0.30729324
AA03-nc-1000-avg,1.4650787,2.518468,0.71208096,1.3781667,1.6879063,1.2677191,0.8638836,0.7195815,1.0024817,1.1258149,2.9228942,2.6502361,0.6904987,1.3875537,1.7705933,1.6750789,0.85853004,1.1810321,1.0719851,0.7996366,0.94521844,1.3234879,1.0658461,0.9855189,0.96990657,1.1945256,1.8041699,1.0176823,1.2594947,1.1550252,1.2082782,1.0971037,1.1743056,2.0604565,0.39694217,-0.7486988,1.4868817,-0.7051756,-0.26970446,0.38041672,0.92602986,0.75710106,2.141445,1.4900249,-0.4181836,0.91757363,1.3315265,1.3373019,0.44253728,-0.098951206,-0.9284921,0.0840968,0.73665583,0.65168625,-0.36953345,-0.63601387,0.7489069,-0.72703403,1.4271542,0.77794546,-0.81503004,-0.21632813,0.40939182,0.5066599,0.41133124,0.89768726,0.90525293,0.56427705,0.8648253,0.5634026,0.5730199,0.6833515,0.7377872,0.5365393,0.93809915,0.7633503,0.72842014,0.81168497,0.56785154,1.2545259,0.8648321,0.34457165,0.49163952,0.52286357,1.1959767,0.83445746,0.76216155,0.6655336,0.83996713,0.44651574,0.7042006,0.75791407,0.5106989,0.73983794,0.6718531,1.106551,0.2864642,0.6650859,0.26268426,0.047361873,0.67263323,0.06124033,0.3238676,0.30260172,0.23513693,0.12623772,0.4422827,0.65913755,-0.00016862535,0.14377867,-0.088817574,0.99498916,-0.16941194,0.091685586,0.15748736,0.3519552,0.946772,0.025043406,0.350826,0.094756976,0.70760417,0.115856044,0.40556234,0.41686547,-0.29483387,0.3986057,0.3460973,0.6597089,0.19201024,-0.09980179,0.33202648,0.44696158,0.029441265,0.57727206,0.017421098,0.24916102,0.7350781,0.5364398,0.031695746,0.15135042,0.59312886,0.4136455,-0.065912426,-0.3658092,0.3395004,0.25924242,-0.03622748,0.64275783,-0.031812638,0.4319394,-0.15952404,-0.10192974,0.3797856,0.21174888,-0.078450024,0.43341818,0.5410732,0.20229633,-0.2712083,0.36918917
AA03-nc-all-avg,1.5272294,2.6057348,0.71009564,1.3528054,1.7288747,1.3261042,0.88431674,0.6871738,1.0037357,1.0539966,2.9832253,2.6875877,0.695068,1.384666,1.8427442,1.6583886,0.8275118,1.1460924,1.0413771,0.7999227,0.95986927,1.3343081,1.0679106,0.9832733,0.945428,1.2200246,1.8144047,1.054341,1.2292022,1.1042625,1.1606206,1.1840514,1.2728616,2.1131938,0.37381247,-0.7053599,1.5104765,-0.755397,-0.26720923,0.42240018,0.9233505,0.6852926,2.30207,1.6309536,-0.40583497,0.9628183,1.3456013,1.2801361,0.39850163,-0.07066971,-0.88615096,0.0902959,0.7367297,0.74985003,-0.32329392,-0.6183827,0.7107756,-0.7592162,1.4043354,0.819666,-0.78094524,-0.16479401,0.31676733,0.5434757,0.3786787,0.8111324,0.8309274,0.52719194,0.7720753,0.4963468,0.5320143,0.65624994,0.7058996,0.47843993,0.93149406,0.78889275,0.6907251,0.76508576,0.5318361,1.2676681,0.78583866,0.32811722,0.4820692,0.48123202,1.194985,0.7899328,0.74210346,0.6210133,0.7919145,0.43441296,0.6869707,0.7313464,0.4885989,0.7354891,0.62076217,1.0969791,0.24040693,0.5910867,0.16809776,0.08115196,0.5934641,0.041166004,0.29790783,0.3386934,0.23699452,0.07490536,0.48994738,0.6988426,-0.0016966788,0.18702734,-0.052152574,1.0558138,-0.26109138,0.07642048,0.18726107,0.30325142,0.9967296,0.028463297,0.41582972,0.10643212,0.67444813,0.09045868,0.41459545,0.4364099,-0.27427235,0.4335491,0.29676276,0.7165183,0.16539305,-0.14534853,0.30159137,0.42782712,0.04814214,0.5478076,-0.035091408,0.2567178,0.7085475,0.50426483,0.011354946,0.17240039,0.6274856,0.3827644,-0.055882208,-0.36832127,0.30876768,0.27430975,-0.0376626,0.61829484,-0.07783923,0.3917032,-0.13757223,-0.09336202,0.4012968,0.21631348,-0.12876704,0.40345126,0.4990299,0.14287807,-0.2689361,0.34659076
AA05-co-1,1.6515068,6.905473,3.129393,1.0638692,0.780038,1.4957583,0.5911154,0.63984996,0.48643246,1.6793822,2.789339,0.6135083,0.6034379,1.5573013,5.305398,3.7900567,2.3971007,1.9971055,1.1116102,1.7618334,0.9150384,0.74854285,1.778751,2.2285357,2.5333457,2.3544142,2.8249304,0.42395806,0.9915904,1.7175503,0.5711273,5.24679,0.8666744,6.753207,2.9241023,-1.0461528,0.38618407,-0.6527513,-0.43009755,-0.5668007,-0.38787445,1.4191974,2.5571606,0.51687807,-0.33046287,-1.4349808,4.8835096,3.6070154,2.3021348,-1.7328138,-1.0366889,-1.6831774,0.8484311,0.3439204,-1.4967468,-1.9534588,2.1353033,-2.0722723,2.631605,-0.11132793,-0.82178915,-1.4987962,-0.40811324,4.980615,0.39045978,1.44693,0.5747127,0.3663539,1.2740166,0.34675097,0.5801655,0.37114444,0.9892416,0.30375317,0.2638409,0.46714392,1.1577017,0.7642997,0.97381675,0.24050547,0.64152646,0.24750914,0.04672587,0.45163542,0.65818846,1.1027036,0.4219731,0.61161256,1.0159484,0.582641,0.5623765,0.83620435,0.65769523,0.6743634,0.27041963,0.45508665,0.36087885,1.1268543,0.09646827,-0.3200001,0.91373837,-0.19399124,0.56572115,-0.3421384,-0.8756861,0.29872718,0.24620347,0.45673767,-1.0843683,-0.71028453,-0.92970127,0.22110128,0.34300786,0.12565324,-0.018110657,0.43241507,0.46363583,-1.0725161,0.25274178,-0.6011533,0.9234123,-0.577761,-0.337531,0.8239164,-0.63427967,-0.43181762,-0.2644392,0.43264532,1.6177462,1.2505587,1.8839374,1.4412057,-1.3422259,2.5770674,1.6763824,-0.6288668,2.8875449,0.892314,0.8295676,-1.3347605,-0.8519258,2.5302722,-0.48066026,-0.4270216,1.1720784,0.6896636,-1.409832,3.414145,1.2202754,2.277201,-1.6668134,-0.89007354,-0.44603372,-0.2600239,0.91483563,2.0923548,2.0248847,1.6676897,-0.123962,2.4304652
AA05-co-10-avg,2.4019024,3.1559193,0.47964162,1.349909,1.5459123,1.4726425,1.0628026,0.73975426,0.6474737,1.1213496,3.8983722,3.6730728,0.9916533,1.4208667,2.3665557,1.3405657,0.86724836,1.9357083,0.99857914,1.5858147,1.1719543,1.3824753,1.8561189,0.7019183,1.2728128,1.1802953,1.9032685,1.3284049,1.0043442,1.2308424,1.5237607,1.0872519,1.9371374,2.645125,0.03859729,-0.7158381,1.234699,-0.09704596,0.16403928,0.47077805,0.32398108,0.4495143,3.1945117,2.2380624,-0.6074554,0.9048711,1.6346295,1.016332,0.5323898,0.50671583,-0.7293501,0.78724384,0.97916985,0.69197655,0.08421155,0.0778745,0.99069816,-0.36740097,1.5137957,0.8987521,-0.45467395,-0.062722884,-0.3685847,0.29815164,0.51036155,1.373477,1.0377946,0.596567,1.3098825,0.47671032,0.5191018,0.81428254,0.647857,0.3659714,1.0013623,0.5682992,1.0228298,1.1132159,0.5798814,1.7345781,0.8701145,0.38442653,0.4306716,0.51126397,1.487127,1.4259698,0.9199027,1.044043,0.7842213,0.35750523,1.002338,0.89885175,0.4338952,0.9752018,0.96050215,1.5148512,0.4873907,1.238568,-0.23198691,0.26339668,1.2318606,0.05946235,0.29374686,0.43499246,0.29694715,-0.00826177,0.6025125,0.5085516,0.5983701,0.7456325,0.01117388,1.4816428,-0.5539206,-0.21901736,0.15415695,0.42979127,1.3196676,1.0424702,0.6196628,0.7566223,0.70590717,0.13480157,0.83651817,0.5735478,-0.22474055,0.7121513,0.71440405,1.1863143,0.14263612,-0.21928354,0.14969695,0.2335963,-0.078061484,0.5502428,-0.3657616,0.27914432,0.31872672,0.41076273,-0.1966317,0.5481647,0.661753,0.31356353,-0.020666445,-0.3773119,0.20672782,0.23347959,0.32786897,0.5971481,-0.15052089,0.14469989,0.10254512,0.07384991,0.50397074,0.34569222,-0.17247306,0.2930625,0.36991566,-0.11067279,-0.36021432,0.31142125
AA05-co-100-avg,2.000833,3.004653,0.62745184,1.5147117,1.4025041,1.4386286,1.183968,0.58538014,0.533792,1.1289347,3.1469178,3.058176,0.9648666,1.2240025,1.8310196,1.6694897,0.8226908,1.8270875,0.99575126,1.0636503,0.95914084,1.0890445,1.5291841,0.9379599,1.3427771,1.1368998,2.4547307,0.92123634,1.2157103,1.2231674,1.4416176,1.2561433,1.7125027,2.4633682,0.16822428,-1.1092542,1.1826844,-0.24285616,-0.15208012,0.18291697,0.2770816,0.5600853,2.211381,1.695857,-0.51611745,0.50731426,1.1857896,1.2911537,0.3035429,0.047074147,-0.78584754,0.5461323,0.682208,0.33674362,-0.024989836,-0.29115987,1.1886585,-0.38020664,2.0035062,0.61585367,-0.8198776,-0.3429808,0.14037007,0.4774417,0.47269258,1.031715,0.8333895,0.54967207,1.0444806,0.30189484,0.2724131,0.6017982,0.45561233,0.4469666,0.6497929,0.5255011,0.864485,0.89603555,0.56219107,1.3557903,0.91954833,0.34854004,0.34625313,0.4484129,1.1681542,1.0942464,0.72482705,0.69070566,0.8743806,0.37218913,0.89127344,0.51461756,0.48104656,0.8076878,0.6343508,1.0455552,0.4376441,0.88296354,-0.21529478,0.17461798,0.8926154,-0.020649323,0.071921,0.28944305,0.17177103,0.07161552,0.24584661,0.41918224,0.5048535,0.33112448,-0.21727875,1.1727462,-0.3909435,-0.12939896,-0.0411818,0.36120018,1.0052722,0.7227339,0.517356,0.39800462,0.7817522,0.22107677,0.7463104,0.07606956,-0.3533407,0.49670386,0.59202945,0.70453805,0.36546308,-0.04078198,0.42645752,0.38256896,-0.35806987,0.79099536,-0.09415195,0.13877234,0.5412485,0.49016058,-0.13829918,0.4348713,0.39193916,0.6213315,-0.15025188,-0.4486159,0.3771845,0.2317859,0.093018435,0.9642742,0.06386232,0.43550658,-0.1542758,-0.16872984,0.33424005,0.24148187,0.0034772235,0.4696338,0.53159535,0.0613848,-0.3855968,0.5955239
AA05-co-400-avg,2.0140624,3.058014,0.64310193,1.5243872,1.4490259,1.5497426,1.1520425,0.59387416,0.5676091,1.1312501,3.1006186,2.9758801,0.98653054,1.1865262,1.8822693,1.7779856,0.83880645,1.744601,1.0416633,1.0377005,0.93599397,1.1347151,1.5554266,0.9718345,1.3238167,1.2694844,2.4428492,0.9352587,1.2154449,1.1804204,1.4129035,1.2811313,1.6720169,2.5522935,0.18551211,-1.0790453,1.204786,-0.38133475,-0.17390345,0.18967001,0.29770887,0.5891644,2.2763233,1.710834,-0.5657655,0.49102557,1.203907,1.353757,0.3478977,-0.026486706,-0.8167558,0.46073794,0.6635697,0.3656473,-0.15112215,-0.35651815,1.1788678,-0.5191053,1.9977092,0.6025648,-0.80633605,-0.35547882,0.12690094,0.61568445,0.44807962,1.0105937,0.86484206,0.50398076,0.9922817,0.31801212,0.33674332,0.56630415,0.49517533,0.4105749,0.7051293,0.561,0.8521984,0.8418042,0.5472543,1.3569092,0.8709411,0.33767927,0.3654023,0.44872308,1.2021343,1.0393384,0.74317795,0.6918338,0.8556635,0.37030178,0.84479356,0.5769892,0.47236374,0.77781975,0.69201887,1.0944141,0.40186408,0.85458463,-0.22096217,0.17598395,0.8603725,0.012066458,0.14318152,0.2628623,0.1404777,0.07706255,0.27866402,0.4760406,0.39432278,0.33548874,-0.22179109,1.1624029,-0.41313583,-0.13841428,-0.023075126,0.34167033,1.0299319,0.618331,0.50312823,0.37545672,0.76765275,0.17281225,0.6740379,0.17830534,-0.35437062,0.47262493,0.56939524,0.74866074,0.38498676,-0.053927585,0.4491964,0.4266849,-0.35469174,0.80136544,-0.038625762,0.122172385,0.63602734,0.4976999,-0.10941318,0.36155814,0.36598283,0.64925885,-0.14766894,-0.44237638,0.3947502,0.25214586,0.043979134,1.0147649,0.056402773,0.49365178,-0.20641471,-0.18189292,0.309698,0.2058698,-0.012719596,0.52240705,0.571877,0.09546957,-0.38940793,0.6197416
AA05-nc-1,1.7355474,6.624931,3.4597056,0.8788293,0.33781093,2.0175824,0.98675305,0.58734775,0.7368573,2.1932974,2.1090744,0.4856764,1.2403363,1.5567517,5.9668612,5.5196104,2.03535,2.1312385,1.0276686,1.4223577,0.8958181,1.567287,2.090307,2.0192232,2.7086716,2.48517,4.818961,0.335324,0.36930466,1.1823564,0.4650426,5.035276,1.3935138,6.4613,3.0736403,-0.77034795,-0.2152658,-1.1592215,-0.7671279,-0.4559784,-0.59515005,2.0570412,1.7963574,-0.22976767,-0.71689516,-1.5026716,5.2885056,4.565779,1.5248961,-1.8084042,-0.92579514,-1.2490313,0.3537315,0.8670238,-1.676658,-1.9189727,2.4194326,-2.2714968,4.595781,-0.104381524,-0.18871725,-0.9817752,0.32115626,4.8447104,0.54157597,1.2612689,0.54820025,0.22365402,0.93433475,0.29372516,0.71782684,0.3500019,1.0353057,0.42831334,0.3779363,0.41796824,1.2793777,0.49754518,0.92612565,0.33280015,0.40836734,0.3409701,0.06353299,0.45810825,0.977872,1.1332589,0.46873587,0.6868445,1.0869447,0.5158168,0.53404367,0.8531933,0.5918343,0.15090153,0.08658677,0.5377879,0.53655,0.9740755,-0.28971273,-0.1999336,0.6476412,-0.0550836,0.7128968,-0.30268803,-0.99055845,0.4265661,-0.37457165,0.41574225,-1.0902214,-0.40948987,-0.8501482,0.32836875,0.013301683,-0.12255221,-0.061847072,0.45647526,0.7785813,-1.0991107,0.4476594,-0.6848579,0.85049313,-0.5144723,-0.31711864,0.85059375,-0.49840719,0.0054828017,0.08444566,0.30429795,1.8524108,1.4007096,2.1492133,1.8212731,-1.6363761,3.090025,2.1442366,-0.79433376,3.4285295,1.3401115,0.78079396,-1.1795282,-1.0711251,3.0380309,-0.51422215,-0.2847061,1.3307195,0.84649986,-1.8975179,4.1501684,1.5074041,2.9609628,-2.1196737,-1.1521513,-0.6319695,-0.37125397,1.1990795,2.6461267,2.478337,2.0498734,0.040264487,2.9846153
AA05-nc-10-avg,2.260047,3.654089,0.7000208,1.2438402,1.7307907,1.9353698,0.7886549,0.7025413,0.6314534,0.90457714,3.616634,3.5770593,1.1411003,1.492443,2.2540493,1.6565721,0.7453888,0.9659605,0.946177,0.90129155,1.1123289,1.4349624,1.3935678,1.0052204,1.0265356,1.6704489,2.141396,1.289039,0.8432932,0.96191406,1.2749107,1.769314,1.8574263,2.9520862,0.10282111,-0.93306315,1.312642,-1.2059004,-0.34910944,0.4682805,0.4432234,0.37289196,3.2373955,2.539313,-0.81018114,0.7438472,1.5118115,1.2111331,0.37303588,-0.40035477,-0.78318214,0.51506025,0.8663551,1.0206072,-0.52881384,-0.7775755,0.87477475,-1.2167033,1.765577,0.8485956,-0.42312354,-0.040872715,-0.33094606,0.95717174,0.4072536,0.6577081,0.71133184,0.35687992,0.6274435,0.29253954,0.33606935,0.6801704,0.49078894,0.26149148,0.7370409,0.8152954,0.43586197,0.5837113,0.31152204,1.305604,0.62266016,0.25451633,0.34536725,0.41486233,1.2700125,0.531901,0.7429572,0.3647167,0.6539773,0.2974236,0.5606331,0.55822957,0.2652291,0.6855105,0.40080386,1.1699034,0.23670098,0.5332104,-0.3907913,0.30020237,0.5903104,-0.14599897,0.13673037,0.48128882,0.06473557,-0.004898578,0.38425162,0.7485109,0.025689814,0.3644114,-0.13466114,1.2386822,-0.5737473,-0.13218461,0.12471454,0.23599994,1.1753227,0.21279402,0.67791563,0.21222706,0.6052515,-0.06870274,0.45311755,0.40962642,-0.17904213,0.6223629,0.32166094,0.9157802,0.21770564,-0.28067103,0.28854162,0.42571068,-0.12570634,0.5705824,-0.16852053,0.15754697,0.73386794,0.3677678,-0.10393269,0.17629874,0.59173405,0.478195,-0.08771719,-0.39490417,0.2552966,0.37273407,-0.04095904,0.86029655,-0.22735548,0.42731342,-0.2814913,-0.22276044,0.35585356,0.19239111,-0.28648868,0.42159265,0.44580865,-0.10627548,-0.40410843,0.44659144
AA05-nc-100-avg,1.9250264,3.161004,0.7356146,1.6248261,1.4028784,1.5251884,1.0679611,0.6074674,0.53622794,1.207507,2.6836784,2.5308542,1.0516075,1.1104797,2.0574636,2.257399,0.8226953,1.4643337,1.2452258,0.9034226,0.86914754,1.0668181,1.3676536,1.1237264,1.4587713,1.408524,2.7520828,0.89996713,1.2776294,1.1300808,1.4111571,1.6379154,1.6350031,2.6557817,0.3247557,-1.277582,1.2194891,-0.8592532,-0.4338847,0.15081951,0.32919937,0.7889515,1.9240574,1.2430551,-0.79002655,0.2818076,1.4399805,1.7863733,0.39382237,-0.47836798,-1.059055,0.2604512,0.59141237,0.36549047,-0.5210386,-0.7619307,1.352332,-0.9240398,2.2929997,0.5739326,-0.99810326,-0.6338695,0.2927975,0.99253577,0.47263852,0.9377478,0.8915089,0.47474143,0.8771849,0.35931236,0.3628885,0.5588393,0.4722108,0.42942506,0.6390693,0.5293739,0.629536,0.68668294,0.55090547,1.1096134,0.87512374,0.36383685,0.34411782,0.4743537,1.1574882,0.7932903,0.6724532,0.51941395,0.92821383,0.32708108,0.5941949,0.52831906,0.51766294,0.6920127,0.6469773,0.98651063,0.42277142,0.7607539,-0.0983468,0.06316541,0.7240164,-0.003194995,0.20888078,0.17196232,-0.0042020804,0.16577393,0.12020057,0.46187225,0.030872362,0.072845004,-0.37736237,0.8985416,-0.2647565,-0.10974506,-0.08115634,0.35896453,0.96629024,0.18777044,0.40178913,0.14781459,0.82437456,0.16986161,0.42450675,0.16916981,-0.421934,0.35120335,0.5493693,0.60562557,0.5664607,0.11011399,0.6898845,0.60623056,-0.5235736,1.0505869,0.26436374,0.005909213,1.0050145,0.5806044,0.011441431,0.092069805,0.14424585,0.9420799,-0.20105226,-0.4497275,0.53003675,0.30028558,-0.25225928,1.409043,0.2598378,0.83389735,-0.55095977,-0.3784834,0.16210102,0.05570568,0.13929594,0.7707268,0.8041095,0.3297591,-0.39730185,0.87886673
AA05-nc-400-avg,1.7468882,3.0501938,0.70120597,1.7026811,1.4053464,1.507872,1.1055564,0.60274905,0.57201225,1.2460294,2.580043,2.4316595,0.94592196,1.0736167,1.8917856,2.273668,0.8272464,1.5255808,1.2598709,0.8289816,0.79500735,1.0239635,1.3980252,1.2052919,1.4595025,1.4151909,2.7136075,0.8319253,1.3296559,1.2129822,1.4396718,1.5528911,1.4924455,2.5531292,0.33693683,-1.3329773,1.2120308,-0.79238886,-0.45494038,0.084969476,0.3610311,0.8616421,1.689027,1.0754824,-0.6887414,0.28967917,1.3588398,1.8368901,0.42957556,-0.4984005,-1.0811208,0.16620253,0.522177,0.25151175,-0.520317,-0.79875505,1.3465037,-0.88097906,2.2877572,0.53747576,-1.0829766,-0.6917927,0.4297567,0.93318206,0.48821652,0.9712013,0.924812,0.49359047,0.8975733,0.35218292,0.3730211,0.53469956,0.56089705,0.4801823,0.68599343,0.5293189,0.7068604,0.7570028,0.6165537,1.090671,0.87569845,0.36212632,0.39553428,0.46672153,1.1260397,0.8393967,0.66798055,0.5696572,0.95581925,0.34681365,0.6376326,0.54563254,0.56289476,0.6882897,0.6965346,1.029217,0.43888056,0.76346785,-0.015695702,0.009894871,0.70007163,0.011527884,0.21799679,0.1300733,0.02422852,0.1824094,0.124015,0.4380527,-0.033183817,0.029997783,-0.38966835,0.83414483,-0.1902498,-0.08854312,-0.08119818,0.37025025,0.8981131,0.12094079,0.3406269,0.11174015,0.8318411,0.18742444,0.4082722,0.12840398,-0.4615848,0.27570832,0.5635102,0.5559838,0.5908442,0.15828939,0.71751386,0.62544966,-0.54110354,1.0747641,0.3246226,-0.0038418353,1.0440993,0.6257122,0.047018986,0.0758439,0.11053218,0.9645026,-0.21774428,-0.4389281,0.5564479,0.28595027,-0.2692579,1.3996013,0.30259493,0.8621418,-0.5491622,-0.37586877,0.15204893,0.03980459,0.18042593,0.8018818,0.85043114,0.41819486,-0.3835264,0.8907487
AA05-nc-1000-avg,1.7472765,3.121402,0.76637167,1.6586467,1.3957015,1.4936874,1.1294131,0.5973174,0.57512105,1.2576697,2.6112761,2.5520198,0.9699836,1.0520473,1.9562994,2.3025303,0.8502001,1.5447062,1.2441255,0.86476,0.8478201,1.0731688,1.4262768,1.200842,1.47753,1.4139019,2.7100976,0.8319994,1.333312,1.2451763,1.4451668,1.618027,1.4790845,2.6374438,0.35406885,-1.2857975,1.1903107,-0.77497554,-0.44974825,0.0932106,0.3450981,0.85278916,1.7624828,1.1246691,-0.70926297,0.24680884,1.3997566,1.8864812,0.4530446,-0.49374437,-1.0703583,0.15584585,0.53885734,0.266977,-0.50855726,-0.8094229,1.3637952,-0.91589946,2.2962599,0.51664627,-1.0444292,-0.69290733,0.4009346,0.98661697,0.4948919,0.99459857,0.9335105,0.50168276,0.9333563,0.34549537,0.3719155,0.5395962,0.5573167,0.46766883,0.6930254,0.54998136,0.7121707,0.76216656,0.6140541,1.0870942,0.8661678,0.36370525,0.3910511,0.4747335,1.1109033,0.8246399,0.6727021,0.5597006,0.93915784,0.3517113,0.62705487,0.53857833,0.55032665,0.69486195,0.6651375,1.0120201,0.4436786,0.79591805,-0.02925521,0.016671993,0.73793095,-0.014559182,0.21556255,0.12023316,0.007840564,0.18203339,0.13475397,0.4657192,-0.032246184,0.038079042,-0.38534254,0.8541033,-0.19495468,-0.09630114,-0.08177799,0.3749967,0.8923878,0.11394719,0.35151726,0.097418144,0.8186265,0.16782261,0.41444895,0.1350527,-0.45291296,0.26662678,0.54597765,0.5498812,0.59765095,0.17181154,0.72647035,0.6347428,-0.5434235,1.0939779,0.3365819,-0.008805431,1.0686675,0.623905,0.05190887,0.06047981,0.10950078,0.983808,-0.21619062,-0.4421258,0.5567824,0.29776156,-0.28041857,1.4311144,0.30554393,0.87182623,-0.56396854,-0.37542087,0.1426681,0.042702075,0.1883309,0.8148023,0.8575726,0.41727775,-0.37341595,0.915001
AA05-nc-all-avg,1.9246999,3.3822992,0.79178154,1.5419722,1.4076298,1.5963331,1.1171585,0.5817201,0.5721772,1.2224022,2.8258622,2.6835713,0.97634214,1.0976658,2.1455576,2.2691753,0.847085,1.5619662,1.1937697,0.9034108,0.89845437,1.09769,1.4808265,1.1969765,1.4586866,1.533304,2.684224,0.88935465,1.1925193,1.153078,1.3619823,1.8055418,1.6325973,2.82218,0.3147146,-1.1688977,1.1625457,-0.849224,-0.42508078,0.12756331,0.28450027,0.7385374,2.1137104,1.4406596,-0.71132565,0.26216996,1.4773825,1.7718682,0.4587779,-0.48523554,-1.011894,0.22551742,0.59000504,0.44205713,-0.4936493,-0.7984457,1.320169,-1.0256621,2.2419653,0.5535058,-0.8648104,-0.54593885,0.16540505,1.1193043,0.44867203,0.8991485,0.8653802,0.45993945,0.82337683,0.31831306,0.36367515,0.5244371,0.5281308,0.39848465,0.66965175,0.5787706,0.66872716,0.7002362,0.5702766,1.1129912,0.7880231,0.35022795,0.36147192,0.4289557,1.1185409,0.7907272,0.6847106,0.5243948,0.88460517,0.32743344,0.59920514,0.53780055,0.50364137,0.68198764,0.5819794,0.99882764,0.39257404,0.7274621,-0.19701508,0.08209052,0.6598005,-0.014859456,0.22104062,0.17233485,-0.04894829,0.13794878,0.15106082,0.50708544,-0.02381278,0.1276624,-0.3497847,0.9496455,-0.30794716,-0.12954281,-0.03302135,0.32528624,0.952171,0.1281853,0.4668197,0.14356409,0.7817618,0.11516498,0.42083403,0.23131974,-0.40128756,0.37003723,0.47411105,0.66179067,0.5830279,0.12614158,0.6984598,0.6092423,-0.5216729,1.0922441,0.27495,0.004777455,1.0506213,0.57841164,0.023351373,0.083329916,0.14742915,0.9688822,-0.19387129,-0.4294219,0.5218976,0.33274516,-0.2691425,1.4261492,0.24554236,0.82582664,-0.54169965,-0.37102753,0.16846593,0.046307225,0.13207434,0.78862786,0.8084921,0.34394497,-0.36443886,0.92359376
AA07-co-1,2.14135,6.4330187,3.347194,0.6279298,0.22252166,2.6163359,1.0216748,0.34054056,0.889475,2.5855803,1.4854002,0.12522084,1.26759,1.6948493,5.0037527,4.9853373,2.039862,2.1618414,0.825109,1.4453421,0.793815,1.3580742,2.4267802,2.105483,2.4873714,2.6549745,4.176697,0.6903651,0.8024496,1.0117768,0.30872315,4.863673,1.6474302,5.4783134,2.811562,-0.10745917,-0.08289288,-1.7920822,-0.87826365,-0.14468612,-0.8406992,2.0339124,1.0608643,-0.058409136,-0.845806,-1.5355725,4.160463,3.880699,1.7936643,-1.9432857,-0.59642005,-0.8411877,0.44840956,0.8648388,-1.3513364,-1.9492674,2.3591666,-2.4153974,3.9552226,0.2989905,0.28486276,-0.37251544,0.15392154,3.9570003,0.36419082,1.457792,0.45913494,0.041672558,1.1114857,0.78575504,0.5382794,0.084350094,1.0814979,0.21979386,0.49309856,0.29510346,1.0724049,0.5120263,0.868413,0.4597598,0.46531022,0.3267728,0.08532906,0.26478833,0.90201616,1.0687978,0.7679112,0.47952208,1.284033,0.37237188,0.6186482,0.5884335,0.6170902,0.43752322,0.10779568,0.7737697,0.35455737,1.1091951,-0.15547334,0.032995295,0.6272776,-0.45381585,0.53291076,0.036087815,-1.0135883,0.21203153,-0.48101312,0.29156324,-0.9964676,-0.3931643,-0.76329863,0.45351878,0.067381516,-0.02395186,0.07967275,0.25929686,0.73485744,-1.0494019,0.5053304,-0.4718382,1.015837,-0.36820754,-0.40751272,0.5812815,-0.5030932,-0.1820399,0.106205024,0.47842,1.7587273,1.390304,1.9490577,1.5887992,-1.4175788,2.913998,1.9175744,-0.6517101,3.0609694,1.0955235,0.6593972,-0.9655577,-1.0353684,2.8140845,-0.48743314,-0.26436624,1.2286022,0.71277076,-1.628212,3.7220407,1.3510222,2.7288823,-1.9563246,-1.1291976,-0.5618482,-0.3145341,1.2141708,2.292564,2.289383,1.872186,-0.009503514,2.7516615
AA07-co-10-avg,2.5868666,3.049138,0.63166344,1.2970711,1.5281259,2.1445136,1.3529565,0.9619072,0.59144205,1.2501196,3.984813,3.8555095,0.9311819,2.0655522,2.1543312,1.444813,1.010042,2.5607762,1.0160779,1.8508413,1.4217845,1.5338827,2.4652247,1.153498,1.0455788,1.1532152,2.5017157,1.1262227,1.0794234,1.4394296,1.7119615,0.7546494,2.254889,2.546702,-0.0724519,-0.38890123,1.3236936,0.51351535,0.22354898,0.59447426,0.2473023,0.22006889,2.982031,2.6058328,-0.40560192,1.1977358,1.6997534,1.1143064,0.30844375,0.6781228,-0.5257151,1.3345859,1.2162809,0.94882095,0.42538142,0.14950497,0.84817183,-0.1526375,2.0412874,0.8947328,-0.123199925,0.31174612,-0.22111627,0.15090251,0.6611222,1.465211,1.0002935,0.75296295,1.4901152,0.3862963,0.20482966,0.9178713,0.57109374,0.486839,0.5404337,0.49302235,1.3170276,1.2817616,0.62310416,1.8221569,1.0523272,0.39861664,0.40504217,0.7013273,1.4778562,1.7956206,1.0231383,0.9747586,0.7533571,0.2653377,1.3670757,0.46705145,0.36373395,1.220454,0.6435084,1.395615,0.65129817,1.3555385,-0.44337314,0.40684742,1.3623561,-0.2957541,-0.04649263,0.76304936,0.3749023,-0.074766755,0.36089852,0.39068684,1.013659,0.8637398,0.16166635,1.6194868,-0.59276474,-0.22610617,0.16502437,0.6876751,1.3249699,1.4644351,0.77355766,0.7203189,0.6852761,0.18937977,1.1619288,0.15164056,-0.062831916,0.88904095,0.6303729,1.1102107,-0.0021193146,-0.22202078,0.092359625,0.21669039,-0.11592569,0.46218023,-0.36136866,0.31376404,0.26310006,0.4949476,-0.25886297,0.8536065,0.82115525,0.22332028,-0.06883794,-0.37775397,0.07655735,0.2356786,0.50574505,0.46974206,-0.2286427,0.12964217,0.29519016,0.0767089,0.56063205,0.4587624,-0.18396607,0.28084263,0.33861366,-0.08147864,-0.3098717,0.28280038
AA07-co-100-avg,2.2649245,3.0020864,0.6791562,1.5232952,1.4712027,1.9831395,1.3421303,0.6894629,0.5524522,1.1602632,2.9614756,3.2708063,1.1347305,1.8102043,1.9020898,1.7014354,0.88601625,2.1633184,0.92590487,1.5463753,0.98674655,1.2137551,2.042792,1.0213372,1.2721108,1.1874356,3.023954,0.9096819,1.2920794,1.4015349,1.5527627,1.0926368,1.9685397,2.4454026,-0.0031777532,-0.8828781,1.205233,0.45425233,-0.0830661,0.3337479,0.14791967,0.3672901,2.0568645,1.9502183,-0.4019022,0.8667505,1.2191443,1.2757118,0.16240297,0.26899642,-0.6019249,1.0355431,0.71313906,0.53133464,0.4185396,-0.074500114,1.1260953,0.057001475,2.5073369,0.6138031,-0.49369812,-0.071895815,0.1278809,0.45612448,0.5300141,1.2007633,0.8448408,0.706146,1.1477295,0.27027506,0.2600162,0.6836488,0.6741933,0.47700515,0.4514271,0.4759546,1.1609589,0.97018623,0.59150374,1.5486625,0.9809638,0.37800685,0.33877304,0.51853824,1.289141,1.6230971,0.81498003,0.83212465,0.7899933,0.43470383,1.2176406,0.53617597,0.427653,0.9681481,0.86474013,1.103608,0.5076629,1.0983939,-0.4091719,0.42710194,1.0424262,-0.024796493,-0.066011205,0.43842286,0.5254282,-0.1404047,0.10495424,0.37401986,0.87946427,0.50797,-0.13667065,1.3935442,-0.5789328,-0.24754351,0.044534277,0.45220447,1.1627035,1.3497463,0.6363274,0.6227291,0.71033216,0.3881602,1.1277192,-0.092316955,-0.23259254,0.6770513,0.83161443,0.7798966,0.23645371,-0.12284925,0.331847,0.31110317,-0.35971427,0.70384455,-0.18587781,0.19583976,0.41079322,0.49471268,-0.23824672,0.7815435,0.508909,0.5312258,-0.14536342,-0.4167065,0.275463,0.24587895,0.26418296,0.89993423,-0.033718124,0.35919312,0.07762655,-0.17050251,0.37365985,0.28091866,-0.03857821,0.40314144,0.47044864,-0.008041307,-0.3639346,0.55807287
AA07-co-400-avg,2.2593079,3.1354816,0.69853044,1.503174,1.4971172,1.9802669,1.3694557,0.66534126,0.59535295,1.1721859,3.1165857,3.295207,1.1167487,1.6886206,1.9926732,1.747361,0.91746175,2.1491866,0.9642039,1.4677386,1.0101765,1.2254081,1.9970263,1.0875087,1.2633655,1.2686839,2.941945,0.9267998,1.2493095,1.3172873,1.5911167,1.1945266,1.8887225,2.5697587,0.020281618,-0.87923414,1.2255825,0.21471639,-0.10556605,0.32164088,0.16409819,0.39305496,2.1990354,2.0020607,-0.4621677,0.76183313,1.2536987,1.3214325,0.2297031,0.17322211,-0.65541655,0.93464845,0.7045351,0.52886504,0.23744081,-0.17568609,1.1218038,-0.14986417,2.426291,0.595714,-0.49530715,-0.11499082,0.10831173,0.57570875,0.5179226,1.1754194,0.85483307,0.66259956,1.1318634,0.28795445,0.27461734,0.64222264,0.6478186,0.42435274,0.53248036,0.5112497,1.0619737,0.9799249,0.58725995,1.5269885,0.94044924,0.3884053,0.3574266,0.510106,1.2997459,1.4667268,0.8115028,0.7976587,0.78051233,0.39185193,1.1276019,0.52657986,0.41013223,0.90582526,0.800817,1.1365411,0.4937408,1.0680677,-0.4043255,0.39984417,1.0142916,-0.03698453,-0.0028149695,0.42079887,0.40272462,-0.08357474,0.14354952,0.42335233,0.74955964,0.496261,-0.15076128,1.3599539,-0.5591095,-0.24739332,0.046596274,0.44961286,1.1346549,1.1771269,0.60536313,0.56734145,0.70694077,0.32259855,1.0135151,0.0004330131,-0.23508878,0.64629453,0.7493735,0.7792457,0.27354673,-0.10033731,0.36534894,0.35282084,-0.3718924,0.7392914,-0.121337816,0.17849778,0.4984692,0.5157793,-0.20421913,0.6775124,0.46581036,0.5756023,-0.14236401,-0.40968296,0.301516,0.26331955,0.2081767,0.9522801,-0.015599408,0.43101892,-0.003786908,-0.18550895,0.34619167,0.2464475,-0.026912887,0.45955217,0.523785,0.04614219,-0.3627699,0.59397066
AA07-nc-1,0.9440832,7.507002,3.4505017,0.21724188,0.15285885,1.467875,0.19177976,0.21488732,0.4574774,0.7392887,5.480617,6.080554,0.74710643,1.2260691,2.853532,1.2308902,2.5036726,1.4255465,0.25180927,0.49502373,0.3271087,1.03288,1.4800884,1.0855684,1.5699041,1.7349268,0.9640327,0.278363,0.45914257,0.28674197,0.82504153,3.7038608,0.7826456,7.4753437,2.8748035,0.15114269,0.0984633,-1.3670164,-0.11020015,0.20577565,-0.21119586,0.55192304,5.452642,5.5879264,-0.7333789,-1.0176355,2.4690619,1.0408574,2.4960697,-1.4249094,-0.17286824,-0.41563836,0.16129445,0.94927484,-1.4700208,-1.0612988,1.499294,-1.728564,0.72812605,0.26706102,0.43700773,-0.22721215,-0.76408297,3.3149824,0.6385537,1.0549012,0.44980067,0.3408637,0.47130263,0.54639864,0.4649722,0.17926317,0.89940214,0.21042502,1.001553,0.7825551,0.9362384,0.065349236,0.53234994,1.0242393,0.04905153,0.4397414,0.38295117,0.5938671,0.46445945,0.8429894,0.5210365,0.14004202,0.7319919,0.6578275,0.28539908,0.9512858,0.22892864,0.27383974,0.4776497,1.4844131,-0.41555315,0.7744786,-0.121343374,0.2705739,0.36340275,-0.39084816,0.42189214,0.14657663,-0.57630295,0.15129475,0.82242364,0.69293684,-0.7507707,0.037147194,-0.46637622,0.9947036,-0.03776669,-0.3483079,0.29511937,-0.40625373,0.33295164,-0.4641071,0.41197798,-0.035952758,0.579519,-0.63029724,-0.10530608,0.89644116,-0.101041,-0.12214436,-0.43672633,0.9193655,0.8014193,0.2923387,0.7328031,0.73589873,-0.5441384,1.2924446,0.5511179,-0.10943538,1.7341254,0.10739946,0.31403893,-0.6312288,-0.020548075,1.1363726,-0.29819635,-0.44019625,0.48251492,0.6331295,-0.84467137,1.6933957,0.2385073,1.1551204,-0.6502156,-0.4116981,-0.014156029,-0.2889557,-0.10694975,1.0002409,1.1280982,0.4492489,-0.20992613,1.0703518
AA07-nc-10-avg,2.4066663,2.669853,0.46960425,1.176219,1.3472979,2.2856486,1.1540945,0.5789029,0.7035552,0.9156743,2.3560417,2.5517871,0.89681137,1.9869235,1.5708354,1.4241321,0.80846137,2.4462614,0.8335808,1.5949957,0.93113947,0.8842198,2.117,0.90263224,1.2926853,1.597109,2.8312433,0.84063196,1.066012,1.0411899,1.5754406,0.86818326,2.0571373,2.0494933,0.064150035,-0.9074249,1.042143,1.1121376,-0.10449632,0.25083852,0.19750004,0.4588376,1.449477,1.3464199,-0.01192891,0.97212696,1.0729405,1.1041776,0.036785338,0.6281647,-0.40966612,1.2151939,0.6140798,0.22772434,0.53476447,0.17913981,1.164339,0.589783,2.4225326,0.556749,-0.651008,-0.24877484,0.19420297,0.39081222,0.51577777,1.1619747,0.9890119,0.66920227,1.0766187,0.38152704,0.3283566,0.5952504,1.0287998,0.6305655,0.4387208,0.48017684,1.3992506,0.91522133,0.5549647,1.4857275,1.0945876,0.47507548,0.27553985,0.45079064,1.3324397,1.8134639,0.75639766,0.9153717,0.952858,0.48366714,1.4168822,0.561188,0.35673386,0.88836277,0.94864523,1.0366637,0.50245136,1.0110095,-0.39195102,0.40538153,0.9239624,0.20231152,-0.15291978,0.45141357,0.77059466,-0.16051438,-0.040161718,0.33846015,1.1139767,0.4440694,-0.17250362,1.2819539,-0.56359506,-0.27751207,-0.07838886,0.38015494,1.0978894,1.5049312,0.54270864,0.6885483,0.812006,0.43959627,1.2635112,-0.26685455,-0.26629394,0.66621757,0.9377039,0.72022265,0.293267,-0.14750606,0.35073417,0.24555711,-0.41237274,0.70522845,-0.21952334,0.19115016,0.25210768,0.3919424,-0.27338696,0.8372509,0.38447532,0.5254285,-0.18777907,-0.4235731,0.3266309,0.14683153,0.3440394,0.8815824,-0.0004639864,0.34169394,0.20399448,-0.17638512,0.3767981,0.29341322,-0.04054376,0.42255512,0.41866627,-0.057059657,-0.47381297,0.5344936
AA07-nc-100-avg,2.0621376,2.9976673,0.7365837,1.5705884,1.4434897,1.7373631,1.3173189,0.6434883,0.61029285,1.2357963,2.4910817,2.7816296,1.1676226,1.3902758,1.8716545,2.1420672,0.79467046,1.8676176,1.1721656,1.2172335,0.84956014,1.0284866,1.7831465,1.1176034,1.3250024,1.248241,3.1421573,0.82878065,1.2752925,1.2664105,1.5680112,1.388971,1.8159276,2.4282296,0.18566225,-1.123775,1.2491876,-0.16951172,-0.34208247,0.2726277,0.23331995,0.63176644,1.6267824,1.2823302,-0.68058556,0.5227391,1.2650821,1.6692234,0.13439175,-0.09236413,-0.92205,0.66372794,0.5458221,0.3539792,-0.09536406,-0.46245643,1.2191656,-0.37160987,2.6419268,0.5614988,-0.8034831,-0.42725697,0.43807852,0.7683371,0.52591836,1.0591259,0.88423747,0.61338097,0.9972614,0.25683686,0.2823539,0.59559786,0.5929058,0.411911,0.54443735,0.5342488,0.89084053,0.8147793,0.6065721,1.2742978,0.8884146,0.40546483,0.3577138,0.4493044,1.2771332,1.1855773,0.7147514,0.70065427,0.85755974,0.38122842,0.9439951,0.47063777,0.47180063,0.8139223,0.8453923,1.022052,0.50909555,0.9141249,-0.25983942,0.25980037,0.8115165,-0.03940357,0.08247208,0.2966403,0.29925498,-0.039674662,0.048704237,0.42484173,0.44783458,0.26086703,-0.30755296,1.0861392,-0.4765575,-0.1981451,-0.020017738,0.40569645,1.1181574,0.7839827,0.47670564,0.36820108,0.76131004,0.33082458,0.79203093,-0.045911103,-0.3459647,0.48705524,0.77730143,0.5963939,0.40973663,0.010289989,0.5650133,0.5055982,-0.52084166,0.9158275,0.17738213,0.09061954,0.7950099,0.60279965,-0.08715613,0.44713852,0.27183896,0.7927067,-0.20284525,-0.41235524,0.42039052,0.26744395,-0.012113192,1.1987647,0.16709492,0.7277003,-0.25635943,-0.32549036,0.24327502,0.11333776,0.09156498,0.6779577,0.7135501,0.28671074,-0.36102286,0.77096444
AA07-nc-400-avg,1.7676755,2.8284512,0.8299122,1.7793056,1.3847241,1.65686,1.3001008,0.6362211,0.56866413,1.3424813,2.3336885,2.5476108,1.0778913,1.3467412,1.7291876,2.3093433,0.8935449,1.7922679,1.2124677,1.0889463,0.8336664,1.1044564,1.6820538,1.2524067,1.4588705,1.2302271,3.1368983,0.7460073,1.5128279,1.4437813,1.6117283,1.3234262,1.4598407,2.3940628,0.3481964,-1.3431664,1.198743,-0.24572878,-0.43972448,0.09003854,0.22745588,0.85576445,1.2048676,0.9447878,-0.5805537,0.36117664,1.2033892,1.9314792,0.317422,-0.36892116,-0.9827929,0.46687734,0.44663006,0.13657272,-0.18240936,-0.6499043,1.364568,-0.39746225,2.7051609,0.43377677,-1.0286126,-0.6958759,0.7022894,0.7972354,0.5801699,1.1518824,0.9410739,0.63209677,1.1091075,0.3129758,0.29607362,0.5682201,0.61963767,0.54470325,0.52168477,0.45349452,0.9403765,0.8841408,0.7018567,1.1630886,0.99289495,0.38104236,0.40474942,0.54314953,1.1454847,1.1925503,0.69964063,0.6850029,0.93308663,0.41921097,0.88597417,0.5351638,0.57184064,0.7971878,0.84725785,0.9758417,0.5541154,0.95783454,-0.033608712,0.12848133,0.8823719,-0.056171566,0.08523521,0.14526206,0.26269597,0.105111234,0.02133436,0.32841292,0.27626678,0.044709217,-0.39799517,0.88050866,-0.20363411,-0.14118434,-0.11289923,0.48602,0.8850924,0.5758759,0.30716613,0.20567627,0.7956666,0.3537433,0.686404,-0.14316364,-0.4382039,0.29647782,0.8014074,0.3683581,0.5287997,0.18159436,0.6849861,0.6012811,-0.6009441,1.0411988,0.34621346,0.013077154,0.9688185,0.7068075,0.00094773096,0.3016594,0.13377257,0.94172835,-0.25485766,-0.4348668,0.52603644,0.25825197,-0.14901823,1.3703103,0.33466268,0.8696888,-0.41916302,-0.37231722,0.13735735,0.07555995,0.25051755,0.78765213,0.8627889,0.46379966,-0.3592439,0.8777802
AA07-nc-1000-avg,1.8456111,2.9127328,0.7982293,1.7007437,1.3866173,1.7403117,1.3140796,0.68427396,0.55765283,1.3683317,2.4601066,2.7242894,1.1322664,1.4393989,1.8179168,2.28986,0.920524,1.8794268,1.2229222,1.1441514,0.8479859,1.1605895,1.7595593,1.2641659,1.4557418,1.2866418,3.1674938,0.77883166,1.4440002,1.4232823,1.618365,1.3251582,1.5198845,2.431247,0.28662413,-1.2758169,1.1782975,-0.22122487,-0.39831427,0.108718574,0.19599016,0.8243667,1.3069075,1.0758734,-0.6303905,0.3988894,1.2631611,1.8837501,0.3375074,-0.3392127,-0.9652626,0.5671393,0.52002054,0.19241181,-0.17095813,-0.6173623,1.3526618,-0.4214616,2.7203183,0.446488,-0.94079566,-0.6077713,0.6154929,0.7705296,0.59995085,1.1942347,0.9710578,0.67359567,1.1636277,0.3232425,0.30565593,0.5976125,0.61751574,0.5658794,0.54649436,0.4701826,0.95944184,0.9164209,0.7083379,1.2304851,1.0456802,0.4142292,0.40879738,0.56563705,1.1763642,1.2437649,0.7395181,0.70353556,0.94089156,0.39704353,0.9244537,0.51672196,0.53939205,0.8138297,0.8471257,1.0191618,0.5726656,1.0132023,-0.056954272,0.14858733,0.9553323,-0.08410665,0.0857379,0.18639843,0.2613311,0.10940916,0.019727696,0.3250256,0.2940787,0.10077439,-0.38155356,0.92029274,-0.20511179,-0.14921254,-0.089297675,0.50885224,0.9118637,0.62104714,0.33266282,0.24338956,0.8055756,0.34565407,0.7057984,-0.1263275,-0.40911448,0.3457907,0.7951494,0.419888,0.51064926,0.16873817,0.65632105,0.58458304,-0.58722675,1.021143,0.312149,0.026177442,0.9436614,0.69823647,-0.01830635,0.33404535,0.15726542,0.9182532,-0.24172664,-0.42817616,0.5054486,0.26473573,-0.120093375,1.3498517,0.31027487,0.8450141,-0.38965407,-0.36371022,0.15339835,0.091220066,0.23439123,0.7761006,0.8457882,0.43928963,-0.35858035,0.8592325
AA07-nc-all-avg,1.9772124,3.0561378,0.80375606,1.6234065,1.4032805,1.8057045,1.312019,0.6588809,0.5735554,1.320249,2.5754504,2.8120568,1.1442881,1.43744,1.9316883,2.2471707,0.88035685,1.8811792,1.1721317,1.2067219,0.8818325,1.1854681,1.7941747,1.2430102,1.4164615,1.3505598,3.1558573,0.82214135,1.3724504,1.3707858,1.584054,1.4189051,1.6541096,2.531582,0.25604063,-1.1668781,1.1691982,-0.25490278,-0.37883857,0.17929544,0.18555295,0.73252875,1.54343,1.2778054,-0.63844156,0.4424577,1.3218821,1.8094355,0.29948875,-0.2874733,-0.91516125,0.6249893,0.5622502,0.34123713,-0.13982505,-0.5859861,1.302619,-0.4693016,2.6910806,0.49155608,-0.8139108,-0.48602125,0.4673587,0.82936805,0.5665351,1.1316704,0.92403406,0.64111227,1.0844158,0.30886018,0.29594156,0.5916115,0.60707635,0.4959364,0.54153126,0.49708414,0.93161947,0.88397914,0.66604847,1.2609372,0.9656968,0.39863127,0.38835645,0.53637993,1.2068102,1.2164354,0.7410044,0.68506753,0.88864845,0.38568375,0.910221,0.5064462,0.50600547,0.82513946,0.81168085,1.0309936,0.53812784,0.96618754,-0.17270552,0.20976059,0.8983326,-0.07633278,0.08080335,0.24911165,0.24895969,0.053658564,0.026412105,0.37612107,0.33018017,0.18143126,-0.33840224,1.0079318,-0.31752628,-0.17878106,-0.053606153,0.47483227,0.98280245,0.66675997,0.4206226,0.28920764,0.7735179,0.31638014,0.73200965,-0.065457545,-0.3660914,0.41871667,0.76273,0.51104933,0.47560844,0.11033386,0.61742777,0.5580937,-0.5550399,0.9948659,0.2473588,0.047540452,0.9057116,0.6572876,-0.042972196,0.3691587,0.21124539,0.87921375,-0.22183716,-0.42041957,0.46804684,0.28509223,-0.092276365,1.3171751,0.24494547,0.793605,-0.35350347,-0.3487631,0.18554014,0.09981431,0.17252398,0.74154997,0.7936042,0.3683075,-0.35069633,0.84092695
AA10-co-1,1.161762,3.814862,0.88559455,2.5407057,2.2874599,0.60733795,0.52863806,0.1433196,1.1610906,0.11726171,7.223618,5.515291,1.135834,1.3590952,2.4509928,0.5420958,3.3377166,0.5776106,0.90151346,0.6429461,0.76461095,1.4171728,1.1051892,0.78041,1.0332329,1.1456151,1.2120898,1.1320208,3.782462,3.192793,0.6022034,0.8077908,0.60201895,3.2162142,-0.64916146,1.9515651,1.7118356,-0.19476435,0.36369348,0.020769905,0.7952151,0.025480932,6.422109,5.225667,0.59736633,0.7498797,1.099245,-0.18103683,3.241759,0.1921328,-0.6035824,0.41905007,0.5957055,1.0612258,0.3932329,-0.69066066,0.64384145,-0.88501805,0.885852,0.450839,2.8153286,3.1179752,-0.13164876,0.33184698,0.5137073,1.0260006,0.8255807,0.19227451,0.45315823,1.1463221,2.1930125,2.4645033,0.47030252,1.2829981,7.318718,1.1978629,0.83700466,0.3887873,3.2464538,0.7468926,1.253776,0.7246313,2.106313,0.39542806,4.893102,0.551907,0.95632666,3.8635235,0.49922612,0.2941303,0.8326183,3.0532646,3.8108401,5.5291414,1.1485132,3.854568,-0.34488094,0.5285528,-0.12962161,0.012451231,-0.24131897,0.5845114,1.2844032,1.4272016,-0.2776916,0.71541566,6.1771855,0.9039084,0.32177463,0.071176015,2.656506,0.15930353,0.63111097,-0.60218734,0.25056785,0.030409575,3.4237938,-0.32025227,0.848646,2.6981032,0.46357343,-0.22438279,0.47360238,2.4216976,2.9974732,4.2549562,-0.9033144,2.1386464,0.011342831,-0.63811624,-0.2780445,-0.022197038,0.7715751,-0.073782295,-0.9090652,0.55252624,0.3281423,0.30993572,0.11120856,0.57136273,0.927129,-0.22842789,-0.018994324,-0.04994072,-0.014659613,0.25532126,-0.036128145,0.11021149,-0.5203247,-0.54055864,0.33341637,0.9207409,0.6924601,0.5045798,-0.5375074,-0.26353827,-0.38302866,-0.64660627,-0.0062219985,-0.3867728
AA10-co-10-avg,1.965115,2.0746875,0.504224,2.0393138,1.9910667,1.198602,1.930302,1.4475884,1.4630277,0.8736304,6.511528,6.1896086,0.48041314,3.2121377,2.8404403,0.5285727,1.187977,3.275721,0.6548766,2.2669482,1.6448796,2.75963,1.8835995,1.4689806,0.7424448,1.121195,0.8372135,2.1228774,2.117728,2.4262795,0.7378337,0.85396194,1.7664391,1.5458758,0.00012313723,1.5803548,1.7772017,0.49081653,1.3107541,1.353222,1.3939629,-0.27644268,5.573384,4.561513,0.29859495,2.846119,2.124705,0.34425628,0.6926299,2.2350535,0.2911588,1.7286276,1.4655609,2.4509377,1.3263146,1.2625587,-0.5302986,0.4497103,0.520574,1.8027232,1.2903538,1.8824646,0.047759227,-0.52273023,0.6119685,0.97736627,1.5698488,0.7222885,1.149117,1.3005446,2.4757318,1.942486,1.364363,0.97529906,6.356944,3.9530063,4.0545797,3.0483074,3.7749684,3.4062533,1.0897759,1.0669458,3.2696736,1.5608727,2.6396587,1.8187691,1.281479,5.0787854,0.36434072,1.102258,3.5170677,3.1382663,2.1300101,5.5694723,1.7630861,2.4922147,0.43028736,0.05973517,0.60774565,0.30440658,-0.11324923,0.57274234,1.2026807,1.5983036,1.082707,-0.5080549,5.0958014,3.252819,3.1319797,2.431018,2.5171514,2.5082273,-0.6367043,0.49551845,1.7479757,0.9912912,1.7852043,1.2178122,0.96661043,3.9068305,0.16912861,0.5109013,2.158576,2.259884,1.3417144,4.264901,-0.012207845,1.8554242,-0.8207835,-0.45363498,-0.1534682,0.2926136,2.314681,0.02833121,-0.48099822,1.7146225,0.1811022,0.7704167,0.30424023,1.7844607,2.7238228,-0.51836145,0.8384689,0.7026103,-0.69406027,0.06861161,1.5629518,-0.58778095,-0.23080067,-0.65206,1.9546274,1.5051302,1.5498519,1.5648034,-0.37199205,-1.0973295,-0.67092645,-0.118275926,1.1119566,-0.16732308
AA10-co-100-avg,1.7061152,1.5682913,0.47999287,1.6037923,1.9760095,1.1730675,1.3565978,1.4420259,1.6334041,0.7188465,5.300367,4.73504,0.5936401,2.986268,2.2061183,0.3224045,0.90011144,2.6663888,0.6562797,1.7777148,1.4141546,2.4430318,1.6721501,0.95242393,0.9020189,1.176092,0.6370954,1.9020594,1.6076595,1.7582479,0.6720706,0.9013389,1.5311807,1.1820314,0.1361895,1.1203935,1.7599063,0.32090676,0.81054556,1.3636656,1.5570942,-0.063854344,4.5099745,3.4764051,0.341128,2.680261,1.6477711,0.14664572,0.48770455,1.8344382,0.18641466,1.3483485,1.2042801,2.1515572,1.20803,0.7439173,-0.6030252,0.579772,0.21363601,1.6243277,0.78751093,1.3418322,-0.023688234,-0.52878505,0.53371185,0.91723585,2.0192842,0.89853823,1.2416474,1.2670501,1.8810233,2.1002707,1.5011868,1.0773587,5.1229033,3.0391421,2.9348512,2.3949678,2.8330612,2.5602984,1.1476731,1.1198026,3.2419572,1.3448638,2.3145542,1.5117797,1.2562497,4.2489543,0.59558046,1.1156445,2.8394074,2.3151472,1.6849083,5.019762,1.1766236,2.4938512,0.20143387,-0.034090955,0.9926877,0.25098577,-0.2642868,0.5119774,0.8514692,1.5279237,1.0896616,-0.69178367,3.9723737,2.4200473,2.095046,1.7716696,1.8725574,1.8448602,-0.84521395,0.37716183,1.705076,0.82548904,1.6171263,0.92456406,0.8334113,2.8302424,0.24207954,0.5790324,1.9519734,1.703452,0.9282802,3.695595,-0.15816969,1.7808229,-0.799271,-0.46145424,-0.18645866,0.28481716,2.1737442,0.0020739955,-0.5187549,1.6066262,0.1483226,0.7181001,0.27494726,1.653521,2.5262198,-0.5260118,0.72990394,0.63615596,-0.5997031,0.047778107,1.2743924,-0.60521424,-0.23487689,-0.6026649,1.7843224,1.2029442,1.4423927,1.3978081,-0.37256095,-1.0312011,-0.6874932,-0.093755394,0.9615964,-0.21333311
AA10-co-400-avg,1.7554528,1.8165108,0.4865501,1.6511006,2.0292594,1.202633,1.4458166,1.384545,1.5734466,0.76662236,5.6062975,4.9273033,0.5979977,2.9310234,2.28143,0.33835793,1.0064619,2.7282953,0.6643328,1.8068587,1.4174854,2.4312754,1.6958095,1.0125791,0.8487547,1.1567398,0.6586934,1.8943527,1.6877098,1.8965489,0.7184689,0.92302275,1.5485424,1.3686867,0.099436894,1.1510838,1.7995425,0.26918083,0.888325,1.317708,1.4940683,-0.09667184,4.83631,3.7377787,0.29830992,2.583869,1.661801,0.18042755,0.60507524,1.8313915,0.1357993,1.3384414,1.2066405,2.094726,1.1595999,0.77177423,-0.5215056,0.49818152,0.24408345,1.5904063,0.8940956,1.4388067,0.00439474,-0.5019671,0.49305734,0.9724029,1.781006,0.93316686,1.2367674,1.2739822,1.9971681,2.0740683,1.5010585,1.0315683,5.225664,2.9645472,2.9176617,2.424632,2.8235116,2.6386886,1.1312037,0.9713629,3.05544,1.2561094,2.455836,1.5480942,1.2397447,4.220461,0.60350776,1.0978115,2.6122057,2.5233674,1.8434871,4.711693,1.2332801,2.6281676,0.22855222,0.06328908,0.8525831,0.30862063,-0.19031245,0.53088003,0.9405875,1.5446397,1.1048943,-0.60686815,4.1430335,2.3821986,2.0817919,1.787637,1.8768203,1.9031549,-0.80535376,0.28272474,1.6137252,0.7889682,1.7701775,0.9636353,0.83565664,2.887343,0.2716491,0.58415145,1.7687916,1.8985726,1.0648048,3.5834048,-0.12542304,1.8808103,-0.76901925,-0.46001366,-0.20249124,0.24947916,2.0418682,0.0038540615,-0.5478093,1.5173897,0.12379752,0.68581575,0.22806385,1.5763311,2.4133718,-0.51724523,0.68360794,0.5779493,-0.5555328,0.05828463,1.2305162,-0.60105073,-0.25994015,-0.5956557,1.6836717,1.1868565,1.3927693,1.3389195,-0.37536216,-0.9501445,-0.631979,-0.126204,0.87499404,-0.22248335
AA10-nc-1,1.2863693,3.6842449,0.67749166,2.9147096,2.0654078,1.5112642,2.0829034,0.41556278,0.3744351,1.1420455,7.702793,6.6659994,0.4588415,0.95982903,2.7608595,0.26796663,1.9016844,3.1447315,0.3702547,1.6151762,1.3334606,1.9917319,0.95022476,0.79796463,0.4458128,1.5129803,1.0722215,1.1760571,2.5513587,2.600089,0.8309175,0.5314214,0.98648113,3.1397557,-0.5864097,1.8144426,1.6269395,-0.7833003,1.5106716,0.29167143,0.2289221,-0.59694135,6.9930763,5.82674,-0.28043348,0.6995406,1.3513844,0.0754224,1.6894144,1.6635045,-0.1845943,1.1006621,1.0618827,1.4506943,0.4554188,0.29062575,0.286067,-1.1756318,0.701633,0.615902,1.4911721,2.0193453,0.015927985,-0.090692565,0.24402414,1.2928485,0.84812677,0.22980042,1.5867507,0.2703996,1.5820704,0.5185611,0.21904361,0.62337846,5.153393,2.8079715,1.6606312,2.0036402,2.4209318,3.1844878,0.84626734,0.3008008,1.2371395,0.46289736,1.7794349,0.6758228,1.0266347,2.470299,0.37930855,0.59525335,1.4353076,2.1007707,0.633472,2.9185686,1.0037566,1.9890404,0.19720684,0.76224357,-0.6705381,0.15954171,0.52986854,-0.12136226,1.2200071,0.49648318,-0.14542209,0.18320535,4.9305944,2.2974012,1.1037077,1.6789429,1.5126797,2.319179,-0.67366564,-0.20139389,0.48916903,0.41097483,1.2569119,-0.46709248,0.98605806,2.2078598,0.36207983,-0.58179903,0.576212,1.7863301,0.35287774,2.1933057,-0.9022714,1.7588571,-0.38917336,-0.5276397,-0.40899056,-0.08215672,0.9130232,0.03402794,-0.90450394,0.7433543,-0.2025319,0.50007546,-0.24658102,0.45109522,1.5339476,-0.5028496,0.13344242,-0.20311338,-0.2581467,0.36950415,0.55500627,-0.5809634,-0.4187691,-0.6705977,0.68653506,1.0088592,0.83215654,0.8820107,-0.40192676,-0.47592676,-0.3454048,-0.50812787,0.22998783,-0.2653046
AA10-nc-10-avg,1.2794665,1.4424958,0.439179,0.9141916,2.0525327,1.0630766,0.83493835,1.7602419,2.2509918,0.683157,4.6727414,3.338839,0.5542309,3.301227,2.0434728,0.4338192,0.72234696,1.8341287,0.63756657,0.98256606,1.1795504,2.2218752,1.4515687,1.1651509,0.72172344,1.9798521,0.5125891,1.8466518,1.1324059,1.0769478,0.41960818,0.8287996,1.1613263,1.0341121,0.07110453,0.66107875,1.8518639,0.22934727,0.5278133,1.7358894,2.1844304,0.27566755,4.274804,2.8138738,0.20945616,3.0680566,1.6437708,0.34442276,0.5380543,1.5181091,0.098684765,0.7667441,1.0199306,1.9935042,1.1954055,0.86565864,-0.5801221,1.4362143,0.079397246,1.6597011,0.29743415,0.62519574,0.0895644,-0.5486547,0.59265286,0.9766615,2.4430947,0.8475542,1.497699,2.6042035,2.3158326,2.1970873,2.7034137,1.2985651,3.8201568,2.492169,2.0410082,2.1705823,2.7106252,2.5150065,1.1886995,0.9992858,3.7850165,1.1427181,2.0771978,2.0838509,1.0916027,3.0894341,1.2198008,1.3694245,2.7822607,2.8769665,1.0989724,3.2921333,1.8241163,2.9744973,0.12260091,0.097680844,1.2177606,0.23866293,-0.38574246,1.7220209,1.3981107,1.8002332,2.2478485,-0.858212,2.9249394,1.9722971,1.3300561,1.7179197,1.7140983,1.9322221,-0.79313564,-0.3023986,1.8749746,0.49890557,1.6298199,1.4643883,0.49807692,2.1344647,0.42293915,0.97237265,2.0375583,2.3294814,0.42993745,2.4802763,0.6537277,2.2072127,-0.8508266,-0.52156234,-0.34107453,0.3093658,2.347363,-0.10319159,-0.49676546,1.5998907,0.2430634,0.67485964,0.3761012,1.9020106,2.5116165,-0.60755885,0.84395283,0.8675338,-0.49094787,0.08699764,1.1930197,-0.716889,-0.3754206,-0.5213332,1.7842999,0.91761434,1.4397684,1.1216309,-0.42388192,-1.0233525,-0.6295897,-0.09418489,1.0356841,-0.34326115
AA10-nc-100-avg,1.5750139,1.536691,0.48871896,1.3578645,2.03798,1.0289117,1.1434582,1.4896824,1.7683692,0.7370193,5.0584035,4.2103853,0.54201084,2.9911382,1.9972196,0.31784075,0.872921,2.3771832,0.6613668,1.5635998,1.2844354,2.2743065,1.5286283,0.9283489,0.87054414,1.2446529,0.6009698,1.8323298,1.47863,1.5955286,0.58715844,0.85929877,1.4486188,1.142819,0.22100702,0.930354,1.8577684,0.23681886,0.69707596,1.4364781,1.7082602,0.11403322,4.3845263,3.1517453,0.3099196,2.7642603,1.6007528,0.1732141,0.4866932,1.6935167,0.08290035,1.2025244,1.1341792,2.0183587,1.110282,0.68040854,-0.5900037,0.747155,0.14446902,1.6486849,0.64238787,1.2070524,0.039292503,-0.5492581,0.5434316,0.825007,1.7705722,0.92332107,1.2281481,1.5774245,1.9623927,2.2101233,1.7966485,1.077061,4.811077,2.6792676,2.5726547,2.2195861,2.7132921,2.3512542,1.1211227,1.0218658,2.919419,1.2649004,2.4227521,1.6134822,1.1244735,3.8371181,0.7275425,1.235113,2.502615,2.4556713,1.7218202,4.2916055,1.1712258,2.6583571,0.11901341,0.011776751,0.98868096,0.31428543,-0.23972799,0.73264724,0.97822845,1.6586406,1.3187,-0.6045786,3.7343147,2.137668,1.8098395,1.6165705,1.8195212,1.6972327,-0.75276244,0.2628562,1.596634,0.71367645,1.783145,1.0485108,0.7010952,2.6263669,0.34435403,0.7863146,1.7320836,1.8495293,0.9878749,3.2948503,0.023065386,1.9127082,-0.7687917,-0.4718979,-0.21814306,0.26546693,2.0767035,-0.024767818,-0.52426374,1.5349014,0.13061222,0.6677478,0.26245272,1.6331285,2.393446,-0.5302514,0.7001008,0.6409454,-0.50692284,0.03794328,1.1806804,-0.61719584,-0.27562082,-0.5563926,1.6867756,1.0741574,1.3867725,1.2692931,-0.38310832,-0.94076234,-0.6235934,-0.11091928,0.874522,-0.26297152
AA10-nc-1000-avg,1.5645219,1.6004025,0.4942998,1.4215343,2.0614245,1.1293685,1.1940972,1.4877509,1.7851379,0.77536416,5.1282983,4.297971,0.53842896,2.9786148,2.0812654,0.3793421,0.9329542,2.4392066,0.6776524,1.5661777,1.2753872,2.2373939,1.5825918,0.97275275,0.8622308,1.3571591,0.5970321,1.8349079,1.5284755,1.6546099,0.6427283,0.87138355,1.4236746,1.2012606,0.18195552,0.9368844,1.8866612,0.2988109,0.73237807,1.4224541,1.7233483,0.11951878,4.4307632,3.2655172,0.2843513,2.7336717,1.6289499,0.22611843,0.5810947,1.7009858,0.031155674,1.165293,1.0948561,1.967879,1.1264603,0.70051646,-0.55321467,0.7922226,0.1481931,1.629607,0.69433004,1.1773224,0.053791765,-0.52708644,0.55131304,0.9093906,1.9255699,1.0539505,1.201933,1.7265986,2.016218,2.270309,1.8199528,1.0554347,4.696925,2.6020029,2.6947877,2.1912193,2.746169,2.3582983,1.0743566,0.92837816,3.148628,1.2093828,2.5069845,1.7472503,1.2473154,3.9146633,0.7622612,1.3933758,2.5387897,2.5391371,1.8351781,4.337978,1.3249635,2.8670185,0.11387202,0.047671903,1.05181,0.36421278,-0.2538293,0.8381736,0.97170395,1.6275822,1.334806,-0.59270585,3.5981455,2.0407486,1.8137515,1.5464551,1.8165089,1.6760496,-0.6792562,0.16658394,1.6706318,0.6378992,1.7856628,1.0823199,0.7102694,2.582426,0.350617,0.8618237,1.7089823,1.8660339,0.99439985,3.3178453,0.06679087,1.9961607,-0.73728013,-0.46567497,-0.2108508,0.25560245,2.0033076,-0.012390675,-0.5236779,1.4722233,0.14281082,0.64659214,0.2548877,1.608568,2.3133228,-0.5144338,0.67899394,0.6273242,-0.46537614,0.043811705,1.1381247,-0.5963404,-0.28673482,-0.53589684,1.6201127,1.0617874,1.3524964,1.225033,-0.37971714,-0.87399143,-0.5805341,-0.11015206,0.82054096,-0.25493506
AA10-nc-400-avg,1.5850916,1.6626885,0.4994093,1.4757895,2.0976958,1.0561217,1.2124864,1.4693276,1.7730942,0.764864,5.3008657,4.4688964,0.54629374,3.0015502,2.1502485,0.37052616,0.9804766,2.4034672,0.6383177,1.6124012,1.3079116,2.3104155,1.5742809,0.9564032,0.88727206,1.2924302,0.6386569,1.865232,1.6355557,1.7655196,0.64919966,0.9065016,1.4378003,1.2414724,0.16268687,1.0106292,1.9111016,0.19281319,0.73658353,1.4158543,1.7037978,0.068917386,4.6256437,3.4212692,0.29803926,2.739668,1.6484056,0.2178783,0.6255124,1.7058301,0.017217085,1.1983527,1.1220727,2.0421453,1.1319522,0.6828453,-0.5906852,0.7398641,0.17091364,1.6379471,0.80860054,1.2859639,0.047457863,-0.54198503,0.5109183,0.9221382,1.9811352,1.0809579,1.2019912,1.6080642,2.0478191,2.3137493,1.7637858,1.0675625,4.932353,2.579992,2.6147518,2.172815,2.9188612,2.2885036,1.0936238,0.881952,3.307192,1.2612276,2.599716,1.6934925,1.2740571,4.0132356,0.79337144,1.3800348,2.4394145,2.568186,1.9699526,4.613909,1.3365703,2.9280133,0.13437018,0.015520423,1.0853188,0.37093017,-0.30269286,0.774074,0.99157166,1.6528022,1.2697785,-0.59791434,3.8220227,2.032901,1.7812476,1.5429479,1.9284258,1.620746,-0.69910353,0.16011661,1.6875796,0.70846105,1.851338,1.0348049,0.7735617,2.712328,0.3264527,0.83462775,1.6352675,1.9031136,1.1465896,3.575435,0.044461112,1.9792175,-0.7581382,-0.4732716,-0.22174458,0.25342053,2.0312986,-0.02133401,-0.5341134,1.486392,0.13958241,0.6581901,0.25182366,1.6216484,2.3414357,-0.52702695,0.6810828,0.6342326,-0.48887375,0.050184175,1.122127,-0.60945576,-0.288684,-0.5520201,1.638293,1.0936732,1.3660103,1.2477827,-0.38462466,-0.9032882,-0.6173178,-0.121227935,0.83815366,-0.25590125
AA10-nc-all-avg,1.5887971,1.664239,0.48036316,1.465813,2.0821333,1.1234163,1.2207907,1.4631246,1.7461923,0.76044744,5.2623734,4.4417334,0.5643298,2.999916,2.1510973,0.38206378,0.99378335,2.4109588,0.681611,1.5995638,1.3092406,2.3020232,1.5581344,0.9577985,0.8804806,1.3192468,0.6305379,1.8686602,1.5938026,1.7184774,0.640308,0.90280944,1.4310685,1.2614522,0.13845772,0.98277843,1.886122,0.23170985,0.74626666,1.3970137,1.6783063,0.084442146,4.5802274,3.4015605,0.296556,2.722176,1.6506379,0.22727418,0.6369296,1.681717,0.048914585,1.1895288,1.122445,2.0161746,1.1097547,0.6846824,-0.5571429,0.7239041,0.1613195,1.6298177,0.7674153,1.2584406,0.031295814,-0.52670497,0.53375363,0.9281974,1.9049138,1.0416061,1.2032988,1.6306156,1.9830233,2.2391584,1.7294164,1.0554577,4.8156123,2.6131425,2.5981355,2.166001,2.793507,2.310598,1.0774552,0.9043006,3.1690354,1.211808,2.5182638,1.6721491,1.2478304,3.9168906,0.75106394,1.3499662,2.4565654,2.5288088,1.8742836,4.431549,1.2802022,2.8251877,0.13280189,0.050960526,1.0191295,0.36220783,-0.2533376,0.77599525,0.94793046,1.6172999,1.2659845,-0.58517575,3.740493,2.0639646,1.7510265,1.5372224,1.8541083,1.652237,-0.6724866,0.1572064,1.6546919,0.67300034,1.801233,1.0152519,0.749109,2.6164184,0.33159003,0.811793,1.6586851,1.8597982,1.0638685,3.4027417,0.0253972,1.9797258,-0.7450859,-0.4689937,-0.21746355,0.2584748,2.0270007,-0.014564663,-0.52681845,1.4818906,0.15291688,0.6587999,0.25853193,1.6081449,2.3367305,-0.51595974,0.6833464,0.63225394,-0.47749722,0.05485068,1.11997,-0.5955195,-0.28781107,-0.5441078,1.6262649,1.081974,1.3594449,1.2374078,-0.38349724,-0.8993786,-0.6053081,-0.11307084,0.84210837,-0.25078565
